tree
version=v3
num_class=1
num_tree_per_iteration=1
label_index=0
max_feature_idx=80
objective=regression
feature_names=MSSubClass MSZoning LotFrontage LotArea Street Alley LotShape LandContour Utilities LotConfig LandSlope Neighborhood Condition1 Condition2 BldgType HouseStyle OverallQual OverallCond YearBuilt YearRemodAdd RoofStyle RoofMatl Exterior1st Exterior2nd MasVnrType MasVnrArea ExterQual ExterCond Foundation BsmtQual BsmtCond BsmtExposure BsmtFinType1 BsmtFinSF1 BsmtFinType2 BsmtFinSF2 BsmtUnfSF TotalBsmtSF Heating HeatingQC CentralAir Electrical 1stFlrSF 2ndFlrSF LowQualFinSF GrLivArea BsmtFullBath BsmtHalfBath FullBath HalfBath BedroomAbvGr KitchenAbvGr KitchenQual TotRmsAbvGrd Functional Fireplaces FireplaceQu GarageType GarageYrBlt GarageFinish GarageCars GarageArea GarageQual GarageCond PavedDrive WoodDeckSF OpenPorchSF EnclosedPorch 3SsnPorch ScreenPorch PoolArea PoolQC Fence MiscFeature MiscVal MoSold YrSold SaleType SaleCondition TotalSF SFPerRoom
feature_infos=[20:190] -1:0:1:3:4 [21:313] [1300:215245] -1:0 -1:0:1:2 -1:0:1:2 -1:0:1:3:2 [2:4] -1:0:2:3:1 [1:3] -1:11:0:7:15:5:17:10:9:6:12:8:2:4:3:16:13:19:18:23:14:21:22:1:20 -1:0:1:3:6:2:4:7:5 -1:0:3 -1:0:3:2:4:1 -1:1:0:2:5:4:3:6 [1:10] [1:9] [1872:2010] [1950:2010] -1:0:1:4:2:3 -1:0:5:1:3 -1:0:3:1:2:7:6:4:5:9:8 -1:0:1:3:5:4:6:2:8:7:9:11:10:13:12 -1:2:1:3:4 [0:1600] [0:5] [0:5] -1:0:1:2:4:5 [0:5] [0:4] [0:4] [0:6] [0:5644] [0:6] [0:1474] [0:2336] [0:6110] -1:0:1:2:3 [0:5] -1:0:1 -1:1:3:2:4 [334:4692] [0:2065] [0:572] [334:5642] [0:3] [0:2] [0:3] [0:2] [0:8] [0:3] [0:5] [2:14] [2:8] [0:3] [0:5] -1:1:2:3:0:5:4 [1900:2010] [0:3] [0:4] [0:1418] [0:5] [0:5] -1:0:1:2 [0:857] [0:547] [0:552] [0:508] [0:480] [0:738] [0:5] [0:4] -1:0:1 [0:15500] [1:12] [2006:2010] -1:0:1:2:3:4:6:5:8 -1:0:2:1:5:4 [334:11752] [149.71428571428572:979.33333333333337]
tree_sizes=764 729 740 746 746 745 744 736 728 728 733 748 778 763 730 759 737 747 732 759 740 728 730 731 756 734 740 735 747 744 739 744 726 769 745 741 750 766 775 730 734 773 733 738 745 754 736 760 747 771 760 744 733 743 770 764 775 765 760 750 740 739 761 737 757 742 758 750 809 769 776 744 779 745 735 784 757 767 753 738 766 742 731 781 758 768 729 758 786 757 769 778 732 751 748 788 769 741 757 761 732 746 732 759 758 750 750 758 731 762 732 753 760 771 775 778 761 769 745 744 772 748 786 727 766 739 761 734 783 760 775 755 748 773 743 752 776 751 764 771 729 733 730 744 738 745 760 769 794 758 771 765 745 778 766 783 760 761 753 773 734 745 729 741 768 736 762 772 748 753 747 765 791 746 771 772 744 769 779 745 754 762 788 747 769 782 767 747 772 767 750 770 759 769 763 803 784 760 771 787 762 746 770 752 782 749 732 776 755 774 783 740 740 749 768 741 770 760 785 767 758 756 793 746 741 771 769 771 757 766 784 787 776 749 755 767 784 763 742 735 762 778 776 747 759 753 796 729 778 758 781 761 802 785 785 736 788 778 761 745 749 753 776 770 769 797 817 763 772 763 750 784 768 789 762 766 754 776 760 804 779 757 769 756 769 775 780 775 769 763 743 750 743 799 770 756 764 764 765 800 759 765 763 768 733 749 784 773 767 786 770 776 759 750 785 781 755 732 772 739 798 754 765 745 799 748 767 802 743 782 789 757 805 800 778 768 805 754 773 785 758 805 803 754 751 778 779 758 776 754 790 783 775 778 763 737 735 750 740 779 747 786 765 786 752 770 758 783 785 799 751 737 774 802 804 764 785 758 786 765 759 781 772 758 768 750 769 770 762 777 778 764 773 763 759 771 797 737 762 767 781 745 788 791 761 796 777 768 784 788 771 789 784 795 779 771 789 763 778 774 762 772 768 745 761 765 782 778 787 797 784 767 802 766 761 744 767 764 763 760 764 792 799 763 796 780 802 789 753 775 743 805 774 774 795 770 752 759 752 776 782 770 803 762 775 768 729 754 743 775 788 759 761 769 799 741 762 755 752 779 757 769 797 799 764 800 764 792 775 780 783 762 763 778 779 740 769 792 750 767 758 774 764 767 784 763 774 750 777 754 745 758 781 781 782 822 752 834 763 762 792 790 793 788 760 758 785 772 785 786 779 788 782 773 778 772 782 768 795 816 796 794 768 785 743 760 800 795 780 762 747 763 780 752 763 780 780 775 760 772 790 748 765 789 761 788 817 774 796 775 749 752 779 782 777 815 779 758 790 781 771 779 791 773 780 742 767 791 785 800 766 801 751 785 797 749 775 780 765 773 764 791 766 768 816 762 779 792 743 766 771 791 750 814 772 799 808 790 800 764 756 798 786 757 777 799 777 804 766 803 774 776 796 787 828 801 786 795 806 796 777 753 780 764 774 805 791 781 778 754 769 769 751 805 798 812 818 788 765 771 793 812 760 762 785 784 749 762 776 784 781 774 789 833 785 765 800 795 743 794 820 815 783 766 777 775 758 777 765 783 792 779 778 762 792 819 778 788 773 811 771 753 755 766 783 787 749 765 802 796 794 775 741 796 777 781 785 781 780 774 821 788 779 783 770 768 785 802 796 784 793 759 751 760 818 784 799 783 776 797 789 783 788 789 799 786 804 769 795 782 772 789 816 813 780 800 755 764 776 770 815 778 787 796 781 763 761 798 799 777 821 792 781 801 784 782 809 788 778 756 764 791 801 781 785 756 792 792 779 757 798 795 801 751 775 774 797 761 772 752 776 785 763 797 801 785 790 764 770 777 792 778 762 778 805 785 808 777 772 799 812 761 816 782 780 772 765 786 792 767 779 782 782 799 800 832 762 806 790 775 759 788 778 778 838 773 813 777 783 784 776 789 763 791 759 760 800 779 800 776 796 783 797 771 799 794 795 792 797 807 769 782 773 801 774 788 792 779 829 797 794 770 819 775 807 798 802 775 784 793 788 767 796 782 754 806 759 759 811 777 770 759 821 779 816 808 770 776 774 780 764 808 797 813 802 796 803 770 817 775 760 784 792 795 792 783 792 802 763 759 806 747 765 753 809 769 805 806 817 787 769 808 801 789 774 753 742 795 787 809 777 792 764 802 798 806 781 828 755 807 789 794 751 797 776 791 831 817 762 775 795 829 792 791 832 782 783 775 796 778 796 777 792 780 769 783 808 802 779 803 770 786 807 807 820 829 794 779 746 817

Tree=0
num_leaves=7
num_cat=1
split_feature=26 60 42 11 50 42
split_gain=2.69456e+12 1.01244e+12 3.48909e+11 2.94733e+11 2.42174e+11 1.50869e+11
threshold=3.0000000000000004 2.5000000000000004 1725.0000000000002 0 3.5000000000000004 1053.5000000000002
decision_type=2 2 2 9 2 2
left_child=3 5 -3 -1 -4 -2
right_child=1 2 4 -5 -6 -7
leaf_value=179034.74866003299 179086.26853137393 180102.46113442763 180897.65870910487 178580.55603600678 183086.95517249676 179551.20731132431
leaf_weight=208 111 91 32 532 5.9999999999999991 188
leaf_count=208 111 91 32 532 6 188
internal_value=179067 179698 180439 178701 181243 179379
internal_weight=0 428 129 740 38 299
internal_count=1168 428 129 740 38 299
cat_boundaries=0 1
cat_threshold=9113669
is_linear=0
shrinkage=1


Tree=1
num_leaves=7
num_cat=0
split_feature=16 79 79 16 79 79
split_gain=3.02405e+12 1.15519e+12 3.43502e+11 2.64579e+11 2.34074e+11 1.40526e+11
threshold=6.5000000000000009 3394.5000000000005 2176.0000000000005 8.5000000000000018 2955.5000000000005 4016.0000000000005
decision_type=2 2 2 2 2 2
left_child=2 4 -1 -3 -2 -5
right_child=1 3 -4 5 -6 -7
leaf_value=-607.03203223405899 120.95634368074043 1172.0115396009014 -174.0670427934275 1609.9904030772998 691.36509593676578 2846.618339317472
leaf_weight=369 195 89 364 20 114 17
leaf_count=369 195 89 364 20 114 17
internal_value=0 660.468 -392.026 1467.47 331.398 2178.17
internal_weight=0 435 733 126 309 37
internal_count=1168 435 733 126 309 37
is_linear=0
shrinkage=0.01


Tree=2
num_leaves=7
num_cat=0
split_feature=16 16 61 45 50 45
split_gain=2.96388e+12 8.97507e+11 3.53954e+11 2.47401e+11 1.37101e+11 1.71687e+11
threshold=6.5000000000000009 8.5000000000000018 665.50000000000011 1411.5000000000002 3.5000000000000004 2802.0000000000005
decision_type=2 2 2 2 2 2
left_child=3 2 -2 -1 -3 -6
right_child=1 4 -4 -5 5 -7
leaf_value=-525.12746645394441 315.90433717565236 1723.9334105340706 980.7298108327393 -141.78105423420445 1755.077213432086 4375.6612992417158
leaf_weight=471 281 32 112 262 4.9999999999999982 5
leaf_count=471 281 32 112 262 5 5
internal_value=0 653.863 505.371 -388.106 2043.32 3065.37
internal_weight=0 435 393 733 42 10
internal_count=1168 435 393 733 42 10
is_linear=0
shrinkage=0.01


Tree=3
num_leaves=7
num_cat=0
split_feature=79 29 79 79 19 29
split_gain=2.85581e+12 6.67396e+11 5.93205e+11 2.45533e+11 2.40992e+11 1.51185e+11
threshold=3005.0000000000005 4.5000000000000009 2289.0000000000005 4267.5000000000009 1984.5000000000002 3.0000000000000004
decision_type=2 2 2 2 2 2
left_child=2 4 -1 -3 -2 -4
right_child=1 3 5 -5 -6 -7
leaf_value=-520.85737048818373 47.836440337758184 1441.6700456406622 -233.07449039869684 3062.8240995636024 788.49010909034314 164.33392076911781
leaf_weight=481 61 62 162 10.999999999999998 157 234
leaf_count=481 61 62 162 11 157 234
internal_value=0 858.37 -284.876 1685.95 581.243 1.75775
internal_weight=0 291 877 73 218 396
internal_count=1168 291 877 73 218 396
is_linear=0
shrinkage=0.01


Tree=4
num_leaves=7
num_cat=0
split_feature=26 60 45 45 45 26
split_gain=2.50882e+12 9.40672e+11 3.37985e+11 3.37234e+11 1.9377e+11 1.9374e+11
threshold=3.0000000000000004 2.5000000000000004 2661.0000000000005 1411.5000000000002 1483.0000000000002 4.5000000000000009
decision_type=2 2 2 2 2 2
left_child=3 4 5 -1 -2 -3
right_child=1 2 -4 -5 -6 -7
leaf_value=-522.91359950313074 -44.599097737006609 968.85009028085847 2921.3937955467536 -85.072984652282045 488.7148051621553 2029.2206198158171
leaf_weight=452 105 96 11.999999999999998 288 194 21
leaf_count=452 105 96 12 288 194 21
internal_value=0 609.364 1323.1 -352.511 301.431 1159.17
internal_weight=0 428 129 740 299 117
internal_count=1168 428 129 740 299 117
is_linear=0
shrinkage=0.01


Tree=5
num_leaves=7
num_cat=0
split_feature=26 61 45 52 45 50
split_gain=2.45889e+12 8.99951e+11 3.30523e+11 2.53885e+11 2.17374e+11 1.77686e+11
threshold=3.0000000000000004 689.50000000000011 1411.5000000000002 4.5000000000000009 1642.5000000000002 3.5000000000000004
decision_type=2 2 2 2 2 2
left_child=2 4 -1 -3 -2 -5
right_child=1 3 -4 5 -6 -7
leaf_value=-517.68445993544981 68.538228944900084 993.57127146667153 -84.222256397478745 1596.7472268651911 602.22578829827739 3118.3569171506742
leaf_weight=452 165 78 288 33 142 9.9999999999999982
leaf_count=452 165 78 288 33 142 10
internal_value=0 603.27 -348.986 1333.68 315.39 1950.61
internal_weight=0 428 740 121 307 43
internal_count=1168 428 740 121 307 43
is_linear=0
shrinkage=0.01


Tree=6
num_leaves=7
num_cat=0
split_feature=16 16 16 59 19 43
split_gain=2.76546e+12 8.36033e+11 3.2925e+11 2.18015e+11 1.24328e+11 8.76295e+10
threshold=6.5000000000000009 8.5000000000000018 7.5000000000000009 1.5000000000000002 1999.5000000000002 945.50000000000011
decision_type=2 2 2 2 2 2
left_child=3 2 5 -1 -3 -2
right_child=1 4 -4 -5 -6 -7
leaf_value=-501.23289187840652 192.31817632211627 3452.6745832883662 877.38294862026362 -139.47697155007765 1772.6216446500237 702.43018235113823
leaf_weight=477 213 4.9999999999999991 140 256 37 40
leaf_count=477 213 5 140 256 37 40
internal_value=0 631.598 488.281 -374.89 1972.63 272.968
internal_weight=0 435 393 733 42 253
internal_count=1168 435 393 733 42 253
is_linear=0
shrinkage=0.01


Tree=7
num_leaves=7
num_cat=0
split_feature=26 45 37 37 45 37
split_gain=2.3667e+12 7.96026e+11 3.32233e+11 3.27822e+11 3.21235e+11 1.07916e+11
threshold=3.0000000000000004 1928.5000000000002 1625.0000000000002 1471.5000000000002 1411.5000000000002 1006.5000000000001
decision_type=2 2 2 2 2 2
left_child=4 3 -3 -2 5 -1
right_child=1 2 -4 -5 -6 -7
leaf_value=-619.22349684623703 64.581764041812562 951.75303467021615 2119.6341158177697 772.93823874221539 -81.363844061915401 -292.68761525665371
leaf_weight=299 196 102 32 98 288 153
leaf_count=299 196 102 32 98 288 153
internal_value=0 591.853 1230.65 300.701 -342.381 -508.693
internal_weight=0 428 134 294 740 452
internal_count=1168 428 134 294 740 452
is_linear=0
shrinkage=0.01


Tree=8
num_leaves=7
num_cat=0
split_feature=79 79 79 52 52 58
split_gain=2.62473e+12 5.70702e+11 5.46495e+11 2.3613e+11 2.2876e+11 1.56362e+11
threshold=3005.0000000000005 3602.0000000000005 2289.0000000000005 4.5000000000000009 3.0000000000000004 1978.5000000000002
decision_type=2 2 2 2 2 10
left_child=2 4 -1 -3 -2 -4
right_child=1 3 5 -5 -6 -7
leaf_value=-499.60740303841175 -43.145607355513938 1103.0125276876224 -207.00163396587487 2152.385251666522 723.03336765857284 190.92434353171328
leaf_weight=481 54 65 188 32 140 208
leaf_count=481 54 65 188 32 140 208
internal_value=0 822.91 -273.107 1449.2 509.767 2.00999
internal_weight=0 291 877 97 194 396
internal_count=1168 291 877 97 194 396
is_linear=0
shrinkage=0.01


Tree=9
num_leaves=7
num_cat=0
split_feature=16 79 79 16 79 79
split_gain=2.62294e+12 1.02252e+12 3.0808e+11 2.2614e+11 2.00974e+11 1.25285e+11
threshold=6.5000000000000009 3394.5000000000005 2041.5000000000002 8.5000000000000018 2955.5000000000005 4016.0000000000005
decision_type=2 2 2 2 2 2
left_child=2 4 -1 -3 -2 -5
right_child=1 3 -4 5 -6 -7
leaf_value=-616.33225379438966 110.51346725074686 1101.2050224298434 -197.80495063655491 1494.9236023832129 639.0550244576292 2662.5670633440859
leaf_weight=293 195 89 440 20 114 17
leaf_count=293 195 89 440 20 114 17
internal_value=0 615.107 -365.102 1374.36 305.509 2031.41
internal_weight=0 435 733 126 309 37
internal_count=1168 435 733 126 309 37
is_linear=0
shrinkage=0.01


Tree=10
num_leaves=7
num_cat=0
split_feature=79 79 79 26 58 58
split_gain=2.52461e+12 5.5041e+11 5.27327e+11 2.59397e+11 2.21836e+11 1.51663e+11
threshold=3005.0000000000005 3726.5000000000005 2289.0000000000005 3.0000000000000004 1992.5000000000002 1978.5000000000002
decision_type=2 2 2 2 10 10
left_child=2 3 -1 -2 -3 -4
right_child=1 4 5 -5 -6 -7
leaf_value=-490.34023758166609 39.743592308272149 792.80231229024253 -203.44556476657908 785.44816499711601 1913.7785204180118 188.45630203488258
leaf_weight=481 69 27 188 144 51 208
leaf_count=481 69 27 188 144 51 208
internal_value=0 807.063 -267.848 543.882 1525.75 2.40188
internal_weight=0 291 877 213 78 396
internal_count=1168 291 877 213 78 396
is_linear=0
shrinkage=0.01


Tree=11
num_leaves=7
num_cat=0
split_feature=16 79 79 16 79 79
split_gain=2.52784e+12 9.83349e+11 2.97415e+11 2.19821e+11 1.92267e+11 1.21702e+11
threshold=6.5000000000000009 3394.5000000000005 2041.5000000000002 8.5000000000000018 2955.5000000000005 4448.0000000000009
decision_type=2 2 2 2 2 2
left_child=2 4 -1 -3 -2 -5
right_child=1 3 -4 5 -6 -7
leaf_value=-605.26552294312762 109.51909891303394 1079.1081381754632 -194.04651337874421 1647.1908381961077 626.48519942674761 2938.6132709386106
leaf_weight=293 195 89 440 27 114 9.9999999999999982
leaf_count=293 195 89 440 27 114 10
internal_value=0 603.854 -358.422 1348.42 300.244 1996.22
internal_weight=0 435 733 126 309 37
internal_count=1168 435 733 126 309 37
is_linear=0
shrinkage=0.01


Tree=12
num_leaves=7
num_cat=1
split_feature=11 61 48 55 43 48
split_gain=1.95214e+12 9.96053e+11 2.51948e+11 1.91537e+11 1.33304e+11 1.19385e+11
threshold=0 689.50000000000011 2.5000000000000004 1.0000000180025095e-35 883.50000000000011 1.5000000000000002
decision_type=9 2 2 2 2 2
left_child=3 4 -3 -1 -2 -5
right_child=1 2 -4 5 -6 -7
leaf_value=-513.36853301378278 136.94046734603992 1126.7428462051505 2868.2114448246052 -334.33247069280748 604.08889504101887 138.36947192497377
leaf_weight=403 350 108 8.9999999999999982 136 74 88
leaf_count=403 350 108 9 136 74 88
internal_value=0 435.815 1260.7 -377.049 218.471 -148.628
internal_weight=0 541 117 627 424 224
internal_count=1168 541 117 627 424 224
cat_boundaries=0 1
cat_threshold=12647312
is_linear=0
shrinkage=0.01


Tree=13
num_leaves=7
num_cat=1
split_feature=79 29 11 79 26 66
split_gain=2.39428e+12 5.70656e+11 5.08574e+11 2.13521e+11 2.02722e+11 1.45562e+11
threshold=3005.0000000000005 4.5000000000000009 0 4267.5000000000009 3.0000000000000004 139.00000000000003
decision_type=2 2 9 2 2 2
left_child=2 4 -1 -3 -2 -5
right_child=1 3 -4 5 -6 -7
leaf_value=-456.67032061711444 140.78846080002481 1323.4097234039343 33.504084712774372 3885.3095735229031 768.80782536221705 1575.0548624150531
leaf_weight=518 83 62 359 5.9999999999999982 135 5
leaf_count=518 83 62 359 6 135 5
internal_value=0 785.955 -260.843 1551.21 529.7 2835.19
internal_weight=0 291 877 73 218 11
internal_count=1168 291 877 73 218 11
cat_boundaries=0 1
cat_threshold=12643216
is_linear=0
shrinkage=0.01


Tree=14
num_leaves=7
num_cat=0
split_feature=16 79 79 16 79 79
split_gain=2.40184e+12 9.36795e+11 2.85825e+11 2.09949e+11 1.80311e+11 1.16327e+11
threshold=6.5000000000000009 3394.5000000000005 2041.5000000000002 8.5000000000000018 2955.5000000000005 4016.0000000000005
decision_type=2 2 2 2 2 2
left_child=2 4 -1 -3 -2 -5
right_child=1 3 -4 5 -6 -7
leaf_value=-591.39772446005804 107.54094645598707 1052.1087722050327 -188.27031663315728 1431.4431551656744 608.17514974442213 2556.572302409134
leaf_weight=293 195 89 440 20 114 17
leaf_count=293 195 89 440 20 114 17
internal_value=0 588.576 -349.411 1315.3 292.241 1948.39
internal_weight=0 435 733 126 309 37
internal_count=1168 435 733 126 309 37
is_linear=0
shrinkage=0.01


Tree=15
num_leaves=7
num_cat=1
split_feature=60 11 42 61 53 42
split_gain=1.90055e+12 8.42502e+11 3.1732e+11 1.54087e+11 1.44332e+11 1.4206e+11
threshold=2.5000000000000004 0 1837.0000000000002 401.00000000000006 9.5000000000000018 1443.0000000000002
decision_type=2 9 2 2 2 2
left_child=1 3 4 -1 -2 -3
right_child=2 5 -4 -5 -6 -7
leaf_value=-538.30637317542187 702.04968634652221 97.056651102114174 2041.6027890739131 -219.81865962217839 1701.7275536305106 529.34558619909944
leaf_weight=324 96 317 28 286 17 100
leaf_count=324 96 317 28 286 17 100
internal_value=0 -149.54 1088.59 -382.709 852.444 196.022
internal_weight=0 1027 141 610 113 417
internal_count=1168 1027 141 610 113 417
cat_boundaries=0 1
cat_threshold=12647312
is_linear=0
shrinkage=0.01


Tree=16
num_leaves=7
num_cat=0
split_feature=79 29 79 79 79 66
split_gain=2.27026e+12 5.40672e+11 4.8469e+11 2.03902e+11 1.76433e+11 1.41558e+11
threshold=3005.0000000000005 4.5000000000000009 2289.0000000000005 4267.5000000000009 3616.5000000000005 139.00000000000003
decision_type=2 2 2 2 2 2
left_child=2 4 -1 -3 -2 -5
right_child=1 3 -4 5 -6 -7
leaf_value=-467.34061090714363 344.57782238558474 1287.5628862151132 5.0612596955430291 3800.4747039454437 988.3673482062685 1522.2138469501615
leaf_weight=481 160 62 396 5.9999999999999982 58 5
leaf_count=481 160 62 396 6 58 5
internal_value=0 765.294 -254.033 1510.18 515.861 2764.9
internal_weight=0 291 877 73 218 11
internal_count=1168 291 877 73 218 11
is_linear=0
shrinkage=0.01


Tree=17
num_leaves=7
num_cat=0
split_feature=79 29 79 79 79 29
split_gain=2.22527e+12 5.73481e+11 4.29549e+11 1.99844e+11 1.86632e+11 1.36992e+11
threshold=2961.5000000000005 4.5000000000000009 2289.0000000000005 4267.5000000000009 3616.5000000000005 1.0000000180025095e-35
decision_type=2 2 2 2 2 2
left_child=2 4 -1 -3 5 -2
right_child=1 3 -4 -5 -6 -7
leaf_value=-462.66721064293938 -101.04261628339306 1274.6872580680576 -10.14814358364799 2737.2525974374294 978.48367363988473 501.49398496928575
leaf_weight=481 53 62 372 10.999999999999998 58 131
leaf_count=481 53 62 372 11 58 131
internal_value=0 718.2 -265.32 1495.07 483.853 327.937
internal_weight=0 315 853 73 242 184
internal_count=1168 315 853 73 242 184
is_linear=0
shrinkage=0.01


Tree=18
num_leaves=7
num_cat=0
split_feature=16 79 79 16 79 79
split_gain=2.25282e+12 8.68322e+11 2.67807e+11 1.95489e+11 1.65798e+11 1.09045e+11
threshold=6.5000000000000009 3394.5000000000005 2041.5000000000002 8.5000000000000018 2955.5000000000005 4016.0000000000005
decision_type=2 2 2 2 2 2
left_child=2 4 -1 -3 -2 -5
right_child=1 3 -4 5 -6 -7
leaf_value=-572.63219091169026 107.61416646874399 1015.7197419158443 -182.41834687769835 1380.0807919233314 587.67875617532582 2469.4236616320195
leaf_weight=293 195 89 440 20 114 17
leaf_count=293 195 89 440 20 114 17
internal_value=0 570.025 -338.397 1269.69 284.725 1880.59
internal_weight=0 435 733 126 309 37
internal_count=1168 435 733 126 309 37
is_linear=0
shrinkage=0.01


Tree=19
num_leaves=7
num_cat=1
split_feature=16 79 79 11 18 79
split_gain=2.21047e+12 6.83456e+11 4.12956e+11 1.83816e+11 1.34763e+11 9.00551e+10
threshold=7.5000000000000009 2476.5000000000005 3602.0000000000005 0 1973.5000000000002 4118.0000000000009
decision_type=2 2 2 9 2 2
left_child=1 4 -2 -3 -1 -4
right_child=2 3 5 -5 -6 -7
leaf_value=-509.46996271822923 648.91060736292377 -183.1675929479326 1353.7026938941367 263.58452675721912 -177.00853553155025 2111.7508815327728
leaf_weight=402 115 128 42 281 175 25
leaf_count=402 115 128 42 281 175 25
internal_value=0 -186.975 1012.49 125.736 -408.637 1636.56
internal_weight=0 986 182 409 577 67
internal_count=1168 986 182 409 577 67
cat_boundaries=0 1
cat_threshold=8424064
is_linear=0
shrinkage=0.01


Tree=20
num_leaves=7
num_cat=0
split_feature=16 16 16 16 50 66
split_gain=2.16938e+12 6.60011e+11 2.60004e+11 1.85861e+11 1.14897e+11 1.50014e+11
threshold=6.5000000000000009 8.5000000000000018 7.5000000000000009 5.5000000000000009 3.5000000000000004 49.500000000000007
decision_type=2 2 2 2 2 2
left_child=3 2 -2 -1 -3 -6
right_child=1 4 -4 -5 5 -7
leaf_value=-466.1096484409573 240.70205989677845 1458.5146953544015 777.81050437139527 -142.90268348684342 1461.7298705709284 3911.334831898625
leaf_weight=429 253 32 140 304 4.9999999999999982 5
leaf_count=429 253 32 140 304 5 5
internal_value=0 559.377 432.038 -332.065 1750.9 2686.53
internal_weight=0 435 393 733 42 10
internal_count=1168 435 393 733 42 10
is_linear=0
shrinkage=0.01


Tree=21
num_leaves=7
num_cat=0
split_feature=16 16 16 59 45 45
split_gain=2.12621e+12 6.46876e+11 2.5483e+11 1.87737e+11 9.65425e+10 9.20511e+10
threshold=6.5000000000000009 8.5000000000000018 7.5000000000000009 1.5000000000000002 1922.5000000000002 2229.5000000000005
decision_type=2 2 2 2 2 2
left_child=3 2 -2 -1 -4 -3
right_child=1 5 4 -5 -6 -7
leaf_value=-445.98617675948185 238.2950390322851 1327.9564412190132 542.61388878273863 -110.28911851945442 1073.2570869685833 2273.9700349784284
leaf_weight=477 253 24 80 256 60 18
leaf_count=477 253 24 80 256 60 18
internal_value=0 553.783 427.718 -328.744 770.032 1733.39
internal_weight=0 435 393 733 140 42
internal_count=1168 435 393 733 140 42
is_linear=0
shrinkage=0.01


Tree=22
num_leaves=7
num_cat=0
split_feature=16 79 79 16 79 79
split_gain=2.0839e+12 8.16991e+11 2.56527e+11 1.78776e+11 1.57597e+11 1.02726e+11
threshold=6.5000000000000009 3394.5000000000005 2041.5000000000002 8.5000000000000018 2955.5000000000005 4016.0000000000005
decision_type=2 2 2 2 2 2
left_child=2 4 -1 -3 -2 -5
right_child=1 3 -4 5 -6 -7
leaf_value=-554.70568662307471 98.831196831482202 984.04323774067109 -172.79763936488146 1325.325957980433 566.87193668795931 2382.6346509097316
leaf_weight=293 195 89 440 20 114 17
leaf_count=293 195 89 440 20 114 17
internal_value=0 548.245 -325.457 1226.91 271.506 1811.12
internal_weight=0 435 733 126 309 37
internal_count=1168 435 733 126 309 37
is_linear=0
shrinkage=0.01


Tree=23
num_leaves=7
num_cat=0
split_feature=79 79 79 26 60 18
split_gain=2.00752e+12 4.52155e+11 4.30744e+11 2.02156e+11 1.84637e+11 1.37877e+11
threshold=3005.0000000000005 3726.5000000000005 2289.0000000000005 3.0000000000000004 2.5000000000000004 1978.5000000000002
decision_type=2 2 2 2 2 2
left_child=2 3 -1 -2 -3 -4
right_child=1 4 5 -5 -6 -7
leaf_value=-439.96108601094414 36.068226681956169 738.61526463298969 -182.16238601135615 694.37309447718394 1745.3383404999076 191.0304742408884
leaf_weight=481 69 29 197 144 49 199
leaf_count=481 69 29 197 144 49 199
internal_value=0 719.656 -238.874 481.119 1371.04 5.37645
internal_weight=0 291 877 213 78 396
internal_count=1168 291 877 213 78 396
is_linear=0
shrinkage=0.01


Tree=24
num_leaves=7
num_cat=1
split_feature=79 79 11 26 58 79
split_gain=1.96757e+12 4.43157e+11 4.34653e+11 1.98133e+11 1.76829e+11 1.0994e+11
threshold=3005.0000000000005 3726.5000000000005 0 3.0000000000000004 1992.5000000000002 2533.5000000000005
decision_type=2 2 9 2 10 2
left_child=2 3 -1 -2 -3 -4
right_child=1 4 5 -5 -6 -7
leaf_value=-417.53531405016673 35.707540505348312 702.94867979942774 -130.5148129674551 687.42936563676869 1703.7724060502492 219.87218719854391
leaf_weight=518 69 27 188 144 51 171
leaf_count=518 69 27 188 144 51 171
internal_value=0 712.459 -236.485 476.308 1357.33 35.3966
internal_weight=0 291 877 213 78 359
internal_count=1168 291 877 213 78 359
cat_boundaries=0 1
cat_threshold=12643216
is_linear=0
shrinkage=0.01


Tree=25
num_leaves=7
num_cat=0
split_feature=48 37 43 43 19 19
split_gain=1.36266e+12 5.07964e+11 2.85197e+11 2.27506e+11 1.43645e+11 1.39065e+11
threshold=1.5000000000000002 1441.0000000000002 835.00000000000011 567.50000000000011 2007.5000000000002 1988.5000000000002
decision_type=2 2 2 2 2 2
left_child=-1 2 -2 4 -3 -4
right_child=1 3 5 -5 -6 -7
leaf_value=-377.44836471630816 -68.177844428596387 467.26263843900932 -83.925377978461981 1565.7903025898706 1294.9558757777509 591.81364210635354
leaf_weight=526 280 130 39 29 25 139
leaf_count=526 280 130 39 29 25 139
internal_value=0 309.073 130.784 752.858 600.762 443.758
internal_weight=0 642 458 184 155 178
internal_count=1168 642 458 184 155 178
is_linear=0
shrinkage=0.01


Tree=26
num_leaves=7
num_cat=0
split_feature=79 29 79 79 52 66
split_gain=1.89848e+12 4.61973e+11 4.11813e+11 1.74943e+11 1.73978e+11 1.36275e+11
threshold=3005.0000000000005 4.5000000000000009 2289.0000000000005 4267.5000000000009 3.0000000000000004 139.00000000000003
decision_type=2 2 2 2 2 2
left_child=2 4 -1 -3 -2 -5
right_child=1 3 -4 5 -6 -7
leaf_value=-428.94959163528091 49.661019311945978 1182.1418671506515 6.4920006820811338 3566.6188972442633 659.44347949068685 1331.2795037786925
leaf_weight=481 68 62 396 5.9999999999999982 150 5
leaf_count=481 68 62 396 6 150 5
internal_value=0 699.802 -232.331 1388.34 469.236 2550.56
internal_weight=0 291 877 73 218 11
internal_count=1168 291 877 73 218 11
is_linear=0
shrinkage=0.01


Tree=27
num_leaves=7
num_cat=0
split_feature=16 79 79 52 79 52
split_gain=1.91741e+12 5.98416e+11 3.66346e+11 1.43788e+11 1.1916e+11 8.85463e+10
threshold=7.5000000000000009 2476.5000000000005 3602.0000000000005 3.0000000000000004 1689.0000000000002 4.5000000000000009
decision_type=2 2 2 2 2 2
left_child=1 4 -2 -3 -1 -4
right_child=2 3 5 -5 -6 -7
leaf_value=-677.68238396206095 600.51364706338074 -89.924930035592681 1213.1727040804678 287.16327963870384 -311.83638491025272 1946.8950730669619
leaf_weight=110 115 183 38 226 467 29
leaf_count=110 115 183 38 226 467 29
internal_value=0 -174.168 942.965 118.442 -381.582 1530.75
internal_weight=0 986 182 409 577 67
internal_count=1168 986 182 409 577 67
is_linear=0
shrinkage=0.01


Tree=28
num_leaves=7
num_cat=0
split_feature=16 79 79 16 79 18
split_gain=1.88481e+12 7.36465e+11 2.34796e+11 1.64594e+11 1.38132e+11 9.80766e+10
threshold=6.5000000000000009 3394.5000000000005 2041.5000000000002 8.5000000000000018 2955.5000000000005 1998.5000000000002
decision_type=2 2 2 2 2 2
left_child=2 4 -1 -3 -2 -5
right_child=1 3 -4 5 -6 -7
leaf_value=-528.87747906654977 96.957761135294874 932.68123009053056 -163.50404159260322 3028.7542720728447 535.14125515434716 1522.7590147819935
leaf_weight=293 195 89 440 4.9999999999999991 114 32
leaf_count=293 195 89 440 5 114 32
internal_value=0 521.364 -309.554 1165.72 258.618 1726.27
internal_weight=0 435 733 126 309 37
internal_count=1168 435 733 126 309 37
is_linear=0
shrinkage=0.01


Tree=29
num_leaves=7
num_cat=0
split_feature=16 16 45 16 42 19
split_gain=1.8473e+12 5.67027e+11 2.23692e+11 1.69571e+11 1.15683e+11 1.08039e+11
threshold=6.5000000000000009 8.5000000000000018 1928.5000000000002 5.5000000000000009 1556.0000000000002 1999.5000000000002
decision_type=2 2 2 2 2 2
left_child=3 2 4 -1 -2 -3
right_child=1 5 -4 -5 -6 -7
leaf_value=-434.4943049123126 113.75389046074274 3000.2462409092241 745.41866480992473 -125.77563184807732 593.86102627662854 1434.1127211188659
leaf_weight=429 200 4.9999999999999991 126 304 67 37
leaf_count=429 200 5 126 304 67 37
internal_value=0 516.151 398.123 -306.458 234.23 1620.56
internal_weight=0 435 393 733 267 42
internal_count=1168 435 393 733 267 42
is_linear=0
shrinkage=0.01


Tree=30
num_leaves=7
num_cat=0
split_feature=16 16 16 16 50 3
split_gain=1.81453e+12 5.16205e+11 2.57721e+11 1.6265e+11 1.05415e+11 7.953e+10
threshold=7.5000000000000009 5.5000000000000009 8.5000000000000018 6.5000000000000009 3.5000000000000004 15617.000000000002
decision_type=2 2 2 2 2 2
left_child=1 -1 -2 -3 -4 -6
right_child=2 3 4 -5 5 -7
leaf_value=-430.14936430436808 711.20735085774606 -124.51787617025174 1324.2913238359165 218.68999048061801 1608.7485420004618 3392.3407084711775
leaf_weight=429 140 304 32 253 4.9999999999999982 5
leaf_count=429 140 304 32 253 5 5
internal_value=0 -169.431 917.318 31.3737 1604.35 2500.54
internal_weight=0 986 182 557 42 10
internal_count=1168 986 182 557 42 10
is_linear=0
shrinkage=0.01


Tree=31
num_leaves=7
num_cat=0
split_feature=16 16 16 45 18 45
split_gain=1.77842e+12 5.05933e+11 2.52592e+11 2.05412e+11 1.04613e+11 8.33268e+10
threshold=7.5000000000000009 5.5000000000000009 8.5000000000000018 1489.5000000000002 1998.5000000000002 1922.5000000000002
decision_type=2 2 2 2 2 2
left_child=1 -1 5 -3 -4 -2
right_child=2 3 4 -5 -6 -7
leaf_value=-425.8478711125897 492.81499590886853 -174.92862017480905 2945.9453035737556 210.09025087299716 1404.8436137617625 985.80231160004053
leaf_weight=429 80 259 4.9999999999999991 298 37 60
leaf_count=429 80 259 5 298 37 60
internal_value=0 -167.737 908.144 31.0599 1588.31 704.095
internal_weight=0 986 182 557 42 140
internal_count=1168 986 182 557 42 140
is_linear=0
shrinkage=0.01


Tree=32
num_leaves=7
num_cat=0
split_feature=16 79 79 16 79 79
split_gain=1.74438e+12 6.92582e+11 2.25468e+11 1.4913e+11 1.29709e+11 9.2019e+10
threshold=6.5000000000000009 3394.5000000000005 2041.5000000000002 8.5000000000000018 2931.5000000000005 4016.0000000000005
decision_type=2 2 2 2 2 2
left_child=2 4 -1 -3 -2 -5
right_child=1 3 -4 5 -6 -7
leaf_value=-512.72144819921937 81.280262930908961 904.60846483240562 -154.6792135411666 1200.2215879580122 500.42386122945987 2200.9128886635895
leaf_weight=293 187 89 440 20 122 17
leaf_count=293 187 89 440 20 122 17
internal_value=0 501.566 -297.798 1126.43 246.767 1660
internal_weight=0 435 733 126 309 37
internal_count=1168 435 733 126 309 37
is_linear=0
shrinkage=0.01


Tree=33
num_leaves=7
num_cat=1
split_feature=26 60 42 11 42 42
split_gain=1.51956e+12 5.76645e+11 2.17251e+11 2.00288e+11 1.06258e+11 8.41597e+10
threshold=3.0000000000000004 2.5000000000000004 2220.0000000000005 0 1725.0000000000002 978.00000000000011
decision_type=2 2 2 9 2 2
left_child=3 5 4 -1 -3 -2
right_child=1 2 -4 -5 -6 -7
leaf_value=-2.0028483650138473 -10.875702387164713 768.07697585512756 2891.0835538979054 -373.83652837517707 1438.0191472684016 348.46306989953638
leaf_weight=208 96 91 5.9999999999999991 532 32 203
leaf_count=208 96 91 6 532 32 203
internal_value=0 474.187 1033.01 -274.4 942.371 233.09
internal_weight=0 428 129 740 123 299
internal_count=1168 428 129 740 123 299
cat_boundaries=0 1
cat_threshold=9113669
is_linear=0
shrinkage=0.01


Tree=34
num_leaves=7
num_cat=0
split_feature=52 29 48 48 48 25
split_gain=1.2994e+12 6.42762e+11 1.9081e+11 1.35671e+11 1.2417e+11 1.10006e+11
threshold=3.0000000000000004 4.5000000000000009 1.5000000000000002 2.5000000000000004 1.5000000000000002 221.50000000000003
decision_type=2 2 2 2 2 10
left_child=4 2 -2 -3 -1 -4
right_child=1 3 5 -5 -6 -7
leaf_value=-409.84413492036396 -168.51592938064655 1031.583446513881 217.95795323528691 2400.6719925240213 -109.99217208544033 622.41309110039845
leaf_weight=419 103 76 266 7.9999999999999991 206 90
leaf_count=419 103 76 266 8 206 90
internal_value=0 357.721 210.538 1161.97 -311.013 320.208
internal_weight=0 543 459 84 625 356
internal_count=1168 543 459 84 625 356
is_linear=0
shrinkage=0.01


Tree=35
num_leaves=7
num_cat=0
split_feature=26 61 45 52 18 45
split_gain=1.4633e+12 5.25427e+11 2.0855e+11 1.65099e+11 1.49762e+11 1.37028e+11
threshold=3.0000000000000004 689.50000000000011 1411.5000000000002 4.5000000000000009 2002.5000000000002 1642.5000000000002
decision_type=2 2 2 2 2 2
left_child=2 5 -1 -3 -5 -2
right_child=1 3 -4 4 -6 -7
leaf_value=-403.30769747403428 49.33494158285955 749.12999140347245 -58.992781390159273 3147.84174046201 1306.820598779974 473.06408581481702
leaf_weight=452 165 78 288 4.9999999999999991 38 142
leaf_count=452 165 78 288 5 38 142
internal_value=0 465.294 -269.304 1023.39 1520.89 245.327
internal_weight=0 428 740 121 43 307
internal_count=1168 428 740 121 43 307
is_linear=0
shrinkage=0.01


Tree=36
num_leaves=7
num_cat=0
split_feature=60 45 45 33 59 59
split_gain=1.32579e+12 5.42555e+11 2.6453e+11 1.7187e+11 1.69042e+11 1.33754e+11
threshold=2.5000000000000004 1477.5000000000002 2661.0000000000005 713.50000000000011 1.5000000000000002 1.5000000000000002
decision_type=2 2 2 2 2 2
left_child=1 5 3 -2 -3 -1
right_child=2 4 -4 -5 -6 -7
leaf_value=-439.55144309682373 453.04920755259286 -118.76808528490722 2268.2818603373371 1193.2715106798278 288.69148887897796 -126.84144282795798
leaf_weight=370 73 160 12.999999999999998 55 280 217
leaf_count=370 73 160 13 55 280 217
internal_value=0 -124.954 909.15 771.113 140.524 -323.95
internal_weight=0 1027 141 128 440 587
internal_count=1168 1027 141 128 440 587
is_linear=0
shrinkage=0.01


Tree=37
num_leaves=7
num_cat=1
split_feature=16 11 16 50 42 16
split_gain=1.60772e+12 5.19398e+11 2.27799e+11 9.85101e+10 1.11192e+11 8.68823e+10
threshold=7.5000000000000009 0 8.5000000000000018 3.5000000000000004 1730.5000000000002 4.5000000000000009
decision_type=2 9 2 2 2 2
left_child=1 5 -2 -4 -5 -1
right_child=2 -3 3 4 -6 -7
leaf_value=-616.49103488387982 669.65498449435745 110.05800253740824 1238.6200250483516 1321.2234491216627 3430.1713646065505 -299.1756649851946
leaf_weight=106 140 416 32 4.9999999999999982 5 464
leaf_count=106 140 416 32 5 5 464
internal_value=0 -159.514 863.431 1509.35 2375.7 -352.01
internal_weight=0 986 182 42 10 570
internal_count=1168 986 182 42 10 570
cat_boundaries=0 1
cat_threshold=12643216
is_linear=0
shrinkage=0.01


Tree=38
num_leaves=7
num_cat=1
split_feature=11 29 37 55 42 53
split_gain=1.31436e+12 6.37447e+11 2.7803e+11 1.3496e+11 1.17769e+11 9.60085e+10
threshold=0 4.5000000000000009 2144.5000000000005 1.0000000180025095e-35 990.50000000000011 7.5000000000000009
decision_type=9 2 2 2 2 2
left_child=3 4 -3 -1 -2 -6
right_child=1 2 -4 -5 5 -7
leaf_value=-423.77337068805696 -1.5686320892759731 1044.1995060841255 3481.7100519503888 -117.60586307411347 222.05835760297745 609.03050506848365
leaf_weight=403 155 73 4.9999999999999991 224 217 91
leaf_count=403 155 73 5 224 217 91
internal_value=0 357.533 1200.45 -309.457 223.251 336.391
internal_weight=0 541 78 627 463 308
internal_count=1168 541 78 627 463 308
cat_boundaries=0 1
cat_threshold=12647312
is_linear=0
shrinkage=0.01


Tree=39
num_leaves=7
num_cat=0
split_feature=16 16 45 16 33 45
split_gain=1.55452e+12 4.73513e+11 2.01022e+11 1.46172e+11 1.01241e+11 7.33429e+10
threshold=6.5000000000000009 8.5000000000000018 1928.5000000000002 5.5000000000000009 1064.5000000000002 2229.5000000000005
decision_type=2 2 2 2 2 2
left_child=3 2 4 -1 -2 -3
right_child=1 5 -4 -5 -6 -7
leaf_value=-400.02017204739309 133.36918079508806 1120.8044703211319 694.83473043170625 -113.39179398046826 703.5031154808479 1965.2308447000892
leaf_weight=429 231 24 126 304 36 18
leaf_count=429 231 24 126 304 36 18
internal_value=0 473.464 365.607 -281.146 210.241 1482.7
internal_weight=0 435 393 733 267 42
internal_count=1168 435 393 733 267 42
is_linear=0
shrinkage=0.01


Tree=40
num_leaves=7
num_cat=0
split_feature=26 61 55 37 37 3
split_gain=1.34462e+12 4.8237e+11 1.64049e+11 1.26807e+11 8.40059e+10 7.06022e+10
threshold=3.0000000000000004 689.50000000000011 1.0000000180025095e-35 1834.5000000000002 1489.5000000000002 12164.000000000002
decision_type=2 2 2 2 2 2
left_child=2 4 -1 -3 -2 -4
right_child=1 3 5 -5 -6 -7
leaf_value=-382.46917118125873 154.59185112285616 815.57837748054283 -167.81745404516982 1615.1528693337114 574.42060670747003 184.12496586391603
leaf_weight=436 248 96 228 25 59 76
leaf_count=436 248 96 228 25 59 76
internal_value=0 446.037 -258.142 980.78 235.276 -79.8318
internal_weight=0 428 740 121 307 304
internal_count=1168 428 740 121 307 304
is_linear=0
shrinkage=0.01


Tree=41
num_leaves=7
num_cat=1
split_feature=11 45 45 45 45 31
split_gain=1.25193e+12 5.65638e+11 1.94309e+11 1.46074e+11 1.2761e+11 1.05345e+11
threshold=0 1928.5000000000002 3126.0000000000005 1477.5000000000002 1536.5000000000002 2.5000000000000004
decision_type=9 2 2 2 2 2
left_child=4 3 5 -2 -1 -3
right_child=1 2 -4 -5 -6 -7
leaf_value=-394.19717013003043 -67.740099774013856 648.66735054502931 2833.7264601637789 321.50490572885917 -73.868371828906703 1258.5557783319118
leaf_weight=456 163 97 4.9999999999999991 236 171 40
leaf_count=456 163 97 5 236 171 40
internal_value=0 348.939 897.406 162.49 -302.018 826.737
internal_weight=0 541 142 399 627 137
internal_count=1168 541 142 399 627 137
cat_boundaries=0 1
cat_threshold=12647312
is_linear=0
shrinkage=0.01


Tree=42
num_leaves=7
num_cat=0
split_feature=79 79 79 19 58 58
split_gain=1.47099e+12 3.51917e+11 3.24563e+11 1.42722e+11 1.29892e+11 9.22596e+10
threshold=3005.0000000000005 3726.5000000000005 2289.0000000000005 1984.5000000000002 1992.5000000000002 1978.5000000000002
decision_type=2 2 2 2 10 10
left_child=2 3 -1 -2 -3 -4
right_child=1 4 5 -5 -6 -7
leaf_value=-379.07694734231922 -49.94279180391846 629.79421984336921 -153.05617269499962 552.6464896000723 1487.5641501402108 152.60680183912947
leaf_weight=481 52 27 188 161 51 208
leaf_count=481 52 27 188 161 51 208
internal_value=0 615.977 -204.525 405.535 1190.64 7.49408
internal_weight=0 291 877 213 78 396
internal_count=1168 291 877 213 78 396
is_linear=0
shrinkage=0.01


Tree=43
num_leaves=7
num_cat=0
split_feature=26 45 45 33 33 18
split_gain=1.27673e+12 4.60261e+11 1.83083e+11 1.61876e+11 1.33322e+11 7.26577e+10
threshold=3.0000000000000004 1928.5000000000002 1411.5000000000002 951.00000000000011 1275.5000000000002 1952.5000000000002
decision_type=2 2 2 2 2 2
left_child=2 3 5 -2 -3 -1
right_child=1 4 -4 -5 -6 -7
leaf_value=-559.72194514519913 101.93735516222505 780.57044806684576 -54.488648174882712 707.92240861034111 1632.0681078959781 -289.07605694044645
leaf_weight=147 240 112 288 54 22 305
leaf_count=147 240 112 288 54 22 305
internal_value=0 434.631 -251.541 213.241 920.369 -377.096
internal_weight=0 428 740 294 134 452
internal_count=1168 428 740 294 134 452
is_linear=0
shrinkage=0.01


Tree=44
num_leaves=7
num_cat=0
split_feature=45 29 52 37 45 37
split_gain=1.11143e+12 6.16095e+11 2.353e+11 1.42491e+11 1.29845e+11 1.02342e+11
threshold=1489.5000000000002 4.5000000000000009 3.0000000000000004 1006.5000000000001 2293.0000000000005 1989.0000000000002
decision_type=2 2 2 2 2 2
left_child=3 2 -2 -1 -4 -3
right_child=1 5 4 -5 -6 -7
leaf_value=-413.68936199419153 -86.919837321817738 984.11164968893729 281.1959911595041 -102.43660258132579 876.80393410241322 1929.3434409925212
leaf_weight=375 185 63 246 242 43 13.999999999999998
leaf_count=375 185 63 246 242 43 14
internal_value=0 326.328 191.554 -291.61 369.816 1155.97
internal_weight=0 551 474 617 289 77
internal_count=1168 551 474 617 289 77
is_linear=0
shrinkage=0.01


Tree=45
num_leaves=7
num_cat=0
split_feature=26 61 45 45 48 18
split_gain=1.23182e+12 4.45528e+11 1.76176e+11 1.18794e+11 1.12522e+11 7.05834e+10
threshold=3.0000000000000004 689.50000000000011 1411.5000000000002 1642.5000000000002 2.5000000000000004 1952.5000000000002
decision_type=2 2 2 2 2 2
left_child=2 3 5 -2 -3 -1
right_child=1 4 -4 -5 -6 -7
leaf_value=-550.24192087328345 41.880498796026806 849.30508195711991 -53.777592677359884 436.41010972914268 1956.8211376604011 -283.4873078472462
leaf_weight=147 165 111 288 142 9.9999999999999982 305
leaf_count=147 165 111 288 142 10 305
internal_value=0 426.92 -247.077 224.367 940.835 -370.242
internal_weight=0 428 740 307 121 452
internal_count=1168 428 740 307 121 452
is_linear=0
shrinkage=0.01


Tree=46
num_leaves=7
num_cat=0
split_feature=26 45 37 45 33 37
split_gain=1.20731e+12 4.3783e+11 1.84471e+11 1.72671e+11 1.55316e+11 7.63797e+10
threshold=3.0000000000000004 1928.5000000000002 1625.0000000000002 1411.5000000000002 951.00000000000011 910.50000000000011
decision_type=2 2 2 2 2 2
left_child=3 4 -3 5 -2 -1
right_child=1 2 -4 -5 -6 -7
leaf_value=-493.12559732308097 97.697097240399643 688.58367560238037 1558.8292015324946 -53.239816024946087 691.27787191705795 -233.04800720794702
leaf_weight=232 240 102 32 288 54 220
leaf_count=232 240 102 32 288 54 220
internal_value=0 422.65 896.404 -244.606 206.722 -366.539
internal_weight=0 428 134 740 294 452
internal_count=1168 428 134 740 294 452
is_linear=0
shrinkage=0.01


Tree=47
num_leaves=7
num_cat=1
split_feature=79 79 11 29 29 79
split_gain=1.35043e+12 3.28198e+11 3.0518e+11 1.21945e+11 1.20837e+11 8.25611e+10
threshold=3005.0000000000005 3726.5000000000005 0 1.0000000180025095e-35 4.5000000000000009 1898.0000000000002
decision_type=2 2 9 2 2 2
left_child=2 3 5 -2 -3 -1
right_child=1 4 -4 -5 -6 -7
leaf_value=-523.05877827639517 -56.652528592345334 825.50171141940939 31.744212995429809 516.0238228618872 1629.8008888204313 -259.89441170758846
leaf_weight=186 48 47 359 165 31 332
leaf_count=186 48 47 359 165 31 332
internal_value=0 590.196 -195.964 386.97 1145.16 -347.678
internal_weight=0 291 877 213 78 518
internal_count=1168 291 877 213 78 518
cat_boundaries=0 1
cat_threshold=12643216
is_linear=0
shrinkage=0.01


Tree=48
num_leaves=7
num_cat=0
split_feature=16 16 16 45 18 45
split_gain=1.34629e+12 3.92602e+11 1.94794e+11 1.56804e+11 9.48623e+10 6.63142e+10
threshold=7.5000000000000009 5.5000000000000009 8.5000000000000018 1718.5000000000002 1998.5000000000002 2386.0000000000005
decision_type=2 2 2 2 2 2
left_child=1 -1 5 -3 -4 -2
right_child=2 3 4 -5 -6 -7
leaf_value=-373.32835241035241 499.69861186037548 -82.981437562228109 2680.2514293788081 280.19002356611719 1212.7259383231126 1036.7389878743363
leaf_weight=429 111 385 4.9999999999999991 172 37 29
leaf_count=429 111 385 5 172 37 29
internal_value=0 -145.956 790.132 29.1649 1387.43 610.943
internal_weight=0 986 182 557 42 140
internal_count=1168 986 182 557 42 140
is_linear=0
shrinkage=0.01


Tree=49
num_leaves=7
num_cat=1
split_feature=26 60 45 11 33 45
split_gain=1.14473e+12 4.50056e+11 1.98043e+11 1.66384e+11 1.07101e+11 8.93049e+10
threshold=3.0000000000000004 2.5000000000000004 2661.0000000000005 0 1246.5000000000002 1483.0000000000002
decision_type=2 2 2 9 2 2
left_child=3 5 4 -1 -3 -2
right_child=1 2 -4 -5 -6 -7
leaf_value=-3.5340032969685731 -36.355600708573633 622.0410394954489 2128.694697833344 -334.13775305570283 1360.160130425737 325.70197977668607
leaf_weight=225 105 92 11.999999999999998 515 25 194
leaf_count=225 105 92 12 515 25 194
internal_value=0 411.554 905.241 -238.179 779.759 198.558
internal_weight=0 428 129 740 117 299
internal_count=1168 428 129 740 117 299
cat_boundaries=0 1
cat_threshold=725077
is_linear=0
shrinkage=0.01


Tree=50
num_leaves=7
num_cat=1
split_feature=16 79 79 11 79 79
split_gain=1.29821e+12 4.23466e+11 2.68523e+11 1.48919e+11 7.54642e+10 6.41213e+10
threshold=7.5000000000000009 2289.0000000000005 3602.0000000000005 0 1651.5000000000002 4118.0000000000009
decision_type=2 2 2 9 2 2
left_child=1 4 -2 -3 -1 -4
right_child=2 3 5 -5 -6 -7
leaf_value=-602.01982852207379 482.67908758024163 -110.74647370944865 1040.4193857854164 225.23998318530292 -292.93322575220736 1680.0717396068703
leaf_weight=100 115 259 42 251 376 25
leaf_count=100 115 259 42 251 376 25
internal_value=0 -143.355 775.865 56.8565 -357.867 1279.1
internal_weight=0 986 182 510 476 67
internal_count=1168 986 182 510 476 67
cat_boundaries=0 1
cat_threshold=10521552
is_linear=0
shrinkage=0.01


Tree=51
num_leaves=7
num_cat=0
split_feature=16 79 79 79 79 66
split_gain=1.2742e+12 5.24109e+11 1.77761e+11 1.12888e+11 9.36398e+10 9.25968e+10
threshold=6.5000000000000009 3394.5000000000005 2041.5000000000002 4555.5000000000009 2955.5000000000005 110.50000000000001
decision_type=2 2 2 2 2 2
left_child=2 4 -1 -3 -2 -5
right_child=1 3 -4 5 -6 -7
leaf_value=-445.38772754188909 73.887073975372672 875.10505706400613 -127.47343686942577 2637.1995311226829 434.6648375619485 855.41771615805374
leaf_weight=293 195 114 440 6.9999999999999982 114 5
leaf_count=293 195 114 440 7 114 5
internal_value=0 428.642 -254.552 972.218 206.99 1894.79
internal_weight=0 435 733 126 309 12
internal_count=1168 435 733 126 309 12
is_linear=0
shrinkage=0.01


Tree=52
num_leaves=7
num_cat=0
split_feature=16 79 79 52 79 79
split_gain=1.2501e+12 4.08179e+11 2.59144e+11 9.65484e+10 9.52908e+10 6.18776e+10
threshold=7.5000000000000009 2476.5000000000005 3602.0000000000005 3.0000000000000004 1689.0000000000002 4118.0000000000009
decision_type=2 2 2 2 2 2
left_child=1 4 -2 -3 -1 -4
right_child=2 3 5 -5 -6 -7
leaf_value=-576.75406179911499 473.34306287019433 -69.740884190189078 1021.2641439768497 239.25626918977986 -249.5952418005794 1649.625497437821
leaf_weight=110 115 183 42 226 467 25
leaf_count=110 115 183 42 226 467 25
internal_value=0 -140.664 761.364 101.001 -311.965 1255.73
internal_weight=0 986 182 409 577 67
internal_count=1168 986 182 409 577 67
is_linear=0
shrinkage=0.01


Tree=53
num_leaves=7
num_cat=0
split_feature=18 45 45 48 45 43
split_gain=9.56448e+11 4.07033e+11 2.15611e+11 1.19705e+11 1.01584e+11 9.18822e+10
threshold=1984.5000000000002 1966.0000000000002 1800.5000000000002 2.5000000000000004 1477.5000000000002 630.50000000000011
decision_type=2 2 2 2 2 2
left_child=2 4 -1 5 -2 -3
right_child=1 3 -4 -5 -6 -7
leaf_value=-310.41793451720008 -29.597747828813404 1460.8457661613552 158.039177952534 1997.5437553180068 320.12726599060773 652.19364869528806
leaf_weight=587 132 17 118 8.9999999999999982 224 81
leaf_count=587 132 17 118 9 224 81
internal_value=0 353.006 -232.01 893.831 190.454 792.47
internal_weight=0 463 705 107 356 98
internal_count=1168 463 705 107 356 98
is_linear=0
shrinkage=0.01


Tree=54
num_leaves=7
num_cat=1
split_feature=26 60 45 60 26 57
split_gain=1.04603e+12 4.15195e+11 1.84233e+11 1.54632e+11 1.01786e+11 8.12656e+10
threshold=3.0000000000000004 2.5000000000000004 2661.0000000000005 1.5000000000000002 4.5000000000000009 0
decision_type=2 2 2 2 2 9
left_child=3 -2 4 -1 -3 -5
right_child=1 2 -4 5 -6 -7
leaf_value=-382.37383127341195 188.81373359386851 608.59654852481412 2047.6012278836411 29.592062775007527 1377.1796344231229 -257.80904045657155
leaf_weight=345 299 96 11.999999999999998 235 21 160
leaf_count=345 299 96 12 235 21 160
internal_value=0 393.394 867.576 -227.698 746.547 -92.6012
internal_weight=0 428 129 740 117 395
internal_count=1168 428 129 740 117 395
cat_boundaries=0 1
cat_threshold=10
is_linear=0
shrinkage=0.01


Tree=55
num_leaves=7
num_cat=0
split_feature=26 60 60 53 80 55
split_gain=1.02532e+12 4.06933e+11 1.51494e+11 1.40457e+11 6.92052e+10 6.42376e+10
threshold=3.0000000000000004 2.5000000000000004 1.5000000000000002 9.5000000000000018 426.64935064935071 1.0000000180025095e-35
decision_type=2 2 2 2 2 2
left_child=2 -2 -1 -3 -5 -4
right_child=1 3 5 4 -6 -7
leaf_value=-378.55009195981847 186.92559618127095 701.14293715178667 -224.869981777189 1239.0569238703131 2479.1750718650578 30.416982029325233
leaf_weight=345 299 105 189 18.000000000000004 5.9999999999999991 206
leaf_count=345 299 105 189 18 6 206
internal_value=0 389.46 -225.452 858.9 1549.09 -91.733
internal_weight=0 428 740 129 24 395
internal_count=1168 428 740 129 24 395
is_linear=0
shrinkage=0.01


Tree=56
num_leaves=7
num_cat=1
split_feature=16 11 16 16 16 10
split_gain=1.17119e+12 3.85948e+11 1.73899e+11 7.48942e+10 6.05532e+10 4.93602e+10
threshold=7.5000000000000009 0 8.5000000000000018 4.5000000000000009 6.5000000000000009 2.5000000000000004
decision_type=2 9 2 2 2 2
left_child=1 3 -2 -1 -3 -6
right_child=2 4 -4 -5 5 -7
leaf_value=-547.23950643527223 567.61609062428295 -26.310976735119159 1301.2773918762171 -252.62801947130541 940.0286746328793 183.45201709944314
leaf_weight=106 140 201 42 464 8.9999999999999982 206
leaf_count=106 140 201 42 464 9 206
internal_value=0 -136.17 736.923 -302.115 96.157 215.123
internal_weight=0 986 182 570 416 215
internal_count=1168 986 182 570 416 215
cat_boundaries=0 1
cat_threshold=12643216
is_linear=0
shrinkage=0.01


Tree=57
num_leaves=7
num_cat=1
split_feature=11 42 53 53 42 2
split_gain=9.81139e+11 4.67495e+11 1.8679e+11 1.09241e+11 9.91484e+10 9.33449e+10
threshold=0 1703.0000000000002 9.5000000000000018 8.5000000000000018 1050.5000000000002 96.500000000000014
decision_type=9 2 2 2 2 10
left_child=4 3 -3 -2 -1 -4
right_child=1 2 5 -5 -6 -7
leaf_value=-384.98726818008635 145.75491474576475 859.63736690761664 1442.0125679734765 605.69012090097669 -132.12420509033242 3292.0521462750517
leaf_weight=346 414 57 5.9999999999999982 59 281 5
leaf_count=346 414 57 6 59 281 5
internal_value=0 308.875 1089.88 203.125 -267.398 2282.94
internal_weight=0 541 68 473 627 11
internal_count=1168 541 68 473 627 11
cat_boundaries=0 1
cat_threshold=12647312
is_linear=0
shrinkage=0.01


Tree=58
num_leaves=7
num_cat=0
split_feature=16 16 16 45 19 2
split_gain=1.13248e+12 3.39105e+11 1.67537e+11 1.38562e+11 8.78172e+10 7.76132e+10
threshold=7.5000000000000009 5.5000000000000009 8.5000000000000018 1718.5000000000002 1999.5000000000002 110.50000000000001
decision_type=2 2 2 2 2 10
left_child=1 -1 -2 -3 -4 -6
right_child=2 3 4 -5 5 -7
leaf_value=-345.21468668192034 558.46308187926252 -76.568766585866442 2522.467336106894 264.82405126235017 1291.5279425037718 -48.175320166498039
leaf_weight=429 140 385 4.9999999999999991 172 32 4.9999999999999991
leaf_count=429 140 385 5 172 32 5
internal_value=0 -133.901 724.644 28.8524 1278.58 1110.49
internal_weight=0 986 182 557 42 37
internal_count=1168 986 182 557 42 37
is_linear=0
shrinkage=0.01


Tree=59
num_leaves=7
num_cat=0
split_feature=26 60 45 45 26 45
split_gain=9.56489e+11 3.82299e+11 1.73068e+11 1.44084e+11 9.46771e+10 7.82421e+10
threshold=3.0000000000000004 2.5000000000000004 2661.0000000000005 1411.5000000000002 4.5000000000000009 1483.0000000000002
decision_type=2 2 2 2 2 2
left_child=3 5 4 -1 -3 -2
right_child=1 2 -4 -5 -6 -7
leaf_value=-329.13547848940152 -40.029255469948332 580.82087179554469 1974.8803620900342 -42.943395924427918 1322.0801069331114 298.8619250585229
leaf_weight=452 105 96 11.999999999999998 288 21 194
leaf_count=452 105 96 12 288 21 194
internal_value=0 376.162 831.171 -217.753 713.867 179.853
internal_weight=0 428 129 740 117 299
internal_count=1168 428 129 740 117 299
is_linear=0
shrinkage=0.01


Tree=60
num_leaves=7
num_cat=0
split_feature=79 79 79 52 60 79
split_gain=1.10185e+12 2.72967e+11 2.4746e+11 1.05646e+11 1.01285e+11 8.91843e+10
threshold=3005.0000000000005 3710.0000000000005 2176.0000000000005 3.0000000000000004 2.5000000000000004 4448.0000000000009
decision_type=2 2 2 2 2 2
left_child=2 3 -1 -2 -3 -6
right_child=1 4 -4 -5 5 -7
leaf_value=-360.4770342057069 -26.46521775755566 564.64693456156169 -23.21807131762974 479.87077566328196 1083.2019476962009 2102.7331078994039
leaf_weight=400 56 29 477 156 39 10.999999999999998
leaf_count=400 56 29 477 156 39 11
internal_value=0 533.084 -177.042 346.122 1034.81 1307.5
internal_weight=0 291 877 212 79 50
internal_count=1168 291 877 212 79 50
is_linear=0
shrinkage=0.01


Tree=61
num_leaves=7
num_cat=0
split_feature=79 79 79 60 79 32
split_gain=1.07992e+12 2.6756e+11 2.42536e+11 1.01902e+11 8.51519e+10 7.9987e+10
threshold=3005.0000000000005 3726.5000000000005 2176.0000000000005 2.5000000000000004 4448.0000000000009 5.5000000000000009
decision_type=2 2 2 2 2 2
left_child=2 5 -1 -3 -5 -2
right_child=1 3 -4 4 -6 -7
leaf_value=-356.87226522543568 175.28486800592026 559.0004618072378 -22.985890267409491 1082.6102488488038 2081.705764178364 566.49760152361182
leaf_weight=400 121 29 477 38 10.999999999999998 92
leaf_count=400 121 29 477 38 11 92
internal_value=0 527.753 -175.272 1028.83 1306.9 344.259
internal_weight=0 291 877 78 49 213
internal_count=1168 291 877 78 49 213
is_linear=0
shrinkage=0.01


Tree=62
num_leaves=7
num_cat=0
split_feature=16 16 45 59 18 2
split_gain=1.06347e+12 3.30406e+11 1.42732e+11 1.25502e+11 8.62187e+10 7.58336e+10
threshold=6.5000000000000009 8.5000000000000018 1928.5000000000002 1.5000000000000002 1998.5000000000002 110.50000000000001
decision_type=2 2 2 2 2 10
left_child=3 2 -2 -1 -3 -6
right_child=1 4 -4 -5 5 -7
leaf_value=-328.42729944173641 170.56618685329533 2467.1382581495409 578.90009808134255 -53.955287027741626 1247.0212396439836 -77.234308847980557
leaf_weight=477 267 4.9999999999999991 126 256 32 4.9999999999999991
leaf_count=477 267 5 126 256 32 5
internal_value=0 391.579 301.482 -232.568 1234.62 1068.07
internal_weight=0 435 393 733 42 37
internal_count=1168 435 393 733 42 37
is_linear=0
shrinkage=0.01


Tree=63
num_leaves=7
num_cat=0
split_feature=79 79 79 29 29 29
split_gain=1.04294e+12 2.5887e+11 2.34914e+11 9.23817e+10 9.15238e+10 7.57164e+10
threshold=3005.0000000000005 3726.5000000000005 2176.0000000000005 1.0000000180025095e-35 4.5000000000000009 3.0000000000000004
decision_type=2 2 2 2 2 2
left_child=2 3 -1 -2 -3 -4
right_child=1 4 5 -5 -6 -7
leaf_value=-350.96865630564542 -47.972630689099418 733.31783823602575 -163.83106410536035 450.47583041407046 1433.2959676715054 89.840764779444513
leaf_weight=400 48 47 211 165 31 266
leaf_count=400 48 47 211 165 31 266
internal_value=0 518.639 -172.244 338.149 1011.51 -22.3705
internal_weight=0 291 877 213 78 477
internal_count=1168 291 877 213 78 477
is_linear=0
shrinkage=0.01


Tree=64
num_leaves=7
num_cat=1
split_feature=79 79 79 26 58 11
split_gain=1.02218e+12 2.53727e+11 2.30239e+11 8.89192e+10 8.63574e+10 7.85888e+10
threshold=3005.0000000000005 3710.0000000000005 2176.0000000000005 3.0000000000000004 1992.5000000000002 0
decision_type=2 2 2 2 10 9
left_child=2 3 -1 -2 -3 -4
right_child=1 4 5 -5 -6 -7
leaf_value=-347.45896970615416 38.368398473301788 538.33521906280123 -194.21309575255299 475.46061912781181 1235.4107699976369 70.278918150574299
leaf_weight=400 69 27 162 143 52 315
leaf_count=400 69 27 162 143 52 315
internal_value=0 513.453 -170.522 333.199 997.17 -22.1468
internal_weight=0 291 877 212 79 477
internal_count=1168 291 877 212 79 477
cat_boundaries=0 1
cat_threshold=8424064
is_linear=0
shrinkage=0.01


Tree=65
num_leaves=7
num_cat=0
split_feature=79 29 79 79 66 51
split_gain=1.00189e+12 2.48935e+11 2.25621e+11 1.01173e+11 1.12641e+11 9.09671e+10
threshold=3005.0000000000005 4.5000000000000009 2176.0000000000005 4267.5000000000009 139.00000000000003 1.5000000000000002
decision_type=2 2 2 2 2 2
left_child=2 5 -1 -3 -5 -2
right_child=1 3 -4 4 -6 -7
leaf_value=-343.98438051580268 405.76223936881593 856.94157945919846 -21.951274174086699 2821.3468548552414 789.06849760909188 -286.59094277186972
leaf_weight=400 197 62 477 5.9999999999999982 5 21
leaf_count=400 197 62 477 6 5 21
internal_value=0 508.318 -168.831 1013.75 1897.58 339.068
internal_weight=0 291 877 73 11 218
internal_count=1168 291 877 73 11 218
is_linear=0
shrinkage=0.01


Tree=66
num_leaves=7
num_cat=1
split_feature=16 16 45 11 16 45
split_gain=9.94238e+11 3.08506e+11 1.31935e+11 1.05235e+11 6.12091e+10 5.13627e+10
threshold=6.5000000000000009 8.5000000000000018 1928.5000000000002 0 5.5000000000000009 2229.5000000000005
decision_type=2 2 2 9 2 2
left_child=3 2 -2 -1 -5 -3
right_child=1 5 -4 4 -6 -7
leaf_value=-406.50014603975455 165.6825413750631 890.38396204373305 558.26900162538811 -243.95756276096887 -25.661121106487155 1597.0379977877624
leaf_weight=218 267 24 126 270 245 18
leaf_count=218 267 24 126 270 245 18
internal_value=0 378.609 291.55 -224.881 -137.439 1193.24
internal_weight=0 435 393 733 515 42
internal_count=1168 435 393 733 515 42
cat_boundaries=0 1
cat_threshold=4251776
is_linear=0
shrinkage=0.01


Tree=67
num_leaves=7
num_cat=0
split_feature=18 29 55 3 48 25
split_gain=7.58215e+11 3.02851e+11 1.85716e+11 9.87797e+10 9.69624e+10 8.25737e+10
threshold=1984.5000000000002 4.5000000000000009 1.0000000180025095e-35 12164.000000000002 2.5000000000000004 221.50000000000003
decision_type=2 2 2 2 2 10
left_child=2 5 -1 -4 -3 -2
right_child=1 4 3 -5 -6 -7
leaf_value=-348.35831732078992 114.78798933914237 739.69539395983111 -133.53633364306626 266.41999229262058 1895.0165686769185 478.55470445943854
leaf_weight=400 297 79 219 86 7.9999999999999991 79
leaf_count=400 297 79 219 86 8 79
internal_value=0 314.242 -206.632 -20.7618 845.932 191.218
internal_weight=0 463 705 305 87 376
internal_count=1168 463 705 305 87 376
is_linear=0
shrinkage=0.01


Tree=68
num_leaves=7
num_cat=1
split_feature=11 42 55 55 43 26
split_gain=8.32071e+11 3.43176e+11 1.66205e+11 1.23055e+11 7.7052e+10 7.44002e+10
threshold=0 1903.5000000000002 1.0000000180025095e-35 1.0000000180025095e-35 873.50000000000011 4.5000000000000009
decision_type=9 2 2 2 2 2
left_child=1 3 -2 -1 -3 -5
right_child=2 4 -4 5 -6 -7
leaf_value=57.761419273447785 -326.24438296609816 1169.6833959674113 -31.355444725331846 388.74234577419281 2448.1337959017706 1117.0593269967599
leaf_weight=137 424 22.000000000000004 348 216 5.9999999999999991 14.999999999999998
leaf_count=137 424 22 348 216 6 15
internal_value=0 367.141 -190.843 295.211 1443.64 436.036
internal_weight=0 396 772 368 28 231
internal_count=1168 396 772 368 28 231
cat_boundaries=0 1
cat_threshold=853037
is_linear=0
shrinkage=0.01


Tree=69
num_leaves=7
num_cat=1
split_feature=11 29 60 2 26 60
split_gain=8.15513e+11 3.48905e+11 1.65302e+11 6.7657e+10 6.66879e+10 6.51271e+10
threshold=0 4.5000000000000009 1.5000000000000002 99.500000000000014 3.0000000000000004 2.5000000000000004
decision_type=9 2 2 10 2 2
left_child=1 5 -2 -3 -4 -1
right_child=2 3 4 -5 -6 -7
leaf_value=162.29424737817143 -362.99195875523895 852.24239652885649 -138.91741114571161 1646.8186561055259 139.71663255938427 527.53787382919643
leaf_weight=262 325 61 331 12.999999999999998 116 60
leaf_count=262 325 61 331 13 116 60
internal_value=0 363.47 -188.935 991.83 -66.6097 230.352
internal_weight=0 396 772 74 447 322
internal_count=1168 396 772 74 447 322
cat_boundaries=0 1
cat_threshold=853037
is_linear=0
shrinkage=0.01


Tree=70
num_leaves=7
num_cat=1
split_feature=16 11 79 79 79 60
split_gain=9.32454e+11 3.12386e+11 2.01695e+11 1.04524e+11 8.15425e+10 5.03645e+10
threshold=7.5000000000000009 0 3602.0000000000005 2539.0000000000005 1898.0000000000002 2.5000000000000004
decision_type=2 9 2 2 2 2
left_child=1 3 -2 -1 -3 -4
right_child=2 4 5 -5 -6 -7
leaf_value=-93.517498579383471 403.40181763086258 -444.03932916154645 560.18102478441824 231.74129488756884 -190.46156918621105 1234.5500788776444
leaf_weight=171 115 187 13.999999999999998 234 394 53
leaf_count=171 115 187 14 234 394 53
internal_value=0 -121.543 657.499 92.1349 -267.474 1093.64
internal_weight=0 986 182 405 581 67
internal_count=1168 986 182 405 581 67
cat_boundaries=0 1
cat_threshold=2823277
is_linear=0
shrinkage=0.01


Tree=71
num_leaves=7
num_cat=0
split_feature=16 79 79 79 79 18
split_gain=9.14474e+11 3.87829e+11 1.37194e+11 8.287e+10 6.76279e+10 5.72028e+10
threshold=6.5000000000000009 3394.5000000000005 2041.5000000000002 4555.5000000000009 2955.5000000000005 2002.5000000000002
decision_type=2 2 2 2 2 2
left_child=2 4 -1 -3 -2 -5
right_child=1 3 -4 5 -6 -7
leaf_value=-383.35535568911024 59.287874621357041 747.46128390902584 -104.06326912304854 2438.042805112701 365.88802298652394 1037.6008906114562
leaf_weight=293 195 114 440 4.9999999999999982 114 7
leaf_count=293 195 114 440 5 114 7
internal_value=0 363.072 -215.704 830.667 172.402 1621.12
internal_weight=0 435 733 126 309 12
internal_count=1168 435 733 126 309 12
is_linear=0
shrinkage=0.01


Tree=72
num_leaves=7
num_cat=1
split_feature=11 29 60 48 55 55
split_gain=7.73943e+11 3.3295e+11 1.57824e+11 1.2748e+11 7.84457e+10 7.66142e+10
threshold=0 4.5000000000000009 1.5000000000000002 2.5000000000000004 1.0000000180025095e-35 1.0000000180025095e-35
decision_type=9 2 2 2 2 2
left_child=1 5 -2 -3 -4 -1
right_child=2 3 4 -5 -6 -7
leaf_value=37.767292850580802 -354.12330774059075 833.72806862269294 -222.90209607787151 2251.9693757064306 46.283323589312566 351.76769579988093
leaf_weight=131 325 67 184 6.9999999999999991 263 191
leaf_count=131 325 67 184 7 263 191
internal_value=0 354.085 -184.056 967.886 -64.5223 224.022
internal_weight=0 396 772 74 447 322
internal_count=1168 396 772 74 447 322
cat_boundaries=0 1
cat_threshold=853037
is_linear=0
shrinkage=0.01


Tree=73
num_leaves=7
num_cat=0
split_feature=79 79 59 26 79 79
split_gain=8.8445e+11 2.2634e+11 2.00939e+11 7.49551e+10 7.34073e+10 6.10627e+10
threshold=3005.0000000000005 3726.5000000000005 1.5000000000000002 3.0000000000000004 1729.0000000000002 4555.5000000000009
decision_type=2 2 2 2 2 2
left_child=2 3 4 -2 -1 -3
right_child=1 5 -4 -5 -6 -7
leaf_value=-506.95486687039858 37.800916251021356 819.13058615637101 9.7099441287118253 438.65332255198837 -223.41940346702231 1594.6143111378283
leaf_weight=122 69 66 392 144 363 11.999999999999998
leaf_count=122 69 66 392 144 363 12
internal_value=0 477.568 -158.658 308.8 -294.742 938.436
internal_weight=0 291 877 213 485 78
internal_count=1168 291 877 213 485 78
is_linear=0
shrinkage=0.01


Tree=74
num_leaves=7
num_cat=0
split_feature=16 79 79 16 79 79
split_gain=8.7008e+11 2.91725e+11 1.89854e+11 8.6214e+10 6.15478e+10 5.18656e+10
threshold=7.5000000000000009 2289.0000000000005 3602.0000000000005 5.5000000000000009 1651.5000000000002 3291.0000000000005
decision_type=2 2 2 2 2 2
left_child=1 4 -2 -3 -1 -5
right_child=2 3 -4 5 -6 -7
leaf_value=-515.94550198482102 388.60317470572528 -184.3546010781217 1058.2699336605392 72.458733046007922 -236.80956053002819 394.36650953866609
leaf_weight=100 115 121 67 330 376 59
leaf_count=100 115 121 67 330 376 59
internal_value=0 -117.407 635.129 48.7688 -295.452 121.283
internal_weight=0 986 182 510 476 389
internal_count=1168 986 182 510 476 389
is_linear=0
shrinkage=0.01


Tree=75
num_leaves=7
num_cat=1
split_feature=11 45 33 45 33 45
split_gain=7.3798e+11 3.24803e+11 1.51562e+11 1.32686e+11 8.41292e+10 7.28512e+10
threshold=0 1919.5000000000002 1225.5000000000002 1411.5000000000002 1108.0000000000002 2355.5000000000005
decision_type=9 2 2 2 2 2
left_child=1 4 -3 -2 -1 -4
right_child=3 2 5 -5 -6 -7
leaf_value=91.307976659910608 -296.5383777500158 628.75576434382322 1186.4716616624855 -31.925742771276223 582.37392966731682 2503.4953191994828
leaf_weight=234 438 101 14.000000000000002 334 41 5.9999999999999991
leaf_count=234 438 101 14 334 41 6
internal_value=0 345.762 786.247 -179.728 164.521 1581.58
internal_weight=0 396 121 772 275 20
internal_count=1168 396 121 772 275 20
cat_boundaries=0 1
cat_threshold=853037
is_linear=0
shrinkage=0.01


Tree=76
num_leaves=7
num_cat=2
split_feature=11 29 60 3 43 57
split_gain=7.23294e+11 3.14427e+11 1.49244e+11 9.21694e+10 7.54356e+10 6.76627e+10
threshold=0 4.5000000000000009 1.5000000000000002 15617.000000000002 983.50000000000011 1
decision_type=9 2 2 2 2 9
left_child=1 4 -2 -3 -1 -4
right_child=2 3 5 -5 -6 -7
leaf_value=154.97294058016888 -343.29665333341825 815.86949751187819 29.576394583331879 1952.4292785291307 600.59577183244051 -224.30275646909809
leaf_weight=278 325 66 294 7.9999999999999991 44 153
leaf_count=278 325 66 294 8 44 153
internal_value=0 342.304 -177.93 938.741 215.866 -61.6781
internal_weight=0 396 772 74 322 447
internal_count=1168 396 772 74 322 447
cat_boundaries=0 1 2
cat_threshold=853037 10
is_linear=0
shrinkage=0.01


Tree=77
num_leaves=7
num_cat=1
split_feature=16 16 59 16 18 40
split_gain=8.29126e+11 2.61465e+11 1.05677e+11 9.68323e+10 8.17286e+10 4.53452e+10
threshold=6.5000000000000009 8.5000000000000018 1.5000000000000002 7.5000000000000009 1998.5000000000002 0
decision_type=2 2 2 2 2 1
left_child=2 3 5 -2 -3 -1
right_child=1 4 -4 -5 -6 -7
leaf_value=-252.59648441790856 148.78543901796397 2295.6431492941715 -41.507118182109515 476.56522506352258 933.49064243343651 -526.52196504774975
leaf_weight=406 253 4.9999999999999991 256 140 37 71
leaf_count=406 253 5 256 140 37 71
internal_value=0 345.699 -205.407 265.552 1095.65 -293.369
internal_weight=0 435 733 393 42 477
internal_count=1168 435 733 393 42 477
cat_boundaries=0 1
cat_threshold=1
is_linear=0
shrinkage=0.01


Tree=78
num_leaves=7
num_cat=1
split_feature=11 45 42 61 42 45
split_gain=6.98915e+11 3.11977e+11 1.83593e+11 1.4346e+11 8.35771e+10 7.11194e+10
threshold=0 1919.5000000000002 1681.0000000000002 385.00000000000006 1562.0000000000002 1420.5000000000002
decision_type=9 2 2 2 2 2
left_child=1 4 -3 -2 -1 -5
right_child=3 2 -4 5 -6 -7
leaf_value=47.122168672469996 -342.7109546962015 534.54143815788689 1417.723416916072 -198.23383936610492 430.95988962785776 51.052473519134608
leaf_weight=195 312 89 32 214 80 246
leaf_count=195 312 89 32 214 80 246
internal_value=0 336.47 768.11 -174.922 158.784 -64.9199
internal_weight=0 396 121 772 275 460
internal_count=1168 396 121 772 275 460
cat_boundaries=0 1
cat_threshold=853037
is_linear=0
shrinkage=0.01


Tree=79
num_leaves=7
num_cat=0
split_feature=16 16 33 59 50 42
split_gain=7.999e+11 2.52734e+11 1.06574e+11 1.02488e+11 7.15315e+10 7.58972e+10
threshold=6.5000000000000009 8.5000000000000018 951.00000000000011 1.5000000000000002 3.5000000000000004 1730.5000000000002
decision_type=2 2 2 2 2 2
left_child=3 2 -2 -1 -3 -6
right_child=1 4 -4 -5 5 -7
leaf_value=-288.37888647559038 179.46496603527814 846.17685873024266 594.35565579696686 -40.346193925734241 943.9300908898615 2686.3101324854501
leaf_weight=477 316 32 77 256 4.9999999999999982 5
leaf_count=477 316 32 77 256 5 5
internal_value=0 339.552 260.754 -201.754 1076.88 1815.12
internal_weight=0 435 393 733 42 10
internal_count=1168 435 393 733 42 10
is_linear=0
shrinkage=0.01


Tree=80
num_leaves=7
num_cat=1
split_feature=16 11 16 50 31 16
split_gain=7.84993e+11 2.65829e+11 1.16969e+11 7.0108e+10 1.00937e+11 6.41456e+10
threshold=7.5000000000000009 0 8.5000000000000018 3.5000000000000004 1.5000000000000002 4.5000000000000009
decision_type=2 9 2 2 2 2
left_child=1 -1 -2 -4 -5 -3
right_child=2 5 3 4 -6 -7
leaf_value=85.558519453119175 464.40480137404268 -472.82109332542268 837.71510244762771 792.29350541182043 2801.6443040109875 -200.75657142303999
leaf_weight=405 140 106 32 4.9999999999999982 5 475
leaf_count=405 140 106 32 5 5 475
internal_value=0 -111.533 603.26 1066.11 1796.97 -246.156
internal_weight=0 986 182 42 10 581
internal_count=1168 986 182 42 10 581
cat_boundaries=0 1
cat_threshold=2823277
is_linear=0
shrinkage=0.01


Tree=81
num_leaves=7
num_cat=0
split_feature=79 79 79 19 19 36
split_gain=7.78842e+11 2.21289e+11 1.66026e+11 8.84864e+10 6.61717e+10 6.51693e+10
threshold=2955.5000000000005 3710.0000000000005 2041.5000000000002 1984.5000000000002 1994.5000000000002 313.00000000000006
decision_type=2 2 2 2 2 2
left_child=2 3 -1 -2 -3 -6
right_child=1 4 -4 -5 5 -7
leaf_value=-340.50529822271011 -70.11983346093804 428.59670275776017 -51.027187995569939 378.4130195080495 2050.4481588850931 947.50035166602913
leaf_weight=315 58 23 534 182 5.9999999999999991 50
leaf_count=315 58 23 534 182 6 50
internal_value=0 421.127 -158.431 270.018 880.195 1065.67
internal_weight=0 319 849 240 79 56
internal_count=1168 319 849 240 79 56
is_linear=0
shrinkage=0.01


Tree=82
num_leaves=7
num_cat=0
split_feature=79 79 79 52 19 18
split_gain=7.63515e+11 1.98355e+11 1.77185e+11 7.50057e+10 6.62982e+10 6.2648e+10
threshold=3005.0000000000005 3726.5000000000005 2176.0000000000005 3.0000000000000004 1994.5000000000002 1978.5000000000002
decision_type=2 2 2 2 2 2
left_child=2 3 -1 -2 -3 -4
right_child=1 4 5 -5 -6 -7
leaf_value=-302.63744262517014 -28.48380810647943 424.31073723748545 -126.92056495905339 397.79427580086593 1063.6815467595579 102.5070209910218
leaf_weight=400 56 23 249 157 55 228
leaf_count=400 56 23 249 157 55 228
internal_value=0 443.712 -147.419 285.721 875.149 -17.2571
internal_weight=0 291 877 213 78 477
internal_count=1168 291 877 213 78 477
is_linear=0
shrinkage=0.01


Tree=83
num_leaves=7
num_cat=1
split_feature=11 60 48 55 60 19
split_gain=6.45894e+11 2.66879e+11 1.38977e+11 1.35328e+11 5.14316e+10 4.66132e+10
threshold=0 2.5000000000000004 2.5000000000000004 1.0000000180025095e-35 1.5000000000000002 1954.5000000000002
decision_type=9 2 2 2 2 2
left_child=1 -1 -3 5 -5 -2
right_child=3 2 -4 4 -6 -7
leaf_value=167.59056141633451 -475.37268087857535 645.66281992869506 2012.9872227503865 -238.02487523761747 44.930134608359687 -230.87987906474439
leaf_weight=283 103 105 7.9999999999999991 85 263 321
leaf_count=283 103 105 8 85 263 321
internal_value=0 323.465 742.465 -168.147 -24.1824 -290.273
internal_weight=0 396 113 772 348 424
internal_count=1168 396 113 772 348 424
cat_boundaries=0 1
cat_threshold=853037
is_linear=0
shrinkage=0.01


Tree=84
num_leaves=7
num_cat=1
split_feature=11 42 61 61 52 49
split_gain=6.33041e+11 2.77055e+11 1.32305e+11 1.11652e+11 6.26684e+10 5.27415e+10
threshold=0 1903.5000000000002 385.00000000000006 681.00000000000011 3.0000000000000004 1.0000000180025095e-35
decision_type=9 2 2 2 2 2
left_child=1 3 -2 -1 -4 -3
right_child=2 5 4 -5 -6 -7
leaf_value=152.6037051413106 -327.57987906821546 853.22470924687889 -147.68788993098823 550.63209142637299 96.000820030554209 1721.2393257043263
leaf_weight=273 312 14 296 95 164 14
leaf_count=273 312 14 296 95 164 14
internal_value=0 320.23 -166.466 255.356 -60.8076 1287.23
internal_weight=0 396 772 368 460 28
internal_count=1168 396 772 368 460 28
cat_boundaries=0 1
cat_threshold=853037
is_linear=0
shrinkage=0.01


Tree=85
num_leaves=7
num_cat=1
split_feature=11 52 59 33 33 49
split_gain=6.20443e+11 2.49437e+11 1.31361e+11 8.54866e+10 8.44528e+10 6.15206e+10
threshold=0 4.5000000000000009 1.5000000000000002 1446.0000000000002 811.00000000000011 1.0000000180025095e-35
decision_type=9 2 2 2 2 2
left_child=1 4 -2 -3 -1 -5
right_child=2 3 -4 5 -6 -7
leaf_value=124.40171114767898 -272.64036267306915 755.66838304192515 -5.9615356579485574 987.66555950734312 479.54519499801364 2556.3667578791783
leaf_weight=246 466 48 306 4.9999999999999982 92 5
leaf_count=246 466 48 306 5 92 5
internal_value=0 317.028 -164.801 930.901 221.068 1772.02
internal_weight=0 396 772 58 338 10
internal_count=1168 396 772 58 338 10
cat_boundaries=0 1
cat_threshold=853037
is_linear=0
shrinkage=0.01


Tree=86
num_leaves=7
num_cat=0
split_feature=79 79 79 52 18 18
split_gain=7.18542e+11 1.87955e+11 1.68873e+11 6.97644e+10 6.7808e+10 6.1013e+10
threshold=3005.0000000000005 3726.5000000000005 2041.5000000000002 3.0000000000000004 1978.5000000000002 1993.5000000000002
decision_type=2 2 2 2 2 2
left_child=2 3 -1 -2 -4 -3
right_child=1 5 4 -5 -6 -7
leaf_value=-328.36041598251438 -26.374261402076641 506.04599159366336 -133.95263652390389 384.740203116641 88.109813388824989 1077.5626390725349
leaf_weight=315 56 31 322 157 240 47
leaf_count=315 56 31 322 157 240 47
internal_value=0 430.447 -143.01 276.654 -39.1217 850.421
internal_weight=0 291 877 213 562 78
internal_count=1168 291 877 213 562 78
is_linear=0
shrinkage=0.01


Tree=87
num_leaves=7
num_cat=0
split_feature=16 16 45 59 18 2
split_gain=7.02183e+11 2.23252e+11 1.01358e+11 9.26527e+10 7.76755e+10 7.32923e+10
threshold=6.5000000000000009 8.5000000000000018 1928.5000000000002 1.5000000000000002 1998.5000000000002 110.50000000000001
decision_type=2 2 2 2 2 10
left_child=3 2 -2 -1 -3 -6
right_child=1 4 -4 -5 5 -7
leaf_value=-271.3840277173357 133.76400723287628 2180.9903527665692 477.86396612325188 -35.552457909267602 1028.9728028575676 -272.9048780793176
leaf_weight=477 267 4.9999999999999991 126 256 32 4.9999999999999991
leaf_count=477 267 5 126 256 32 5
internal_value=0 318.146 244.086 -189.02 1011.13 853.043
internal_weight=0 435 393 733 42 37
internal_count=1168 435 393 733 42 37
is_linear=0
shrinkage=0.01


Tree=88
num_leaves=7
num_cat=1
split_feature=11 42 59 37 33 37
split_gain=5.91283e+11 2.61247e+11 1.24421e+11 1.20495e+11 1.05944e+11 4.20159e+10
threshold=0 1903.5000000000002 1.5000000000000002 2144.5000000000005 934.00000000000011 696.50000000000011
decision_type=9 2 2 2 2 2
left_child=1 4 5 -3 -1 -2
right_child=2 3 -4 -5 -6 -7
leaf_value=154.89003083700635 -424.40437000040339 942.597650958592 -6.3008949289126894 2655.4289919540206 560.86599698595205 -208.97736985420704
leaf_weight=285 123 23.000000000000004 306 4.9999999999999991 83 343
leaf_count=285 123 23 306 5 83 343
internal_value=0 309.489 -160.881 1248.46 246.455 -265.839
internal_weight=0 396 772 28 368 466
internal_count=1168 396 772 28 368 466
cat_boundaries=0 1
cat_threshold=853037
is_linear=0
shrinkage=0.01


Tree=89
num_leaves=7
num_cat=1
split_feature=79 79 79 19 29 11
split_gain=6.8505e+11 1.96037e+11 1.49038e+11 7.82666e+10 5.82395e+10 5.15574e+10
threshold=2955.5000000000005 3710.0000000000005 2041.5000000000002 1984.5000000000002 4.5000000000000009 0
decision_type=2 2 2 2 2 9
left_child=2 3 -1 -2 -3 -4
right_child=1 4 5 -5 -6 -7
leaf_value=-321.09124329660506 -67.160563673692423 608.84051484282497 -156.74621093938245 354.67605263408973 1164.8993763208186 38.931421205126412
leaf_weight=315 58 48 228 182 31 306
leaf_count=315 58 48 228 182 31 306
internal_value=0 394.959 -148.583 252.732 827.041 -46.8226
internal_weight=0 319 849 240 79 534
internal_count=1168 319 849 240 79 534
cat_boundaries=0 1
cat_threshold=8424320
is_linear=0
shrinkage=0.01


Tree=90
num_leaves=7
num_cat=1
split_feature=11 45 45 45 60 18
split_gain=5.71351e+11 2.84296e+11 1.14448e+11 8.28072e+10 7.29267e+10 7.06716e+10
threshold=0 2035.5000000000002 3126.0000000000005 1477.5000000000002 1.5000000000000002 2003.5000000000002
decision_type=9 2 2 2 2 2
left_child=1 3 5 -1 -2 -3
right_child=4 2 -4 -5 -6 -7
leaf_value=-51.799317907534864 -308.13054707097245 471.37280181707365 2194.7520558498713 237.402428852046 -94.439081968379128 1067.041595753564
leaf_weight=156 325 69 4.9999999999999991 271 314 28
leaf_count=156 325 69 5 271 314 28
internal_value=0 240.503 719.369 131.746 -199.994 643.318
internal_weight=0 529 102 427 639 97
internal_count=1168 529 102 427 639 97
cat_boundaries=0 1
cat_threshold=3081325
is_linear=0
shrinkage=0.01


Tree=91
num_leaves=7
num_cat=1
split_feature=16 16 33 57 58 19
split_gain=6.57876e+11 2.10246e+11 9.25109e+10 8.24524e+10 7.54472e+10 4.37202e+10
threshold=6.5000000000000009 8.5000000000000018 951.00000000000011 0 1998.5000000000002 2008.5000000000002
decision_type=2 2 2 9 10 2
left_child=3 2 -2 -1 -3 -6
right_child=1 4 -4 -5 5 -7
leaf_value=-68.975917575744859 160.32985701069904 2133.3905091607967 546.87828760261243 -286.37505209244244 658.58333072209791 1536.2556216750825
leaf_weight=365 316 4.9999999999999991 77 368 30 6.9999999999999991
leaf_count=365 316 5 77 368 30 7
internal_value=0 307.936 236.066 -182.968 980.434 824.629
internal_weight=0 435 393 733 42 37
internal_count=1168 435 393 733 42 37
cat_boundaries=0 1
cat_threshold=10
is_linear=0
shrinkage=0.01


Tree=92
num_leaves=7
num_cat=0
split_feature=79 79 79 16 18 19
split_gain=6.52643e+11 1.71614e+11 1.54968e+11 6.78986e+10 6.06655e+10 5.60788e+10
threshold=3005.0000000000005 3710.0000000000005 2041.5000000000002 6.5000000000000009 1978.5000000000002 1994.5000000000002
decision_type=2 2 2 2 2 2
left_child=2 3 -1 -2 -4 -3
right_child=1 5 4 -5 -6 -7
leaf_value=-313.88855467143412 -19.617985571066885 392.27883296170972 -126.5115229662015 375.69839886868408 83.530242031545967 978.76143127120054
leaf_weight=315 61 23 322 151 240 56
leaf_count=315 61 23 322 151 240 56
internal_value=0 410.195 -136.333 261.952 -36.814 808.013
internal_weight=0 291 877 212 562 79
internal_count=1168 291 877 212 562 79
is_linear=0
shrinkage=0.01


Tree=93
num_leaves=7
num_cat=0
split_feature=52 61 52 55 61 48
split_gain=5.15871e+11 2.57582e+11 8.18963e+10 7.76585e+10 5.76138e+10 5.41692e+10
threshold=3.0000000000000004 665.50000000000011 4.5000000000000009 1.0000000180025095e-35 424.50000000000006 2.5000000000000004
decision_type=2 2 2 2 2 2
left_child=3 4 -3 -1 -2 -4
right_child=1 2 5 -5 -6 -7
leaf_value=-287.67810715598603 -124.7632439890195 416.92997746189303 789.32152425722245 -60.440700512688053 158.27416346745073 1805.0946048171108
leaf_weight=373 95 104 42 252 296 5.9999999999999991
leaf_count=373 95 104 42 252 296 6
internal_value=0 225.303 574.624 -196.056 89.5055 916.293
internal_weight=0 543 152 625 391 48
internal_count=1168 543 152 625 391 48
is_linear=0
shrinkage=0.01


Tree=94
num_leaves=7
num_cat=0
split_feature=26 60 52 60 18 29
split_gain=5.31705e+11 2.20979e+11 1.04058e+11 9.53671e+10 9.16692e+10 3.53605e+10
threshold=3.0000000000000004 2.5000000000000004 4.5000000000000009 1.5000000000000002 2002.5000000000002 3.0000000000000004
decision_type=2 2 2 2 2 2
left_child=3 -2 -3 -1 -4 -5
right_child=1 2 4 5 -6 -7
leaf_value=-283.89983585056314 131.13316576872913 414.88022166067248 2286.1448055729511 -132.77468822643084 851.93156980714832 60.776911170142384
leaf_weight=345 299 83 4.9999999999999991 239 41 156
leaf_count=345 299 83 5 239 41 156
internal_value=0 280.383 626.318 -162.429 1007.82 -56.3341
internal_weight=0 428 129 740 46 395
internal_count=1168 428 129 740 46 395
is_linear=0
shrinkage=0.01


Tree=95
num_leaves=7
num_cat=1
split_feature=11 59 53 2 46 3
split_gain=5.66553e+11 1.63622e+11 1.37629e+11 7.47925e+10 5.8862e+10 3.67867e+10
threshold=0 1.5000000000000002 9.5000000000000018 99.500000000000014 1.0000000180025095e-35 6953.0000000000009
decision_type=9 2 2 10 2 2
left_child=2 5 4 -4 -1 -2
right_child=1 -3 3 -5 -6 -7
leaf_value=171.85722334831033 -400.42117980479219 23.966813875615102 766.21890685979486 1959.7929753203684 478.74355860164303 -198.7302357679435
leaf_weight=125 120 403 21.000000000000004 6.9999999999999991 125 367
leaf_count=125 120 403 21 7 125 367
internal_value=0 -123.695 385.883 1064.61 325.3 -248.428
internal_weight=0 890 278 28 250 487
internal_count=1168 890 278 28 250 487
cat_boundaries=0 1
cat_threshold=853036
is_linear=0
shrinkage=0.01


Tree=96
num_leaves=7
num_cat=1
split_feature=11 29 59 45 45 45
split_gain=5.55278e+11 1.79842e+11 1.60366e+11 1.21503e+11 7.84717e+10 5.43412e+10
threshold=0 4.5000000000000009 1.5000000000000002 2802.0000000000005 1800.5000000000002 1483.0000000000002
decision_type=9 2 2 2 2 2
left_child=1 4 -2 -3 -1 -4
right_child=2 3 5 -5 -6 -7
leaf_value=94.047554730201952 -245.94392761781288 726.19647183300651 -99.221829564664787 2346.7004928894676 487.23797845750272 133.39994033715269
leaf_weight=126 487 62 190 4.9999999999999991 85 213
leaf_count=126 487 62 190 5 85 213
internal_value=0 382.024 -122.459 847.13 252.442 23.7271
internal_weight=0 278 890 67 211 403
internal_count=1168 278 890 67 211 403
cat_boundaries=0 1
cat_threshold=853036
is_linear=0
shrinkage=0.01


Tree=97
num_leaves=7
num_cat=0
split_feature=79 79 79 16 60 79
split_gain=6.06102e+11 1.61134e+11 1.45282e+11 6.25636e+10 6.02055e+10 5.6292e+10
threshold=3005.0000000000005 3726.5000000000005 2041.5000000000002 6.5000000000000009 2.5000000000000004 4448.0000000000009
decision_type=2 2 2 2 2 2
left_child=2 3 -1 -2 -3 -6
right_child=1 4 -4 -5 5 -7
leaf_value=-303.29739680112107 -17.635329950671668 423.0229930693439 -35.020918472374881 361.47368160359161 815.53120380211817 1627.862519064794
leaf_weight=315 61 29 562 152 38 10.999999999999998
leaf_count=315 61 29 562 152 38 11
internal_value=0 395.301 -131.38 252.903 784.158 997.891
internal_weight=0 291 877 213 78 49
internal_count=1168 291 877 213 78 49
is_linear=0
shrinkage=0.01


Tree=98
num_leaves=7
num_cat=0
split_feature=79 79 79 51 16 50
split_gain=5.9423e+11 1.7235e+11 1.31182e+11 6.92586e+10 4.88564e+10 7.50346e+10
threshold=2955.5000000000005 3710.0000000000005 2041.5000000000002 1.5000000000000002 8.5000000000000018 3.5000000000000004
decision_type=2 2 2 2 2 2
left_child=2 3 -1 -2 -3 -6
right_child=1 4 -4 -5 5 -7
leaf_value=-300.26442211935216 285.67390974088858 608.67520841720705 -42.949091852733801 -328.95945604963373 790.61594253989801 2020.7795491978629
leaf_weight=315 220 55 534 20 17.000000000000004 6.9999999999999991
leaf_count=315 220 55 534 20 17 7
internal_value=0 367.812 -138.419 234.454 772.95 1149.41
internal_weight=0 319 849 240 79 24
internal_count=1168 319 849 240 79 24
is_linear=0
shrinkage=0.01


Tree=99
num_leaves=7
num_cat=2
split_feature=11 37 60 60 57 37
split_gain=5.30728e+11 1.90515e+11 1.47226e+11 9.56355e+10 6.48459e+10 4.13238e+10
threshold=0 2109.5000000000005 1.5000000000000002 2.5000000000000004 1 791.50000000000011
decision_type=9 2 2 2 9 2
left_child=1 3 -2 5 -4 -1
right_child=2 -3 4 -5 -6 -7
leaf_value=-101.42754894988383 -286.21612951918166 1907.7442957035967 49.108212239806662 603.64223239411911 -183.44847341060969 281.93363459661168
leaf_weight=35 336 7.9999999999999991 393 92 161 143
leaf_count=35 336 8 393 92 161 143
internal_value=0 373.485 -119.72 341.858 -20.9009 206.554
internal_weight=0 278 890 270 554 178
internal_count=1168 278 890 270 554 178
cat_boundaries=0 1 2
cat_threshold=853036 10
is_linear=0
shrinkage=0.01


Tree=100
num_leaves=7
num_cat=0
split_feature=79 79 79 51 79 31
split_gain=5.74018e+11 1.53118e+11 1.3836e+11 5.35554e+10 5.10609e+10 4.90878e+10
threshold=3005.0000000000005 3726.5000000000005 2289.0000000000005 1.5000000000000002 1612.5000000000002 1.5000000000000002
decision_type=2 2 2 2 2 2
left_child=2 3 4 -2 -1 -3
right_child=1 5 -4 -5 -6 -7
leaf_value=-470.79372872436011 292.57314442299844 485.68506610882025 10.563354289909878 -292.53891001042695 -195.46964909156469 990.07454225654567
leaf_weight=81 196 35 396 17 400 43
leaf_count=81 196 35 396 17 400 43
internal_value=0 384.685 -127.867 245.874 -241.834 763.746
internal_weight=0 291 877 213 481 78
internal_count=1168 291 877 213 481 78
is_linear=0
shrinkage=0.01


Tree=101
num_leaves=7
num_cat=0
split_feature=79 79 79 19 60 79
split_gain=5.62694e+11 1.63749e+11 1.24789e+11 6.63249e+10 5.57291e+10 5.45894e+10
threshold=2955.5000000000005 3710.0000000000005 2041.5000000000002 1984.5000000000002 2.5000000000000004 4448.0000000000009
decision_type=2 2 2 2 2 2
left_child=2 3 -1 -2 -3 -6
right_child=1 4 -4 -5 5 -7
leaf_value=-292.55932969929609 -66.558220955133436 404.05782967340559 -41.592434812108415 321.76591697906815 779.59987149202323 1577.2461359668928
leaf_weight=315 58 29 534 182 39 10.999999999999998
leaf_count=315 58 29 534 182 39 11
internal_value=0 357.908 -134.707 227.921 752.807 955.082
internal_weight=0 319 849 240 79 50
internal_count=1168 319 849 240 79 50
is_linear=0
shrinkage=0.01


Tree=102
num_leaves=7
num_cat=0
split_feature=79 79 79 52 79 31
split_gain=5.51734e+11 1.47023e+11 1.33615e+11 5.44367e+10 4.96631e+10 4.78077e+10
threshold=3005.0000000000005 3726.5000000000005 2289.0000000000005 3.0000000000000004 1612.5000000000002 1.5000000000000002
decision_type=2 2 2 2 2 2
left_child=2 3 4 -2 -1 -3
right_child=1 5 -4 -5 -6 -7
leaf_value=-463.16019658220688 -26.553303259066428 474.17258822596875 10.675561603079535 336.60150683222366 -191.63087237690831 971.94182355835585
leaf_weight=81 56 35 396 157 400 43
leaf_count=81 56 35 396 157 400 43
internal_value=0 377.144 -125.36 241.124 -237.356 748.584
internal_weight=0 291 877 213 481 78
internal_count=1168 291 877 213 481 78
is_linear=0
shrinkage=0.01


Tree=103
num_leaves=7
num_cat=1
split_feature=16 79 79 11 79 79
split_gain=5.44417e+11 1.89002e+11 1.24854e+11 7.49944e+10 4.82364e+10 3.70477e+10
threshold=7.5000000000000009 2289.0000000000005 3602.0000000000005 0 1612.5000000000002 3278.5000000000005
decision_type=2 2 2 9 2 2
left_child=1 4 -2 5 -1 -3
right_child=2 3 -4 -5 -6 -7
leaf_value=-458.52859405606694 302.43101506702129 119.30468731670932 845.49538367553771 -73.344270119512757 -190.64272074545195 463.36713640364633
leaf_weight=81 115 203 67 270 395 37
leaf_count=81 115 203 67 270 395 37
internal_value=0 -92.9185 502.35 40.8373 -236.228 165.454
internal_weight=0 986 182 510 476 240
internal_count=1168 986 182 510 476 240
cat_boundaries=0 1
cat_threshold=726061
is_linear=0
shrinkage=0.01


Tree=104
num_leaves=7
num_cat=1
split_feature=79 79 79 51 31 11
split_gain=5.31119e+11 1.54499e+11 1.18096e+11 6.42097e+10 4.71431e+10 4.14019e+10
threshold=2955.5000000000005 3710.0000000000005 2041.5000000000002 1.5000000000000002 1.5000000000000002 0
decision_type=2 2 2 2 2 9
left_child=2 3 -1 -2 -3 -4
right_child=1 4 5 -5 -6 -7
leaf_value=-284.43958528019516 270.76978624455887 464.31894284523071 -138.82882465761014 -321.03647924899474 954.8168853376452 36.465725691772853
leaf_weight=315 220 36 228 20 43 306
leaf_count=315 220 36 228 20 43 306
internal_value=0 347.715 -130.879 221.453 731.299 -40.2961
internal_weight=0 319 849 240 79 534
internal_count=1168 319 849 240 79 534
cat_boundaries=0 1
cat_threshold=8424320
is_linear=0
shrinkage=0.01


Tree=105
num_leaves=7
num_cat=0
split_feature=16 79 79 79 60 79
split_gain=5.25647e+11 2.31611e+11 8.47085e+10 5.00241e+10 5.15863e+10 3.96555e+10
threshold=6.5000000000000009 3394.5000000000005 2041.5000000000002 4156.5000000000009 2.5000000000000004 2738.0000000000005
decision_type=2 2 2 2 2 2
left_child=2 5 -1 -3 -5 -2
right_child=1 3 -4 4 -6 -7
leaf_value=-295.33502969249741 -5.0722072161106846 525.17093486127271 -75.875105421054343 448.00236266421456 1308.5100899311342 224.40143973214677
leaf_weight=293 130 96 440 11.000000000000002 19 179
leaf_count=293 130 96 440 11 19 179
internal_value=0 275.206 -163.599 636.557 992.991 127.859
internal_weight=0 435 733 126 30 309
internal_count=1168 435 733 126 30 309
is_linear=0
shrinkage=0.01


Tree=106
num_leaves=7
num_cat=0
split_feature=52 42 43 48 55 42
split_gain=4.24703e+11 1.94273e+11 9.70347e+10 7.15377e+10 6.59379e+10 4.56802e+10
threshold=3.0000000000000004 1703.0000000000002 945.50000000000011 2.5000000000000004 1.0000000180025095e-35 1433.0000000000002
decision_type=2 2 2 2 2 2
left_child=4 2 5 -3 -1 -2
right_child=1 3 -4 -5 -6 -7
leaf_value=-262.3363428360077 1.553320491331271 603.42382596929451 452.83987555595667 1746.9615580888969 -52.947837261316181 240.02853091671437
leaf_weight=373 284 62 79 5.9999999999999991 252 112
leaf_count=373 284 62 79 6 252 112
internal_value=0 204.407 132.839 704.324 -177.911 69.0009
internal_weight=0 543 475 68 625 396
internal_count=1168 543 475 68 625 396
is_linear=0
shrinkage=0.01


Tree=107
num_leaves=7
num_cat=0
split_feature=26 60 42 60 52 3
split_gain=4.30253e+11 1.7819e+11 9.14613e+10 8.2028e+10 4.8715e+10 3.77159e+10
threshold=3.0000000000000004 2.5000000000000004 2220.0000000000005 1.5000000000000002 4.5000000000000009 36130.000000000007
decision_type=2 2 2 2 2 2
left_child=3 -2 4 -1 -3 -5
right_child=1 2 -4 5 -6 -7
leaf_value=-258.79109801051567 118.17441644433359 365.87407272830177 1768.432808034682 -62.660197143256781 790.70373578259421 592.19555781388442
leaf_weight=345 299 83 5.9999999999999991 386 40 8.9999999999999982
leaf_count=345 299 83 6 386 40 9
internal_value=0 252.197 562.839 -146.135 504.03 -47.7394
internal_weight=0 428 129 740 123 395
internal_count=1168 428 129 740 123 395
is_linear=0
shrinkage=0.01


Tree=108
num_leaves=7
num_cat=0
split_feature=79 79 79 51 79 31
split_gain=4.96188e+11 1.33112e+11 1.21036e+11 4.79208e+10 4.65785e+10 4.38531e+10
threshold=3005.0000000000005 3726.5000000000005 2289.0000000000005 1.5000000000000002 1612.5000000000002 1.5000000000000002
decision_type=2 2 2 2 2 2
left_child=2 3 4 -2 -1 -3
right_child=1 5 -4 -5 -6 -7
leaf_value=-444.16918801371025 272.39175875991043 448.2569186466452 10.578141540835109 -281.08464617642511 -181.20726821117685 924.99453682889373
leaf_weight=81 196 35 396 17 400 43
leaf_count=81 196 35 396 17 400 43
internal_value=0 357.643 -118.896 228.218 -225.49 711.074
internal_weight=0 291 877 213 481 78
internal_count=1168 291 877 213 481 78
is_linear=0
shrinkage=0.01


Tree=109
num_leaves=7
num_cat=2
split_feature=11 45 11 45 66 52
split_gain=4.61594e+11 1.47536e+11 1.24031e+11 8.58786e+10 5.38658e+10 4.56032e+10
threshold=0 2015.5000000000002 1 3126.0000000000005 28.500000000000004 4.5000000000000009
decision_type=9 2 9 2 2 2
left_child=1 -1 -2 5 -4 -3
right_child=2 3 4 -5 -6 -7
leaf_value=211.81256574745083 -280.27015571422669 470.74989580625027 -116.83508480232088 1986.9574939794886 72.540264604185197 996.16146757185038
leaf_weight=196 286 53 324 4.9999999999999991 280 24
leaf_count=196 286 53 324 5 280 24
internal_value=0 348.291 -111.67 716.981 -28.5721 634.515
internal_weight=0 278 890 82 604 77
internal_count=1168 278 890 82 604 77
cat_boundaries=0 1 2
cat_threshold=853036 4252032
is_linear=0
shrinkage=0.01


Tree=110
num_leaves=7
num_cat=0
split_feature=45 61 32 45 19 37
split_gain=3.9169e+11 1.76592e+11 7.55704e+10 6.30993e+10 5.91669e+10 5.45374e+10
threshold=1483.0000000000002 709.50000000000011 4.5000000000000009 2015.5000000000002 1952.5000000000002 1571.5000000000002
decision_type=2 2 2 2 2 2
left_child=4 2 -2 -3 -1 -5
right_child=1 3 -4 5 -6 -7
leaf_value=-395.92030316624255 -11.275531652972036 309.51384975195577 255.50572417542062 544.16134930247586 -131.86919808020446 1189.3020459740962
leaf_weight=102 261 63 179 38 505 20
leaf_count=102 261 63 179 38 505 20
internal_value=0 190.296 97.2559 528.624 -176.24 766.624
internal_weight=0 561 440 121 607 58
internal_count=1168 561 440 121 607 58
is_linear=0
shrinkage=0.01


Tree=111
num_leaves=7
num_cat=1
split_feature=79 79 57 19 79 19
split_gain=4.71921e+11 1.26898e+11 1.22248e+11 4.91936e+10 4.81196e+10 4.58713e+10
threshold=3005.0000000000005 3726.5000000000005 0 1984.5000000000002 2561.5000000000005 1994.5000000000002
decision_type=2 2 9 2 2 2
left_child=2 3 4 -2 -1 -3
right_child=1 5 -4 -5 -6 -7
leaf_value=-88.93092516340333 -45.012778976234458 318.83986795403746 -248.83809845415954 308.76417097135999 112.38789076782724 850.66961959433399
leaf_weight=306 52 23 377 161 194 55
leaf_count=306 52 23 377 161 194 55
internal_value=0 348.765 -115.975 222.396 -10.6071 693.848
internal_weight=0 291 877 213 500 78
internal_count=1168 291 877 213 500 78
cat_boundaries=0 1
cat_threshold=10
is_linear=0
shrinkage=0.01


Tree=112
num_leaves=7
num_cat=0
split_feature=16 16 16 45 60 55
split_gain=4.71251e+11 1.61314e+11 7.38025e+10 6.88893e+10 3.92853e+10 6.03918e+10
threshold=7.5000000000000009 5.5000000000000009 8.5000000000000018 1718.5000000000002 2.5000000000000004 1.5000000000000002
decision_type=2 2 2 2 2 2
left_child=1 -1 -2 -3 -4 -6
right_child=2 3 4 -5 5 -7
leaf_value=-232.25140080340884 357.02441113528641 -48.585546494788659 204.47466269869446 192.1326015564876 749.54706273932049 1743.1134488473976
leaf_weight=429 140 385 7.9999999999999991 172 26 7.9999999999999991
leaf_count=429 140 385 8 172 26 8
internal_value=0 -86.5056 467.321 25.7475 834.974 983.327
internal_weight=0 986 182 557 42 34
internal_count=1168 986 182 557 42 34
is_linear=0
shrinkage=0.01


Tree=113
num_leaves=7
num_cat=1
split_feature=11 33 61 61 66 43
split_gain=4.35883e+11 1.35394e+11 1.20828e+11 6.47466e+10 5.15653e+10 4.97998e+10
threshold=0 1225.5000000000002 385.00000000000006 812.50000000000011 16.500000000000004 1080.5000000000002
decision_type=9 2 2 2 2 2
left_child=1 5 -2 -3 -4 -1
right_child=2 3 4 -5 -6 -7
leaf_value=200.94920270658994 -264.15282990624962 605.93684450681894 -134.3653198104783 1482.1946316861231 58.982445581791175 591.26341648705977
leaf_weight=202 323 24 237 12.999999999999998 330 39
leaf_count=202 323 24 237 13 330 39
internal_value=0 338.41 -108.557 913.811 -21.8349 264.112
internal_weight=0 278 890 37 567 241
internal_count=1168 278 890 37 567 241
cat_boundaries=0 1
cat_threshold=853036
is_linear=0
shrinkage=0.01


Tree=114
num_leaves=7
num_cat=1
split_feature=11 37 61 60 18 37
split_gain=4.27209e+11 1.62594e+11 1.18423e+11 7.12284e+10 4.41981e+10 3.42486e+10
threshold=0 2109.5000000000005 385.00000000000006 2.5000000000000004 1963.5000000000002 791.50000000000011
decision_type=9 2 2 2 2 2
left_child=1 3 -2 5 -4 -1
right_child=2 -3 4 -5 -6 -7
leaf_value=-91.699977115715569 -261.51130196398771 1752.0459305199347 -160.61401320292666 531.37142102986331 34.464143377701468 257.30326776512749
leaf_weight=35 323 7.9999999999999991 163 92 404 143
leaf_count=35 323 8 163 92 404 143
internal_value=0 335.026 -107.472 305.448 -21.6165 188.679
internal_weight=0 278 890 270 567 178
internal_count=1168 278 890 270 567 178
cat_boundaries=0 1
cat_threshold=853036
is_linear=0
shrinkage=0.01


Tree=115
num_leaves=7
num_cat=1
split_feature=16 16 11 50 31 2
split_gain=4.48368e+11 1.46163e+11 6.79694e+10 5.4494e+10 8.06448e+10 6.59958e+10
threshold=6.5000000000000009 8.5000000000000018 0 3.5000000000000004 1.5000000000000002 110.50000000000001
decision_type=2 2 9 2 2 10
left_child=2 -2 -1 5 -5 -3
right_child=1 3 -4 4 -6 -7
leaf_value=-295.93189337286486 194.20798079462671 808.91855206346224 -82.49517445197209 561.18142017458979 2357.2301491075623 -441.81959045813107
leaf_weight=218 393 27 515 4.9999999999999982 5 4.9999999999999991
leaf_count=218 393 27 515 5 5 5
internal_value=0 254.132 -151.136 814.851 1459.21 613.491
internal_weight=0 435 733 42 10 32
internal_count=1168 435 733 42 10 32
cat_boundaries=0 1
cat_threshold=4251776
is_linear=0
shrinkage=0.01


Tree=116
num_leaves=7
num_cat=1
split_feature=79 79 57 31 19 48
split_gain=4.37021e+11 1.29583e+11 1.03686e+11 4.8873e+10 4.85461e+10 4.47779e+10
threshold=2955.5000000000005 3602.0000000000005 0 1.5000000000000002 1984.5000000000002 2.5000000000000004
decision_type=2 2 9 2 2 2
left_child=2 4 -1 -3 -2 -5
right_child=1 3 -4 5 -6 -7
leaf_value=-18.045865304843431 -72.494183591573616 383.89174733662321 -241.0296213916231 715.2323987682887 267.99688637815302 1576.3090144455382
leaf_weight=477 56 46 372 44 166 6.9999999999999991
leaf_count=477 56 46 372 44 166 7
internal_value=0 315.333 -118.801 620.241 182.107 833.419
internal_weight=0 319 849 97 222 51
internal_count=1168 319 849 97 222 51
cat_boundaries=0 1
cat_threshold=10
is_linear=0
shrinkage=0.01


Tree=117
num_leaves=7
num_cat=1
split_feature=16 16 16 58 57 33
split_gain=4.34238e+11 1.50113e+11 6.76517e+10 6.6677e+10 4.6169e+10 3.94066e+10
threshold=7.5000000000000009 5.5000000000000009 8.5000000000000018 1998.5000000000002 0 151.00000000000003
decision_type=2 2 2 10 9 2
left_child=1 5 -2 -4 -3 -1
right_child=2 4 3 -5 -6 -7
leaf_value=-346.12031468082148 342.94049596508506 77.169777127323698 1884.4156739776902 654.07138618699435 -127.48583198428703 -148.6604945007777
leaf_weight=163 140 418 4.9999999999999991 37 139 266
leaf_count=163 140 418 5 37 139 266
internal_value=0 -83.0913 448.541 800.541 25.1944 -223.686
internal_weight=0 986 182 42 557 429
internal_count=1168 986 182 42 557 429
cat_boundaries=0 1
cat_threshold=10
is_linear=0
shrinkage=0.01


Tree=118
num_leaves=7
num_cat=0
split_feature=79 79 79 29 60 55
split_gain=4.22617e+11 1.7162e+11 6.95424e+10 5.81456e+10 5.34576e+10 6.15096e+10
threshold=2686.0000000000005 3602.0000000000005 1729.0000000000002 3.0000000000000004 2.5000000000000004 1.5000000000000002
decision_type=2 2 2 2 2 2
left_child=2 3 -1 -2 -3 -6
right_child=1 4 -4 -5 5 -7
leaf_value=-345.06592854313016 -63.264266578553524 304.43600769794227 -102.0250042743973 216.97483402947222 649.7551421266046 1507.4861422473934
leaf_weight=149 104 36 561 257 51 9.9999999999999982
leaf_count=149 104 36 561 257 51 10
internal_value=0 236.583 -153.029 136.241 610.021 790.367
internal_weight=0 458 710 361 97 61
internal_count=1168 458 710 361 97 61
is_linear=0
shrinkage=0.01


Tree=119
num_leaves=7
num_cat=0
split_feature=79 79 79 19 19 36
split_gain=4.14917e+11 1.13095e+11 1.05087e+11 4.31949e+10 4.14832e+10 5.07759e+10
threshold=3005.0000000000005 3726.5000000000005 2041.5000000000002 1984.5000000000002 1994.5000000000002 319.50000000000006
decision_type=2 2 2 2 2 2
left_child=2 3 -1 -2 -3 -6
right_child=1 4 -4 -5 5 -7
leaf_value=-255.03342919100925 -42.923813739885809 296.10261518793419 -26.867163315723847 288.58221715829649 1597.4996728818182 685.82382444987479
leaf_weight=315 52 23 562 161 6.9999999999999991 48
leaf_count=315 52 23 562 161 7 48
internal_value=0 326.949 -108.82 207.651 652.723 801.855
internal_weight=0 291 877 213 78 55
internal_count=1168 291 877 213 78 55
is_linear=0
shrinkage=0.01


Tree=120
num_leaves=7
num_cat=1
split_feature=11 37 59 60 19 37
split_gain=3.93675e+11 1.50978e+11 1.14962e+11 6.3042e+10 3.18694e+10 3.14434e+10
threshold=0 2109.5000000000005 1.5000000000000002 2.5000000000000004 1958.5000000000002 791.50000000000011
decision_type=9 2 2 2 2 2
left_child=1 3 4 5 -2 -1
right_child=2 -3 -4 -5 -6 -7
leaf_value=-85.497252831639855 -322.34689160193369 1686.9746690464838 20.558075390461372 505.55250865406236 -150.6541492084402 248.90782255990163
leaf_weight=35 162 7.9999999999999991 403 92 325 143
leaf_count=35 162 8 403 92 325 143
internal_value=0 321.556 -103.22 293.008 -207.768 183.154
internal_weight=0 278 890 270 487 178
internal_count=1168 278 890 270 487 178
cat_boundaries=0 1
cat_threshold=853036
is_linear=0
shrinkage=0.01


Tree=121
num_leaves=7
num_cat=0
split_feature=16 16 45 16 19 59
split_gain=4.06555e+11 1.31955e+11 6.24445e+10 6.23535e+10 6.0723e+10 4.07308e+10
threshold=6.5000000000000009 8.5000000000000018 1928.5000000000002 4.5000000000000009 1999.5000000000002 1.5000000000000002
decision_type=2 2 2 2 2 2
left_child=3 2 -2 -1 -3 -5
right_child=1 4 -4 5 -6 -7
leaf_value=-360.01066684858563 98.408574169017939 1809.0594788935196 368.49474302917019 -169.22811176474048 634.9312196513348 -2.952154764012938
leaf_weight=113 267 4.9999999999999991 126 379 37 241
leaf_count=113 267 5 126 379 37 241
internal_value=0 241.938 185.001 -143.97 774.708 -104.595
internal_weight=0 435 393 733 42 620
internal_count=1168 435 393 733 42 620
is_linear=0
shrinkage=0.01


Tree=122
num_leaves=7
num_cat=1
split_feature=11 29 59 48 61 62
split_gain=3.8121e+11 1.28674e+11 1.10285e+11 7.7238e+10 3.55397e+10 2.47082e+10
threshold=0 4.5000000000000009 1.5000000000000002 2.5000000000000004 424.50000000000006 3.0000000000000004
decision_type=9 2 2 2 2 2
left_child=1 -1 4 -3 -2 -6
right_child=2 3 -4 -5 5 -7
leaf_value=206.57443775085798 -274.68525331010852 603.11432153950068 19.657242693481173 1792.1980423496748 -118.74927969044799 593.26653091721562
leaf_weight=211 289 61 403 5.9999999999999991 193 4.9999999999999991
leaf_count=211 289 61 403 6 193 5
internal_value=0 316.425 -101.572 709.599 -203.976 -100.769
internal_weight=0 278 890 67 487 198
internal_count=1168 278 890 67 487 198
cat_boundaries=0 1
cat_threshold=853036
is_linear=0
shrinkage=0.01


Tree=123
num_leaves=7
num_cat=0
split_feature=79 79 79 52 60 79
split_gain=3.90612e+11 1.58737e+11 6.54843e+10 6.22119e+10 4.93719e+10 4.9113e+10
threshold=2686.0000000000005 3602.0000000000005 1729.0000000000002 3.0000000000000004 2.5000000000000004 4118.0000000000009
decision_type=2 2 2 2 2 2
left_child=2 3 -1 -2 -3 -6
right_child=1 4 -4 -5 5 -7
leaf_value=-333.46732092417261 -57.43594552514849 292.92452753243083 -97.62428236808195 222.42740579180804 561.73821828042253 1166.1823081986406
leaf_weight=149 118 36 561 243 41 20
leaf_count=149 118 36 561 243 41 20
internal_value=0 227.451 -147.118 130.949 586.6 759.917
internal_weight=0 458 710 361 97 61
internal_count=1168 458 710 361 97 61
is_linear=0
shrinkage=0.01


Tree=124
num_leaves=7
num_cat=1
split_feature=16 16 16 58 60 40
split_gain=3.86443e+11 1.35988e+11 5.9839e+10 6.29452e+10 4.0818e+10 3.71059e+10
threshold=7.5000000000000009 5.5000000000000009 8.5000000000000018 1998.5000000000002 1.5000000000000002 0
decision_type=2 2 2 10 2 1
left_child=1 5 -2 -4 -3 -1
right_child=2 4 3 -5 -6 -7
leaf_value=-175.43120618242574 323.81970105726828 -152.93329136558125 1807.2942601488683 611.87532109130734 65.938525341448198 -447.41867727233921
leaf_weight=371 140 105 4.9999999999999991 37 452 58
leaf_count=371 140 105 5 37 452 58
internal_value=0 -78.3865 423.135 754.187 24.679 -212.203
internal_weight=0 986 182 42 557 429
internal_count=1168 986 182 42 557 429
cat_boundaries=0 1
cat_threshold=1
is_linear=0
shrinkage=0.01


Tree=125
num_leaves=7
num_cat=0
split_feature=79 79 79 60 55 2
split_gain=3.77594e+11 1.53619e+11 6.34917e+10 4.77339e+10 5.72202e+10 4.71365e+10
