tree
version=v3
num_class=10
num_tree_per_iteration=10
label_index=0
max_feature_idx=783
objective=multiclass num_class:10
feature_names=pixel0 pixel1 pixel2 pixel3 pixel4 pixel5 pixel6 pixel7 pixel8 pixel9 pixel10 pixel11 pixel12 pixel13 pixel14 pixel15 pixel16 pixel17 pixel18 pixel19 pixel20 pixel21 pixel22 pixel23 pixel24 pixel25 pixel26 pixel27 pixel28 pixel29 pixel30 pixel31 pixel32 pixel33 pixel34 pixel35 pixel36 pixel37 pixel38 pixel39 pixel40 pixel41 pixel42 pixel43 pixel44 pixel45 pixel46 pixel47 pixel48 pixel49 pixel50 pixel51 pixel52 pixel53 pixel54 pixel55 pixel56 pixel57 pixel58 pixel59 pixel60 pixel61 pixel62 pixel63 pixel64 pixel65 pixel66 pixel67 pixel68 pixel69 pixel70 pixel71 pixel72 pixel73 pixel74 pixel75 pixel76 pixel77 pixel78 pixel79 pixel80 pixel81 pixel82 pixel83 pixel84 pixel85 pixel86 pixel87 pixel88 pixel89 pixel90 pixel91 pixel92 pixel93 pixel94 pixel95 pixel96 pixel97 pixel98 pixel99 pixel100 pixel101 pixel102 pixel103 pixel104 pixel105 pixel106 pixel107 pixel108 pixel109 pixel110 pixel111 pixel112 pixel113 pixel114 pixel115 pixel116 pixel117 pixel118 pixel119 pixel120 pixel121 pixel122 pixel123 pixel124 pixel125 pixel126 pixel127 pixel128 pixel129 pixel130 pixel131 pixel132 pixel133 pixel134 pixel135 pixel136 pixel137 pixel138 pixel139 pixel140 pixel141 pixel142 pixel143 pixel144 pixel145 pixel146 pixel147 pixel148 pixel149 pixel150 pixel151 pixel152 pixel153 pixel154 pixel155 pixel156 pixel157 pixel158 pixel159 pixel160 pixel161 pixel162 pixel163 pixel164 pixel165 pixel166 pixel167 pixel168 pixel169 pixel170 pixel171 pixel172 pixel173 pixel174 pixel175 pixel176 pixel177 pixel178 pixel179 pixel180 pixel181 pixel182 pixel183 pixel184 pixel185 pixel186 pixel187 pixel188 pixel189 pixel190 pixel191 pixel192 pixel193 pixel194 pixel195 pixel196 pixel197 pixel198 pixel199 pixel200 pixel201 pixel202 pixel203 pixel204 pixel205 pixel206 pixel207 pixel208 pixel209 pixel210 pixel211 pixel212 pixel213 pixel214 pixel215 pixel216 pixel217 pixel218 pixel219 pixel220 pixel221 pixel222 pixel223 pixel224 pixel225 pixel226 pixel227 pixel228 pixel229 pixel230 pixel231 pixel232 pixel233 pixel234 pixel235 pixel236 pixel237 pixel238 pixel239 pixel240 pixel241 pixel242 pixel243 pixel244 pixel245 pixel246 pixel247 pixel248 pixel249 pixel250 pixel251 pixel252 pixel253 pixel254 pixel255 pixel256 pixel257 pixel258 pixel259 pixel260 pixel261 pixel262 pixel263 pixel264 pixel265 pixel266 pixel267 pixel268 pixel269 pixel270 pixel271 pixel272 pixel273 pixel274 pixel275 pixel276 pixel277 pixel278 pixel279 pixel280 pixel281 pixel282 pixel283 pixel284 pixel285 pixel286 pixel287 pixel288 pixel289 pixel290 pixel291 pixel292 pixel293 pixel294 pixel295 pixel296 pixel297 pixel298 pixel299 pixel300 pixel301 pixel302 pixel303 pixel304 pixel305 pixel306 pixel307 pixel308 pixel309 pixel310 pixel311 pixel312 pixel313 pixel314 pixel315 pixel316 pixel317 pixel318 pixel319 pixel320 pixel321 pixel322 pixel323 pixel324 pixel325 pixel326 pixel327 pixel328 pixel329 pixel330 pixel331 pixel332 pixel333 pixel334 pixel335 pixel336 pixel337 pixel338 pixel339 pixel340 pixel341 pixel342 pixel343 pixel344 pixel345 pixel346 pixel347 pixel348 pixel349 pixel350 pixel351 pixel352 pixel353 pixel354 pixel355 pixel356 pixel357 pixel358 pixel359 pixel360 pixel361 pixel362 pixel363 pixel364 pixel365 pixel366 pixel367 pixel368 pixel369 pixel370 pixel371 pixel372 pixel373 pixel374 pixel375 pixel376 pixel377 pixel378 pixel379 pixel380 pixel381 pixel382 pixel383 pixel384 pixel385 pixel386 pixel387 pixel388 pixel389 pixel390 pixel391 pixel392 pixel393 pixel394 pixel395 pixel396 pixel397 pixel398 pixel399 pixel400 pixel401 pixel402 pixel403 pixel404 pixel405 pixel406 pixel407 pixel408 pixel409 pixel410 pixel411 pixel412 pixel413 pixel414 pixel415 pixel416 pixel417 pixel418 pixel419 pixel420 pixel421 pixel422 pixel423 pixel424 pixel425 pixel426 pixel427 pixel428 pixel429 pixel430 pixel431 pixel432 pixel433 pixel434 pixel435 pixel436 pixel437 pixel438 pixel439 pixel440 pixel441 pixel442 pixel443 pixel444 pixel445 pixel446 pixel447 pixel448 pixel449 pixel450 pixel451 pixel452 pixel453 pixel454 pixel455 pixel456 pixel457 pixel458 pixel459 pixel460 pixel461 pixel462 pixel463 pixel464 pixel465 pixel466 pixel467 pixel468 pixel469 pixel470 pixel471 pixel472 pixel473 pixel474 pixel475 pixel476 pixel477 pixel478 pixel479 pixel480 pixel481 pixel482 pixel483 pixel484 pixel485 pixel486 pixel487 pixel488 pixel489 pixel490 pixel491 pixel492 pixel493 pixel494 pixel495 pixel496 pixel497 pixel498 pixel499 pixel500 pixel501 pixel502 pixel503 pixel504 pixel505 pixel506 pixel507 pixel508 pixel509 pixel510 pixel511 pixel512 pixel513 pixel514 pixel515 pixel516 pixel517 pixel518 pixel519 pixel520 pixel521 pixel522 pixel523 pixel524 pixel525 pixel526 pixel527 pixel528 pixel529 pixel530 pixel531 pixel532 pixel533 pixel534 pixel535 pixel536 pixel537 pixel538 pixel539 pixel540 pixel541 pixel542 pixel543 pixel544 pixel545 pixel546 pixel547 pixel548 pixel549 pixel550 pixel551 pixel552 pixel553 pixel554 pixel555 pixel556 pixel557 pixel558 pixel559 pixel560 pixel561 pixel562 pixel563 pixel564 pixel565 pixel566 pixel567 pixel568 pixel569 pixel570 pixel571 pixel572 pixel573 pixel574 pixel575 pixel576 pixel577 pixel578 pixel579 pixel580 pixel581 pixel582 pixel583 pixel584 pixel585 pixel586 pixel587 pixel588 pixel589 pixel590 pixel591 pixel592 pixel593 pixel594 pixel595 pixel596 pixel597 pixel598 pixel599 pixel600 pixel601 pixel602 pixel603 pixel604 pixel605 pixel606 pixel607 pixel608 pixel609 pixel610 pixel611 pixel612 pixel613 pixel614 pixel615 pixel616 pixel617 pixel618 pixel619 pixel620 pixel621 pixel622 pixel623 pixel624 pixel625 pixel626 pixel627 pixel628 pixel629 pixel630 pixel631 pixel632 pixel633 pixel634 pixel635 pixel636 pixel637 pixel638 pixel639 pixel640 pixel641 pixel642 pixel643 pixel644 pixel645 pixel646 pixel647 pixel648 pixel649 pixel650 pixel651 pixel652 pixel653 pixel654 pixel655 pixel656 pixel657 pixel658 pixel659 pixel660 pixel661 pixel662 pixel663 pixel664 pixel665 pixel666 pixel667 pixel668 pixel669 pixel670 pixel671 pixel672 pixel673 pixel674 pixel675 pixel676 pixel677 pixel678 pixel679 pixel680 pixel681 pixel682 pixel683 pixel684 pixel685 pixel686 pixel687 pixel688 pixel689 pixel690 pixel691 pixel692 pixel693 pixel694 pixel695 pixel696 pixel697 pixel698 pixel699 pixel700 pixel701 pixel702 pixel703 pixel704 pixel705 pixel706 pixel707 pixel708 pixel709 pixel710 pixel711 pixel712 pixel713 pixel714 pixel715 pixel716 pixel717 pixel718 pixel719 pixel720 pixel721 pixel722 pixel723 pixel724 pixel725 pixel726 pixel727 pixel728 pixel729 pixel730 pixel731 pixel732 pixel733 pixel734 pixel735 pixel736 pixel737 pixel738 pixel739 pixel740 pixel741 pixel742 pixel743 pixel744 pixel745 pixel746 pixel747 pixel748 pixel749 pixel750 pixel751 pixel752 pixel753 pixel754 pixel755 pixel756 pixel757 pixel758 pixel759 pixel760 pixel761 pixel762 pixel763 pixel764 pixel765 pixel766 pixel767 pixel768 pixel769 pixel770 pixel771 pixel772 pixel773 pixel774 pixel775 pixel776 pixel777 pixel778 pixel779 pixel780 pixel781 pixel782 pixel783
feature_infos=none none none none none none none none none none none none [0:116] [0:254] [0:216] [0:9] none none none none none none none none none none none none none none none none [0:16] [0:47] [0:157] [0:254] [0:255] [0:243] [0:255] [0:255] [0:255] [0:255] [0:255] [0:255] [0:255] [0:255] [0:255] [0:255] [0:244] [0:255] [0:184] [0:197] none none none none none none [0:64] [0:29] [0:134] [0:128] [0:234] [0:255] [0:255] [0:255] [0:255] [0:255] [0:255] [0:255] [0:255] [0:255] [0:255] [0:255] [0:255] [0:255] [0:255] [0:255] [0:255] [0:255] [0:255] [0:165] none none none none [0:141] [0:84] [0:139] [0:255] [0:255] [0:255] [0:255] [0:255] [0:255] [0:255] [0:255] [0:255] [0:255] [0:255] [0:255] [0:255] [0:255] [0:255] [0:255] [0:255] [0:255] [0:255] [0:255] [0:164] [0:121] none none [0:38] [0:51] [0:114] [0:226] [0:255] [0:255] [0:255] [0:255] [0:255] [0:255] [0:255] [0:255] [0:255] [0:255] [0:255] [0:255] [0:255] [0:255] [0:255] [0:255] [0:255] [0:255] [0:255] [0:255] [0:254] [0:230] none none none [0:95] [0:255] [0:255] [0:255] [0:255] [0:255] [0:255] [0:255] [0:255] [0:255] [0:255] [0:255] [0:255] [0:255] [0:255] [0:255] [0:255] [0:255] [0:255] [0:255] [0:255] [0:255] [0:255] [0:255] [0:253] [0:18] none [0:4] [0:177] [0:255] [0:255] [0:255] [0:255] [0:255] [0:255] [0:255] [0:255] [0:255] [0:255] [0:255] [0:255] [0:255] [0:255] [0:255] [0:255] [0:255] [0:255] [0:255] [0:255] [0:255] [0:255] [0:255] [0:254] [0:253] none [0:128] [0:254] [0:255] [0:255] [0:255] [0:255] [0:255] [0:255] [0:255] [0:255] [0:255] [0:255] [0:255] [0:255] [0:255] [0:255] [0:255] [0:255] [0:255] [0:255] [0:255] [0:255] [0:255] [0:255] [0:255] [0:255] [0:196] [0:53] [0:255] [0:255] [0:255] [0:255] [0:255] [0:255] [0:255] [0:255] [0:255] [0:255] [0:255] [0:255] [0:255] [0:255] [0:255] [0:255] [0:255] [0:255] [0:255] [0:255] [0:255] [0:255] [0:255] [0:255] [0:255] [0:254] [0:190] [0:184] [0:254] [0:255] [0:255] [0:255] [0:255] [0:255] [0:255] [0:255] [0:255] [0:255] [0:255] [0:255] [0:255] [0:255] [0:255] [0:255] [0:255] [0:255] [0:255] [0:255] [0:255] [0:255] [0:255] [0:255] [0:255] [0:254] [0:220] [0:226] [0:255] [0:255] [0:255] [0:255] [0:255] [0:255] [0:255] [0:255] [0:255] [0:255] [0:255] [0:255] [0:255] [0:255] [0:255] [0:255] [0:255] [0:255] [0:255] [0:255] [0:255] [0:255] [0:255] [0:255] [0:255] [0:254] [0:243] [0:150] [0:254] [0:255] [0:255] [0:255] [0:255] [0:255] [0:255] [0:255] [0:255] [0:255] [0:255] [0:255] [0:255] [0:255] [0:255] [0:255] [0:255] [0:255] [0:255] [0:255] [0:255] [0:255] [0:255] [0:255] [0:255] [0:253] [0:112] [0:163] [0:255] [0:255] [0:255] [0:255] [0:255] [0:255] [0:255] [0:255] [0:255] [0:255] [0:255] [0:255] [0:255] [0:255] [0:255] [0:255] [0:255] [0:255] [0:255] [0:255] [0:255] [0:255] [0:255] [0:255] [0:255] [0:252] [0:110] [0:32] [0:253] [0:255] [0:255] [0:255] [0:255] [0:255] [0:255] [0:255] [0:255] [0:255] [0:255] [0:255] [0:255] [0:255] [0:255] [0:255] [0:255] [0:255] [0:255] [0:255] [0:255] [0:255] [0:255] [0:255] [0:255] [0:252] [0:247] none [0:188] [0:254] [0:255] [0:255] [0:255] [0:255] [0:255] [0:255] [0:255] [0:255] [0:255] [0:255] [0:255] [0:255] [0:255] [0:255] [0:255] [0:255] [0:255] [0:255] [0:255] [0:255] [0:255] [0:255] [0:255] [0:209] [0:51] none none [0:254] [0:255] [0:255] [0:255] [0:255] [0:255] [0:255] [0:255] [0:255] [0:255] [0:255] [0:255] [0:255] [0:255] [0:255] [0:255] [0:255] [0:255] [0:255] [0:255] [0:255] [0:255] [0:255] [0:255] [0:255] [0:190] none [0:47] [0:254] [0:255] [0:255] [0:255] [0:255] [0:255] [0:255] [0:255] [0:255] [0:255] [0:255] [0:255] [0:255] [0:255] [0:255] [0:255] [0:255] [0:255] [0:255] [0:255] [0:255] [0:255] [0:255] [0:255] [0:254] [0:223] none [0:71] [0:254] [0:255] [0:255] [0:255] [0:255] [0:255] [0:255] [0:255] [0:255] [0:255] [0:255] [0:255] [0:255] [0:255] [0:255] [0:255] [0:255] [0:255] [0:255] [0:255] [0:255] [0:255] [0:255] [0:255] [0:253] [0:121] [0:60] [0:126] [0:255] [0:255] [0:255] [0:255] [0:255] [0:255] [0:255] [0:255] [0:255] [0:255] [0:255] [0:255] [0:255] [0:255] [0:255] [0:255] [0:255] [0:255] [0:255] [0:255] [0:255] [0:255] [0:255] [0:255] [0:255] [0:151] none [0:255] [0:255] [0:255] [0:255] [0:255] [0:255] [0:255] [0:255] [0:255] [0:255] [0:255] [0:255] [0:255] [0:255] [0:255] [0:255] [0:255] [0:255] [0:255] [0:255] [0:255] [0:255] [0:255] [0:255] [0:255] [0:253] [0:128] none [0:178] [0:255] [0:255] [0:255] [0:255] [0:255] [0:255] [0:255] [0:255] [0:255] [0:255] [0:255] [0:255] [0:255] [0:255] [0:255] [0:255] [0:255] [0:255] [0:255] [0:255] [0:255] [0:255] [0:255] [0:255] [0:255] [0:50] [0:32] [0:107] [0:255] [0:255] [0:255] [0:255] [0:255] [0:255] [0:255] [0:255] [0:255] [0:255] [0:255] [0:255] [0:255] [0:255] [0:255] [0:255] [0:255] [0:255] [0:255] [0:255] [0:255] [0:255] [0:255] [0:255] [0:251] [0:39] [0:31] [0:10] [0:255] [0:255] [0:255] [0:255] [0:255] [0:255] [0:255] [0:255] [0:255] [0:255] [0:255] [0:255] [0:255] [0:255] [0:255] [0:255] [0:255] [0:255] [0:255] [0:255] [0:255] [0:255] [0:255] [0:253] [0:225] [0:72] none none [0:217] [0:255] [0:255] [0:255] [0:255] [0:255] [0:255] [0:255] [0:255] [0:255] [0:255] [0:255] [0:255] [0:255] [0:255] [0:255] [0:255] [0:255] [0:255] [0:255] [0:255] [0:255] [0:255] [0:241] [0:150] none none none [0:253] [0:253] [0:255] [0:255] [0:255] [0:255] [0:255] [0:255] [0:255] [0:255] [0:255] [0:255] [0:255] [0:255] [0:255] [0:255] [0:255] [0:255] [0:255] [0:255] [0:255] [0:255] [0:254] [0:241] [0:98] none none none [0:42] [0:254] [0:255] [0:255] [0:255] [0:255] [0:255] [0:255] [0:255] [0:255] [0:255] [0:255] [0:255] [0:255] [0:255] [0:255] [0:255] [0:255] [0:255] [0:255] [0:255] [0:255] [0:196] [0:127] [0:104] none none none none none [0:255] [0:255] [0:255] [0:255] [0:255] [0:255] [0:255] [0:255] [0:255] [0:255] [0:255] [0:255] [0:255] [0:255] [0:255] [0:255] [0:255] [0:255] [0:255] [0:253] [0:28] [0:59] none none none none none none none [0:177] [0:231] [0:253] [0:254] [0:254] [0:255] [0:255] [0:255] [0:255] [0:255] [0:255] [0:255] [0:255] [0:254] [0:254] [0:253] [0:253] [0:254] [0:62] none none none none
tree_sizes=672 674 668 672 667 665 665 669 664 667 669 672 669 670 674 669 665 680 669 685 677 683 669 672 673 667 667 681 672 674 679 678 679 672 674 679 675 680 674 672 669 678 677 674 667 683 673 675 672 677 674 680 673 663 669 668 671 674 681 676 673 682 672 675 673 669 669 671 676 680 675 668 675 668 673 675 667 682 673 671 680 677 675 672 667 680 665 678 673 681 669 678 675 673 672 675 671 673 678 678 666 678 679 666 670 675 674 684 675 674 678 682 675 674 675 676 674 680 679 676 674 674 676 672 681 673 675 682 679 680 675 685 676 679 674 677 671 672 678 678 676 678 670 676 669 682 673 679 674 680 686 679 674 673 679 683 674 675 680 675 676 679 678 678 675 671 670 676 677 672 677 675 669 674 676 674 682 686 672 678 671 677 678 673 677 678 678 681 681 688 675 680 674 688 685 670 678 679 679 683 672 676 674 679 673 675 676 683 684 680 671 674 671 673 671 672 679 679 685 675 675 677 676 692 677 676 682 674 676 680 682 687 684 674 681 679 678 672 669 685 674 683 684 678 676 680 684 686 676 672 682 686 680 678 680 673 683 675 679 672 677 683 673 675 678 673 673 685 680 679 672 671 680 672 676 682 682 680 683 676 676 677 675 677 680 675 679 679 680 685 675 689 675 674 675 674 677 681 677 675 675 684 671 670 673 678 678 683 673 682 672 681 674 678 672 686 685 681 673 674 673 678 679 674 675 684 681 669 675 678 676 680 677 682 679 674 679 682 681 680 673 678 671 674 682 674 678 681 677 675 682 683 676 677 672 678 679 673 675 678 672 689 674 670 673 678 682 686 674 682 675 679 674 680 677 678 680 675 674 676 674 688 674 675 670 681 673 684 672 672 674 678 679 680 681 673 673 680 672 682 675 686 675 677 675 674 679 679 678 675 676 682 679 674 685 681 684 683 678 674 676 680 676 675 672 678 680 673 677 674 675 687 670 674 680 674 677 677 667 679 677 683 679 677 676 674 679 681 678 679 675 679 680 676 676 674 674 675 674 676 672 683 677 682 679 679 678 670 671 675 679 676 676 683 671 672 675 674 681 686 676 677 673 674 683 674 682 680 681 679 676 680 680 671 681 675 679 676 673 686 676 679 675 677 678 672 670 678 671 683 669 683 674 675 673 673 682 680 680 678 673 675 678 677 688 681 680 677 678 686 680 679 676 675 681 679 680 680 675 677 677 678 676 673 677 675 676 676 679 678 676 681 676 660 679 678 679 679 677 676 680 678 676 675 679 678 675 677 677 674 677 678 673 675 674 669 673 657 675 679 675 681 674 680 678 676 684 682 675 677 676 676 675 676 678 677 656 677 676 678 674 678 677 672 684 679 675 680 686 674 686 676 676 678 675 676 679 680 675 672 681 679 675 674 682 670 684 684 675 680 677 683 680 677 681 672 670 680 672 673 678 676 678 678 677 680 673 675 676 684 676 680 677 677 678 675 674 683 673 679 676 679 676 674 689 670 674 676 672 672 672 680 676 674 674 674 673 673 673 679 678 682 678 678 677 680 676 677 680 676 670 680 673 678 676 676 681 673 678 674 685 686 671 676 679 676 682 680 675 681 675 683 681 670 683 677 673 676 673 675 675 679 675 674 671 670 679 678 674 678 672 678 680 679 680 673 675 676 674 672 675 681 678 675 686 682 673 675 682 669 683 677 679 672 676 678 675 678 678 677 679 673 674 671 677 671 681 679 675 687 680 680 679 681 675 680 675 682 678 679 674 677 676 671 677 670 681 674 672 675 674 680 677 669 677 677 675 679 676 686 679 684 683 676 677 675 677 682 677 676 674 675 683 677 681 673 677 674 678 673 674 681 673 675 675 677 677 677 676 673 680 681 680 676 680 676 676 685 678 674 683 675 676 676 681 668 677 672 676 676 668 675 676 676 684 679 676 676 682 678 680 678 676 667 682 672 675 681 678 680 681 679 672 676 683 674 681 674 684 671 678 681 669 678 676 680 680 679 672 670 682 672 678 675 670 675 677 677 674 677 681 675 674 674 673 675 677 677 678 680 675 672 653 677 677 673 678 680 669 679 680 675 675 676 681 675 673 674 676 685 672 676 671 674 676 674 676 673 677 679 679 682 672 673 680 671 675 677 666 672 674 682 681 674 675 674 681 676 674 689 674 676 683 676 674 677 673 680 670 676 678 674 674 677 681 678 681 675 674 678 674 687 672 677 678 680 677 678 678 682 683 677 674 675 680 680 677 674 677 679

Tree=0
num_leaves=5
num_cat=0
split_feature=386 408 434 456
split_gain=8470.26 6040.35 1080.77 2042.05
threshold=34.500000000000007 1.0000000180025095e-35 1.0000000180025095e-35 65.500000000000014
decision_type=2 2 2 2
left_child=2 -2 3 -1
right_child=1 -3 -4 -5
leaf_value=-2.3757262170434363 -1.6069635621734335 -2.3790783960171917 -2.4177343643068085 -2.0054171993946643
leaf_weight=573.12025672197342 262.71296499669552 164.46659361571074 2110.2768737450242 200.43442265689373
leaf_count=5816 2666 1669 21415 2034
internal_value=-2.31909 -1.90388 -2.38068 -2.2796
internal_weight=0 427.18 2883.83 773.555
internal_count=33600 4335 29265 7850
is_linear=0
shrinkage=1


Tree=1
num_leaves=5
num_cat=0
split_feature=350 347 550 206
split_gain=5287.15 8073.87 4826.76 1534.15
threshold=168.50000000000003 1.0000000180025095e-35 1.0000000180025095e-35 1.0000000180025095e-35
decision_type=2 2 2 2
left_child=-1 2 3 -2
right_child=1 -3 -4 -5
leaf_value=-2.274635735519654 -1.5064825209586878 -2.2641300429113769 -2.2572134185597217 -2.183817314738413
leaf_weight=2533.9575342163444 374.08818270266056 620.03079605102539 134.20055759698153 36.770292237401009
leaf_count=23017 3398 5632 1219 334
internal_value=-2.19357 -2.01732 -1.7368 -1.56696
internal_weight=0 1165.09 545.059 410.858
internal_count=33600 10583 4951 3732
is_linear=0
shrinkage=1


Tree=2
num_leaves=5
num_cat=0
split_feature=582 442 528 659
split_gain=3431.22 2748.96 1547.45 1490.32
threshold=4.5000000000000009 1.0000000180025095e-35 21.500000000000004 127.50000000000001
decision_type=2 2 2 2
left_child=2 3 -1 -2
right_child=1 -3 -4 -5
leaf_value=-2.3483488388188092 -1.5999816884823055 -2.3562366718107168 -1.6407651387127145 -2.2405488709999766
leaf_weight=2991.4771272689104 144.70715759694576 128.58435186743736 30.553712092339993 48.666987664997578
leaf_count=30058 1454 1292 307 489
internal_value=-2.30796 -1.99797 -2.34104 -1.76035
internal_weight=0 321.958 3022.03 193.374
internal_count=33600 3235 30365 1943
is_linear=0
shrinkage=1


Tree=3
num_leaves=5
num_cat=0
split_feature=151 515 351 290
split_gain=2957.11 3205.41 2941.11 1546.71
threshold=24.500000000000004 1.0000000180025095e-35 1.0000000180025095e-35 76.500000000000014
decision_type=2 2 2 2
left_child=-1 2 -2 -4
right_child=1 -3 3 -5
leaf_value=-2.3209234879447047 -2.2825244666058953 -2.3154658644873067 -1.6326215298985605 -2.1585457958663867
leaf_weight=2590.7072733789682 158.90744417905807 403.56299622356892 240.63127261400223 73.262522965669632
leaf_count=25107 1540 3911 2332 710
internal_value=-2.26721 -2.10849 -1.93198 -1.75484
internal_weight=0 876.364 472.801 313.894
internal_count=33600 8493 4582 3042
is_linear=0
shrinkage=1


Tree=4
num_leaves=5
num_cat=0
split_feature=211 400 569 267
split_gain=3523.39 3941.16 3365.73 1790.2
threshold=1.0000000180025095e-35 7.5000000000000009 1.0000000180025095e-35 106.50000000000001
decision_type=2 2 2 2
left_child=1 -1 3 -3
right_child=-2 2 -4 -5
leaf_value=-2.35894582310328 -2.3994517896199565 -1.650979228644841 -2.3450300453015345 -2.3581610600340759
leaf_weight=508.93105375766754 2327.3063920736313 247.70377802848816 143.31015908718109 41.73798930644989
leaf_count=5231 23921 2546 1473 429
internal_value=-2.33341 -2.17027 -1.94867 -1.75281
internal_weight=0 941.683 432.752 289.442
internal_count=33600 9679 4448 2975
is_linear=0
shrinkage=1


Tree=5
num_leaves=5
num_cat=0
split_feature=220 328 347 298
split_gain=3666.02 2787.72 925.692 1028.62
threshold=3.5000000000000004 1.5000000000000002 62.500000000000007 1.5000000000000002
decision_type=2 2 2 2
left_child=2 -2 -1 -4
right_child=1 -3 3 -5
leaf_value=-2.4770046404322406 -1.5869888642547108 -2.4298140187235808 -2.2603674153531319 -2.446289324405885
leaf_weight=1707.5082599818707 93.060433059930801 67.398036897182465 541.28477600216866 659.27700319886208
leaf_count=18697 1019 738 5927 7219
internal_value=-2.40399 -1.93969 -2.42971 -2.36244
internal_weight=0 160.458 2908.07 1200.56
internal_count=33600 1757 31843 13146
is_linear=0
shrinkage=1


Tree=6
num_leaves=5
num_cat=0
split_feature=100 242 69 102
split_gain=7262.34 3722.73 3617.8 3134.46
threshold=1.5000000000000002 2.5000000000000004 1.5000000000000002 1.0000000180025095e-35
decision_type=2 2 2 2
left_child=2 -2 3 -1
right_child=1 -3 -4 -5
leaf_value=-2.3901370890069558 -1.5858128650217376 -2.3702592494249775 -1.4714454897152009 -1.6370410095078709
leaf_weight=2935.180275708437 192.51451347768307 87.919237062335014 44.206305503845215 55.652581036090851
leaf_count=29746 1951 891 448 564
internal_value=-2.31758 -1.83132 -2.36261 -2.37597
internal_weight=0 280.434 3035.04 2990.83
internal_count=33600 2842 30758 30310
is_linear=0
shrinkage=1


Tree=7
num_leaves=5
num_cat=0
split_feature=712 431 708 743
split_gain=5062.37 4483.97 2606.97 2677.74
threshold=2.5000000000000004 1.0000000180025095e-35 13.500000000000002 1.5000000000000002
decision_type=2 2 2 2
left_child=2 -2 3 -1
right_child=1 -3 -4 -5
leaf_value=-2.3309417363848155 -1.6045179115682235 -2.2858093664637975 -1.7810188955079891 -1.7774837596121722
leaf_weight=2930.5318590626121 210.76064090430737 177.71854240447283 93.810374289751053 89.432556822896004
leaf_count=28115 2022 1705 900 858
internal_value=-2.25578 -1.91573 -2.29827 -2.31445
internal_weight=0 388.479 3113.77 3019.96
internal_count=33600 3727 29873 28973
is_linear=0
shrinkage=1


Tree=8
num_leaves=5
num_cat=0
split_feature=376 488 658 266
split_gain=1891.7 3028.7 3651.21 1131.25
threshold=130.50000000000003 6.5000000000000009 1.0000000180025095e-35 170.50000000000003
decision_type=2 2 2 2
left_child=-1 -2 -3 -4
right_child=1 2 3 -5
leaf_value=-2.3900496622772449 -2.3692113355636275 -2.326241548386796 -1.607160634331255 -2.0753107010711047
leaf_weight=2165.6169217228889 640.03551931679249 219.49344898760319 158.62551775574684 78.050744354724884
leaf_count=22308 6593 2261 1634 804
internal_value=-2.33587 -2.22887 -2.03218 -1.76032
internal_weight=0 1096.21 456.17 236.676
internal_count=33600 11292 4699 2438
is_linear=0
shrinkage=1


Tree=9
num_leaves=5
num_cat=0
split_feature=156 211 345 597
split_gain=2426.41 3266.19 2781.82 2869.38
threshold=1.0000000180025095e-35 102.50000000000001 5.5000000000000009 11.500000000000002
decision_type=2 2 2 2
left_child=1 -1 -3 -4
right_child=-2 2 3 -5
leaf_value=-2.3568745657185373 -2.3916076330562195 -2.280107366415991 -1.759282268641218 -2.3290196693655658
leaf_weight=868.19621667265892 1656.6041538119316 376.10200265049934 329.62532982230186 120.58003744482994
leaf_count=8705 16610 3771 3305 1209
internal_value=-2.30557 -2.22145 -2.07922 -1.91171
internal_weight=0 1694.5 826.307 450.205
internal_count=33600 16990 8285 4514
is_linear=0
shrinkage=1


Tree=10
num_leaves=5
num_cat=0
split_feature=408 462 351 184
split_gain=5327.9 4022.94 2064.82 1143.45
threshold=1.0000000180025095e-35 2.5000000000000004 11.500000000000002 1.0000000180025095e-35
decision_type=2 2 2 2
left_child=1 2 3 -1
right_child=-2 -3 -4 -5
leaf_value=0.11836407041500668 -0.090254923463238795 -0.084399225953572674 0.015864640881785529 0.48455297795109997
leaf_weight=106.50222045183182 2206.2947567105293 378.2761378288269 171.83586280792952 439.58924134075642
leaf_count=901 24274 3991 1525 2909
internal_value=0 0.179401 0.318361 0.41339
internal_weight=0 1096.2 717.927 546.091
internal_count=33600 9326 5335 3810
is_linear=0
shrinkage=0.1


Tree=11
num_leaves=5
num_cat=0
split_feature=437 406 262 512
split_gain=4379.17 4482.21 1962.28 939.335
threshold=1.0000000180025095e-35 237.50000000000003 1.0000000180025095e-35 30.500000000000004
decision_type=2 2 2 2
left_child=1 -1 3 -3
right_child=-2 2 -4 -5
leaf_value=-0.05604431383747286 -0.089916437942146168 0.4036750648017271 -0.060337009331422768 0.016118604715970427
leaf_weight=679.80508402734995 2208.4814263433218 595.42606095969677 130.78830445557833 69.994223743677139
leaf_count=6571 21503 3674 1276 576
internal_value=0 0.13252 0.293441 0.362982
internal_weight=0 1476.01 796.209 665.42
internal_count=33600 12097 5526 4250
is_linear=0
shrinkage=0.1


Tree=12
num_leaves=5
num_cat=0
split_feature=124 318 487 556
split_gain=2691.62 2378.63 1784.14 774.928
threshold=2.5000000000000004 1.0000000180025095e-35 2.5000000000000004 7.5000000000000009
decision_type=2 2 2 2
left_child=3 2 -2 -1
right_child=1 -3 -4 -5
leaf_value=-0.05177705016279336 0.092273601905572405 -0.047732543081290463 0.53131817517741442 0.30837135680518546
leaf_weight=2608.854015879333 161.61143434792757 260.51119020581245 217.20267159491777 60.47146113216877
leaf_count=27173 1612 2694 1695 426
internal_value=0 0.184798 0.344536 -0.0435384
internal_weight=0 639.325 378.814 2669.33
internal_count=33600 6001 3307 27599
is_linear=0
shrinkage=0.1


Tree=13
num_leaves=5
num_cat=0
split_feature=349 489 290 458
split_gain=2407.39 2453.12 1476.27 819.772
threshold=152.50000000000003 1.0000000180025095e-35 25.500000000000004 109.50000000000001
decision_type=2 2 2 2
left_child=-1 2 3 -2
right_child=1 -3 -4 -5
leaf_value=-0.055339243124331007 0.43269124542728482 -0.055007246232519819 0.040973334823315048 0.061018272787185607
leaf_weight=2378.7291801869869 332.19825174659491 437.66278816014528 213.07974976301193 72.594402700662613
leaf_count=24051 2426 4408 2041 674
internal_value=0 0.126073 0.254275 0.366274
internal_weight=0 1055.54 617.872 404.793
internal_count=33600 9549 5141 3100
is_linear=0
shrinkage=0.1


Tree=14
num_leaves=5
num_cat=0
split_feature=598 238 155 544
split_gain=1915.65 2791.15 1389.62 1140.03
threshold=1.0000000180025095e-35 5.5000000000000009 19.500000000000004 169.50000000000003
decision_type=2 2 2 2
left_child=1 2 3 -1
right_child=-2 -3 -4 -5
leaf_value=0.40041272920237542 -0.073159391148003655 -0.029849174515662304 -0.028176151301697025 0.0062947101587719108
leaf_weight=387.94836561381817 1702.4494029134512 922.01817855983973 143.94347927719355 90.574104838073254
leaf_count=2860 18423 10085 1455 777
internal_value=0 0.0806117 0.244101 0.32595
internal_weight=0 1544.48 622.466 478.522
internal_count=33600 15177 5092 3637
is_linear=0
shrinkage=0.1


Tree=15
num_leaves=5
num_cat=0
split_feature=191 301 277 347
split_gain=2058.2 1829.49 1168.82 550.218
threshold=3.5000000000000004 1.5000000000000002 3.5000000000000004 31.500000000000004
decision_type=2 2 2 2
left_child=2 -2 3 -1
right_child=1 -3 -4 -5
leaf_value=-0.077568303824850776 0.45022795688839212 -0.045633312578470406 0.46680382972846624 0.013220031241106404
leaf_weight=1443.7572994455695 180.02682596445084 126.23593304306269 46.439805299043655 1240.487830273807
leaf_count=17135 1352 1358 425 13330
internal_value=0 0.24616 -0.0269536 -0.0356152
internal_weight=0 306.263 2730.68 2684.25
internal_count=33600 2710 30890 30465
is_linear=0
shrinkage=0.1


Tree=16
num_leaves=5
num_cat=0
split_feature=100 97 243 105
split_gain=3922.33 2182.28 1485.4 1399
threshold=1.5000000000000002 1.0000000180025095e-35 3.5000000000000004 1.0000000180025095e-35
decision_type=2 2 2 2
left_child=1 3 -2 -1
right_child=2 -3 -4 -5
leaf_value=-0.071836876384382437 0.38243888953163591 0.34956642690624634 -0.081563332358781993 0.423696377484305
leaf_weight=2693.8535642400384 330.13626008480787 134.92310719937086 86.863790094852448 57.53339371830225
leaf_count=29283 2014 1040 828 435
internal_value=0 -0.0420793 0.285785 -0.0613697
internal_weight=0 2886.31 417 2751.39
internal_count=33600 30758 2842 29718
is_linear=0
shrinkage=0.1


Tree=17
num_leaves=5
num_cat=0
split_feature=405 156 486 539
split_gain=3305.67 3987.46 3154.91 1634.49
threshold=1.0000000180025095e-35 1.0000000180025095e-35 1.0000000180025095e-35 2.5000000000000004
decision_type=2 2 2 2
left_child=1 2 3 -1
right_child=-2 -3 -4 -5
leaf_value=0.43563045498599839 -0.081933194318066033 -0.093868247812016914 -0.029005863919242366 -0.082680637165167742
leaf_weight=534.22113984823227 2040.9509420916438 555.59961200505495 280.60548612475395 68.392892882227898
leaf_count=3751 20585 5770 2782 712
internal_value=0 0.115944 0.247912 0.376762
internal_weight=0 1438.82 883.22 602.614
internal_count=33600 13015 7245 4463
is_linear=0
shrinkage=0.1


Tree=18
num_leaves=5
num_cat=0
split_feature=405 487 657 541
split_gain=1734.68 1859.96 2671.78 1019.37
threshold=193.50000000000003 5.5000000000000009 4.5000000000000009 4.5000000000000009
decision_type=2 2 2 2
left_child=-1 -2 -3 -4
right_child=1 2 3 -5
leaf_value=-0.059333156149496538 -0.040739813541674275 -0.031967699909219507 0.17234979353847057 0.49392535711506191
leaf_weight=1940.1869529932737 589.23373136669397 290.56091559678316 166.89376759529114 244.32682424038649
leaf_count=20999 6211 3146 1418 1826
internal_value=0 0.0902234 0.200131 0.363936
internal_weight=0 1291.02 701.782 411.221
internal_count=33600 12601 6390 3244
is_linear=0
shrinkage=0.1


Tree=19
num_leaves=5
num_cat=0
split_feature=155 209 429 218
split_gain=1999.93 1646.36 1271.43 1039.85
threshold=1.0000000180025095e-35 1.0000000180025095e-35 1.0000000180025095e-35 1.0000000180025095e-35
decision_type=2 2 2 2
left_child=1 -1 -3 -4
right_child=-2 2 3 -5
leaf_value=-0.051270671434345827 -0.082856617998429027 0.037735884381496693 0.32319102550660928 -0.0050258644959167344
leaf_weight=668.5863194912672 1545.6418707892299 542.23620914667845 443.78190801292658 123.20321451127529
leaf_count=7025 16774 5080 3562 1159
internal_value=0 0.0726382 0.14732 0.251932
internal_weight=0 1777.81 1109.22 566.985
internal_count=33600 16826 9801 4721
is_linear=0
shrinkage=0.1


Tree=20
num_leaves=5
num_cat=0
split_feature=407 455 461 485
split_gain=4369.11 1819.54 1212.86 477.658
threshold=1.0000000180025095e-35 5.5000000000000009 1.0000000180025095e-35 81.500000000000014
decision_type=2 2 2 2
left_child=1 3 -3 -1
right_child=-2 2 -4 -5
leaf_value=-0.058717600061951349 -0.092817397683910938 0.30111682081083879 -0.056366763484420504 0.15691178822839041
leaf_weight=370.33782578259706 2000.4303591512144 621.60748559236526 111.7046687155962 141.39164950698614
leaf_count=3864 24236 3265 1067 1168
internal_value=0 0.145733 0.246646 0.000969922
internal_weight=0 1245.04 733.312 511.729
internal_count=33600 9364 4332 5032
is_linear=0
shrinkage=0.1


Tree=21
num_leaves=5
num_cat=0
split_feature=437 578 319 206
split_gain=3484.92 2899.26 1685.68 738.371
threshold=1.0000000180025095e-35 1.0000000180025095e-35 1.0000000180025095e-35 1.0000000180025095e-35
decision_type=2 2 2 2
left_child=1 2 3 -1
right_child=-2 -3 -4 -5
leaf_value=0.29668834174890529 -0.087987176669208106 -0.077866927630820509 -0.04756085579312315 -0.065435801733853244
leaf_weight=775.99834556132555 2027.5786897242069 541.24783051759005 207.77391509711742 60.421629421412945
leaf_count=3829 21503 5651 2034 583
internal_value=0 0.109885 0.207201 0.270485
internal_weight=0 1585.44 1044.19 836.42
internal_count=33600 12097 6446 4412
is_linear=0
shrinkage=0.1


Tree=22
num_leaves=5
num_cat=0
split_feature=125 319 459 555
split_gain=2003.33 1780.42 909.346 620.711
threshold=1.5000000000000002 1.5000000000000002 2.5000000000000004 9.5000000000000018
decision_type=2 2 2 2
left_child=3 2 -2 -1
right_child=1 -3 -4 -5
leaf_value=-0.058689015355547394 0.086112992348934492 -0.050437920889721932 0.35169735133843355 0.16229979081426729
leaf_weight=2263.6193400546908 218.00352145731449 333.34182294085622 317.23359411209822 133.99537473171949
leaf_count=25028 2048 3567 1947 1010
internal_value=0 0.130908 0.243788 -0.0462921
internal_weight=0 868.579 535.237 2397.61
internal_count=33600 7562 3995 26038
is_linear=0
shrinkage=0.1


Tree=23
num_leaves=5
num_cat=0
split_feature=350 489 290 486
split_gain=2166.63 2175.48 922.808 556.61
threshold=150.50000000000003 1.0000000180025095e-35 140.50000000000003 118.50000000000001
decision_type=2 2 2 2
left_child=-1 2 3 -2
right_child=1 -3 -4 -5
leaf_value=-0.061672110529127883 0.30438451294265234 -0.049006586723927027 -0.0035591164099684647 -0.018570461554620946
leaf_weight=2107.4747337251902 526.82569595426321 541.81759815663099 153.52149397879839 59.224144071340561
leaf_count=22503 3158 5895 1483 561
internal_value=0 0.103182 0.214634 0.271747
internal_weight=0 1281.39 739.571 586.05
internal_count=33600 11097 5202 3719
is_linear=0
shrinkage=0.1


Tree=24
num_leaves=5
num_cat=0
split_feature=211 429 124 155
split_gain=2053.86 1603.07 1143.12 565.126
threshold=1.0000000180025095e-35 36.500000000000007 1.0000000180025095e-35 62.500000000000007
decision_type=2 2 2 2
left_child=1 -1 3 -3
right_child=-2 2 -4 -5
leaf_value=-0.028887416072049549 -0.060112102474707843 0.30704969018134565 -0.04642765273124605 -0.077996052201121518
leaf_weight=497.55134185403585 2043.7945312149823 479.75192229449749 138.40422200411558 41.092874243855476
leaf_count=5085 23921 2870 1315 409
internal_value=0 0.106592 0.208781 0.27659
internal_weight=0 1156.8 659.249 520.845
internal_count=33600 9679 4594 3279
is_linear=0
shrinkage=0.1


Tree=25
num_leaves=5
num_cat=0
split_feature=327 218 386 296
split_gain=1183.26 1855.85 1413.76 932.814
threshold=6.5000000000000009 1.5000000000000002 1.5000000000000002 2.5000000000000004
decision_type=2 2 2 2
left_child=1 3 -3 -1
right_child=-2 2 -4 -5
leaf_value=0.11331190687513365 -0.066566493264838766 0.36987413590840301 -0.08763047850390801 -0.065541185245280228
leaf_weight=464.93597641587257 1387.96067295596 274.80035185068846 89.141039587557316 779.63622748851776
leaf_count=5133 16482 1672 944 9369
internal_value=0 0.059426 0.257834 0.00129029
internal_weight=0 1608.51 363.941 1244.57
internal_count=33600 17118 2616 14502
is_linear=0
shrinkage=0.1


Tree=26
num_leaves=5
num_cat=0
split_feature=101 97 66 594
split_gain=2805.49 2064.7 1307.66 863.761
threshold=1.5000000000000002 1.0000000180025095e-35 1.5000000000000002 10.500000000000002
decision_type=2 2 2 2
left_child=1 2 -1 -2
right_child=3 -3 -4 -5
leaf_value=-0.070715364958727975 0.29793628243947545 0.232049227309442 0.8929027067201496 -0.055450088000908997
leaf_weight=2524.3405279219151 364.24259883165359 256.40132626891136 13.487150892615317 85.048584416508675
leaf_count=29352 1887 1551 146 664
internal_value=0 -0.0380106 -0.0653538 0.231037
internal_weight=0 2794.23 2537.83 449.291
internal_count=33600 31049 29498 2551
is_linear=0
shrinkage=0.1


Tree=27
num_leaves=5
num_cat=0
split_feature=404 155 457 377
split_gain=2481.8 2972.67 1807.43 979.57
threshold=1.0000000180025095e-35 1.0000000180025095e-35 1.0000000180025095e-35 3.5000000000000004
decision_type=2 2 2 2
left_child=1 2 3 -1
right_child=-2 -3 -4 -5
leaf_value=0.31056769771460363 -0.084296227505271257 -0.092010878979415844 -0.021432484715716474 -0.012521102239000185
leaf_weight=670.79013779014349 1741.2643224224448 603.55889399722219 305.42813757807016 108.95735780149698
leaf_count=3779 18932 6839 3041 1009
internal_value=0 0.0858145 0.184723 0.265437
internal_weight=0 1688.73 1085.18 779.747
internal_count=33600 14668 7829 4788
is_linear=0
shrinkage=0.1


Tree=28
num_leaves=5
num_cat=0
split_feature=487 656 542 572
split_gain=1411.34 2748.43 983.283 665.968
threshold=1.5000000000000002 6.5000000000000009 1.0000000180025095e-35 247.50000000000003
decision_type=2 2 2 2
left_child=-1 -2 -3 -4
right_child=1 2 3 -5
leaf_value=-0.066780387952880049 -0.065928017998383964 0.025076677707260266 0.32820459051093898 0.080358485746110445
leaf_weight=1574.6651681624353 796.26120885834098 240.66404634714127 431.0544618293643 145.63717163354158
leaf_count=18177 9044 2235 2874 1270
internal_value=0 0.0662675 0.195012 0.265799
internal_weight=0 1613.62 817.356 576.692
internal_count=33600 15423 6379 4144
is_linear=0
shrinkage=0.1


Tree=29
num_leaves=5
num_cat=0
split_feature=598 211 354 344
split_gain=1717.21 1293.99 1768.23 760.803
threshold=2.5000000000000004 29.500000000000004 1.0000000180025095e-35 1.0000000180025095e-35
decision_type=2 2 2 2
left_child=1 -1 -3 -4
right_child=-2 2 3 -5
leaf_value=-0.05672410972240495 -0.071826667442564468 -0.031656467640743931 0.09603651161276533 0.30975760790842233
leaf_weight=525.05589678883553 1638.8535520099103 410.76157132536173 269.09379731863737 440.732197701931
leaf_count=5812 18348 4147 2432 2861
internal_value=0 0.0727568 0.133432 0.228919
internal_weight=0 1645.64 1120.59 709.826
internal_count=33600 15252 9440 5293
is_linear=0
shrinkage=0.1


Tree=30
num_leaves=5
num_cat=0
split_feature=435 380 489 627
split_gain=3560.64 1546.07 816.382 501.367
threshold=1.0000000180025095e-35 1.0000000180025095e-35 47.500000000000007 1.0000000180025095e-35
decision_type=2 2 2 2
left_child=1 2 3 -1
right_child=-2 -3 -4 -5
leaf_value=0.035723619445664823 -0.090975987388755841 -0.060650680881457975 -0.040789539025831684 0.25651502351245664
leaf_weight=120.39903067797422 1845.5518377646804 334.64587344974279 133.80114094540477 719.07760464400053
leaf_count=913 24330 3729 1248 3380
internal_value=0 0.124652 0.188374 0.224915
internal_weight=0 1307.92 973.278 839.477
internal_count=33600 9270 5541 4293
is_linear=0
shrinkage=0.1


Tree=31
num_leaves=5
num_cat=0
split_feature=438 378 402 233
split_gain=2836.33 2354.4 1267.92 682.609
threshold=1.0000000180025095e-35 142.50000000000003 1.0000000180025095e-35 1.0000000180025095e-35
decision_type=2 2 2 2
left_child=1 -1 3 -3
right_child=-2 2 -4 -5
leaf_value=-0.080618726215021405 -0.096873098355099149 0.22943157511889975 -0.061585285097007225 -0.073099015547492624
leaf_weight=593.46377620846033 1645.8507014848292 965.60223200544715 212.51705529540777 80.458883248269558
leaf_count=6742 19192 4640 2165 861
internal_value=0 0.0835018 0.1609 0.20612
internal_weight=0 1852.04 1258.58 1046.06
internal_count=33600 14408 7666 5501
is_linear=0
shrinkage=0.1


Tree=32
num_leaves=5
num_cat=0
split_feature=319 512 343 543
split_gain=1668.71 1814.52 1665.07 760.556
threshold=1.0000000180025095e-35 3.5000000000000004 1.0000000180025095e-35 54.500000000000007
decision_type=2 2 2 2
left_child=1 3 -3 -1
right_child=-2 2 -4 -5
leaf_value=-0.077462167605540644 -0.072773170713724938 0.29826358423047589 -0.074065332221896193 0.10297251913913517
leaf_weight=641.31897852197289 1561.7173903845251 473.56105222553015 160.4818561039865 366.55481358990073
leaf_count=7296 18112 3054 1607 3531
internal_value=0 0.0715855 0.204029 -0.0118046
internal_weight=0 1641.92 634.043 1007.87
internal_count=33600 15488 4661 10827
is_linear=0
shrinkage=0.1


Tree=33
num_leaves=5
num_cat=0
split_feature=350 517 289 179
split_gain=1780.61 1744.19 791.675 583.787
threshold=59.500000000000007 4.5000000000000009 67.500000000000014 1.5000000000000002
decision_type=2 2 2 2
left_child=-1 2 3 -2
right_child=1 -3 -4 -5
leaf_value=-0.071238652735575253 0.062722683233854978 -0.053878992202532616 -0.00078843667882420919 0.26116903206040504
leaf_weight=1689.3653343059123 203.34188552573323 637.91049041599035 238.96819249540567 553.07428263872862
leaf_count=19583 1690 7166 2205 2956
internal_value=0 0.0751627 0.157852 0.207939
internal_weight=0 1633.29 995.384 756.416
internal_count=33600 14017 6851 4646
is_linear=0
shrinkage=0.1


Tree=34
num_leaves=5
num_cat=0
split_feature=429 569 209 213
split_gain=1605.06 1501.21 630.414 445.673
threshold=76.500000000000014 1.0000000180025095e-35 17.500000000000004 1.5000000000000002
decision_type=2 2 2 2
left_child=-1 2 -2 -4
right_child=1 -3 3 -5
leaf_value=-0.063725068031497314 0.23311222249340063 -0.062717773965817888 0.18699449671707877 -0.020671688251883289
leaf_weight=1742.8784850127995 487.61534636095166 480.32286259904504 176.95488759875298 246.64899570122361
leaf_count=20795 2740 5912 1396 2757
internal_value=0 0.0802697 0.155643 0.0662141
internal_weight=0 1391.54 911.219 423.604
internal_count=33600 12805 6893 4153
is_linear=0
shrinkage=0.1


Tree=35
num_leaves=5
num_cat=0
split_feature=219 329 276 490
split_gain=1014.1 898.842 699.883 707.094
threshold=1.5000000000000002 1.0000000180025095e-35 81.500000000000014 1.0000000180025095e-35
decision_type=2 2 2 2
left_child=2 -2 3 -1
right_child=1 -3 -4 -5
leaf_value=0.032773084586616534 0.22480713349574122 -0.069485764826205096 0.38131170012327192 -0.077029515339671548
leaf_weight=997.77949980273843 333.77474215254188 150.02710983902216 41.055192433297634 1420.7145943194628
leaf_count=11865 1781 1752 346 17856
internal_value=0 0.133556 -0.0247269 -0.0317284
internal_weight=0 483.802 2459.55 2418.49
internal_count=33600 3533 30067 29721
is_linear=0
shrinkage=0.1


Tree=36
num_leaves=5
num_cat=0
split_feature=242 514 244 296
split_gain=2307.86 2588.43 731.455 597.85
threshold=1.0000000180025095e-35 9.5000000000000018 1.0000000180025095e-35 154.50000000000003
decision_type=2 2 2 2
left_child=1 -1 3 -3
right_child=-2 2 -4 -5
leaf_value=-0.058322208688337041 -0.079625531832426655 0.27527173428902307 -0.057671028772923884 -0.014401879756931064
leaf_weight=643.08007693663239 1706.3956544101238 644.9822259619832 90.520274337381124 79.938469167798758
leaf_count=7447 21073 3344 954 782
internal_value=0 0.0916501 0.209885 0.243331
internal_weight=0 1458.52 815.441 724.921
internal_count=33600 12527 5080 4126
is_linear=0
shrinkage=0.1


Tree=37
num_leaves=5
num_cat=0
split_feature=405 155 458 539
split_gain=2146.15 2075.78 1202.25 719.701
threshold=1.0000000180025095e-35 1.0000000180025095e-35 5.5000000000000009 1.0000000180025095e-35
decision_type=2 2 2 2
left_child=1 2 3 -1
right_child=-2 -3 -4 -5
leaf_value=0.24516247377505118 -0.07740307914127556 -0.091314393032833674 -0.026547082722139594 -0.071015166757297077
leaf_weight=771.12342151254416 1746.0454437620938 478.39777252823114 269.51614201068878 79.052773158997297
leaf_count=3537 20585 5949 2729 800
internal_value=0 0.082942 0.157414 0.215718
internal_weight=0 1598.09 1119.69 850.176
internal_count=33600 13015 7066 4337
is_linear=0
shrinkage=0.1


Tree=38
num_leaves=5
num_cat=0
split_feature=405 515 658 513
split_gain=1177.04 1085.04 1504.18 748.931
threshold=111.50000000000001 1.0000000180025095e-35 1.0000000180025095e-35 114.50000000000001
decision_type=2 2 2 2
left_child=-1 3 -3 -2
right_child=1 2 -4 -5
leaf_value=-0.065784192083199217 -0.06388194804009259 -0.019916235509813508 0.23848783621386091 0.26655639145548665
leaf_weight=1442.1668682619929 687.88609585165977 387.86878222972155 536.13864447176456 75.502438649535179
leaf_count=17653 7938 4433 2922 654
internal_value=0 0.0572218 0.130072 -0.03098
internal_weight=0 1687.4 924.007 763.389
internal_count=33600 15947 7355 8592
is_linear=0
shrinkage=0.1


Tree=39
num_leaves=5
num_cat=0
split_feature=569 381 211 205
split_gain=1478.3 1155.59 1076.35 753.327
threshold=1.0000000180025095e-35 82.500000000000014 36.500000000000007 27.500000000000004
decision_type=2 2 2 2
left_child=1 -1 -3 -4
right_child=-2 2 3 -5
leaf_value=-0.050927468322497671 -0.085693736123198999 -0.038721158156646146 0.22005644571871874 0.022471631846640396
leaf_weight=692.39607749506831 1229.6638784147799 359.28808653354645 683.44301264360547 269.17123407870531
leaf_count=7745 15057 4188 4426 2184
internal_value=0 0.0535488 0.108695 0.164293
internal_weight=0 2004.3 1311.9 952.614
internal_count=33600 18543 10798 6610
is_linear=0
shrinkage=0.1


Tree=40
num_leaves=5
num_cat=0
split_feature=435 352 489 185
split_gain=2881.37 1117.63 554.68 315.424
threshold=1.0000000180025095e-35 3.5000000000000004 47.500000000000007 2.5000000000000004
decision_type=2 2 2 2
left_child=1 2 3 -1
right_child=-2 -3 -4 -5
leaf_value=0.061556897929022636 -0.089644425427404098 -0.036771454314809153 -0.042485770101374318 0.21991109464387548
leaf_weight=154.32223707437515 1677.4542045369744 389.5189715065062 114.71700482815504 700.18108503893018
leaf_count=1148 24330 4181 1094 2847
internal_value=0 0.106227 0.163693 0.191396
internal_weight=0 1358.74 969.22 854.503
internal_count=33600 9270 5089 3995
is_linear=0
shrinkage=0.1


Tree=41
num_leaves=5
num_cat=0
split_feature=410 290 522 406
split_gain=2466.74 1728.65 890.679 494.861
threshold=1.0000000180025095e-35 1.0000000180025095e-35 5.5000000000000009 114.50000000000001
decision_type=2 2 2 2
left_child=1 2 3 -1
right_child=-2 -3 -4 -5
leaf_value=-0.057897270200852002 -0.094012102322256971 -0.082328332254196362 -0.076675487446753537 0.18802662372632958
leaf_weight=88.302599962800741 1552.2015549018979 490.35426626354456 168.76463600993156 1059.1857836060226
leaf_count=1021 19727 6051 1942 4859
internal_value=0 0.0778421 0.137531 0.16907
internal_weight=0 1806.61 1316.25 1147.49
internal_count=33600 13873 7822 5880
is_linear=0
shrinkage=0.1


Tree=42
num_leaves=5
num_cat=0
split_feature=318 540 348 315
split_gain=1457.69 1530.65 708.139 594.491
threshold=1.0000000180025095e-35 1.0000000180025095e-35 1.0000000180025095e-35 91.500000000000014
decision_type=2 2 2 2
left_child=1 -1 3 -3
right_child=-2 2 -4 -5
leaf_value=-0.023691413165292299 -0.070516665462525815 0.26994227960150496 0.017000050949150494 -0.043631133878058316
leaf_weight=881.79931228607893 1486.4048122502863 477.289640519768 217.76589066162705 68.954957075417042
leaf_count=9908 18471 2548 1992 681
internal_value=0 0.0660689 0.16961 0.230335
internal_weight=0 1645.81 764.01 546.245
internal_count=33600 15129 5221 3229
is_linear=0
shrinkage=0.1


Tree=43
num_leaves=5
num_cat=0
split_feature=350 516 655 318
split_gain=1472.19 1165.24 687.791 655.366
threshold=32.500000000000007 5.5000000000000009 1.0000000180025095e-35 50.500000000000007
decision_type=2 2 2 2
left_child=-1 2 -2 -4
right_child=1 -3 3 -5
leaf_value=-0.072548601710294133 0.0029121881773024111 -0.052482745316945745 0.23686435125532782 0.050354415737173613
leaf_weight=1480.5414410084486 350.19772239401937 584.46444707363844 527.82130961120129 293.68986551836133
leaf_count=18600 3115 7026 2668 2191
internal_value=0 0.0627982 0.120308 0.170296
internal_weight=0 1756.17 1171.71 821.511
internal_count=33600 15000 7974 4859
is_linear=0
shrinkage=0.1


Tree=44
num_leaves=5
num_cat=0
split_feature=400 568 463 209
split_gain=1335.84 1080.18 571.573 311.086
threshold=6.5000000000000009 2.5000000000000004 66.500000000000014 104.50000000000001
decision_type=2 2 2 2
left_child=-1 2 -2 -4
right_child=1 -3 3 -5
leaf_value=-0.06422854547805773 0.0021553857756753786 -0.070132510750889179 0.21020703110890038 0.076808255373162881
leaf_weight=1567.0728338770568 296.86030780524015 409.9999573007226 518.17207731306553 265.75516292080283
leaf_count=20026 2613 5509 2853 2599
internal_value=0 0.067973 0.120384 0.165102
internal_weight=0 1490.79 1080.79 783.927
internal_count=33600 13574 8065 5452
is_linear=0
shrinkage=0.1


Tree=45
num_leaves=5
num_cat=0
split_feature=327 217 358 489
split_gain=926.023 1060.55 926.648 606.972
threshold=7.5000000000000009 1.0000000180025095e-35 1.0000000180025095e-35 1.0000000180025095e-35
decision_type=2 2 2 2
left_child=1 3 -3 -1
right_child=-2 2 -4 -5
leaf_value=0.078668511759838924 -0.062972902576475642 0.23469829595022854 -0.097580061936374848 -0.070283149586883018
leaf_weight=491.43012893199921 1250.6455140784383 419.76319586485624 104.40812633931637 615.370611038059
leaf_count=5419 16422 2334 1259 8166
internal_value=0 0.0513761 0.168453 -0.00413043
internal_weight=0 1630.97 524.171 1106.8
internal_count=33600 17178 3593 13585
is_linear=0
shrinkage=0.1


Tree=46
num_leaves=5
num_cat=0
split_feature=242 514 245 268
split_gain=1873.79 1860.11 605.821 521.762
threshold=1.0000000180025095e-35 5.5000000000000009 19.500000000000004 192.50000000000003
decision_type=2 2 2 2
left_child=1 -1 3 -3
right_child=-2 2 -4 -5
leaf_value=-0.056986258682922314 -0.077286981753538486 0.22313410339286732 -0.071076843764579775 -0.063839494777495176
leaf_weight=600.0787502899766 1566.1727556362748 733.45110866427422 92.686759982258081 68.992974493652582
leaf_count=7380 21073 3444 1014 689
internal_value=0 0.0791907 0.170466 0.198415
internal_weight=0 1495.21 895.131 802.444
internal_count=33600 12527 5147 4133
is_linear=0
shrinkage=0.1


Tree=47
num_leaves=5
num_cat=0
split_feature=404 155 456 378
split_gain=1738.79 1684.93 834.684 403.738
threshold=1.0000000180025095e-35 1.0000000180025095e-35 2.5000000000000004 150.50000000000003
decision_type=2 2 2 2
left_child=1 2 3 -1
right_child=-2 -3 -4 -5
leaf_value=0.19517697532135905 -0.080403965154013546 -0.088936842181748355 -0.02074528829168695 -0.020188698922760331
leaf_weight=863.69905133545399 1484.6826915666461 496.23535490781069 287.04618898779154 96.566210102289915
leaf_count=3976 18932 6839 2896 957
internal_value=0 0.0668206 0.12881 0.17351
internal_weight=0 1743.55 1247.31 960.265
internal_count=33600 14668 7829 4933
is_linear=0
shrinkage=0.1


Tree=48
num_leaves=5
num_cat=0
split_feature=656 515 268 434
split_gain=991.503 1673.33 445.699 388.12
threshold=4.5000000000000009 1.0000000180025095e-35 134.50000000000003 19.500000000000004
decision_type=2 2 2 2
left_child=-1 -2 3 -3
right_child=1 2 -4 -5
leaf_value=-0.069209260582886359 -0.045836892224330988 -0.021033143934915507 0.055792973840294018 0.23283095048679417
leaf_weight=1215.5798743106425 940.73819108679891 68.636256832629442 344.21165990456939 480.42395725846291
leaf_count=15814 11824 622 2680 2660
internal_value=0 0.0472222 0.145198 0.201091
internal_weight=0 1834.01 893.272 549.06
internal_count=33600 17786 5962 3282
is_linear=0
shrinkage=0.1


Tree=49
num_leaves=5
num_cat=0
split_feature=156 212 569 204
split_gain=1311.47 1033.38 733.111 620.434
threshold=1.0000000180025095e-35 10.500000000000002 1.0000000180025095e-35 5.5000000000000009
decision_type=2 2 2 2
left_child=1 -1 3 -3
right_child=-2 2 -4 -5
leaf_value=-0.053901968550021329 -0.079222561269174457 0.17613795290323189 -0.05917610735091712 -0.011848493651361341
leaf_weight=619.56863396987319 1247.8132652938366 853.81035069003701 229.51772894337773 220.74068484827876
leaf_count=7382 16610 5169 2651 1788
internal_value=0 0.052382 0.102887 0.137528
internal_weight=0 1923.64 1304.07 1074.55
internal_count=33600 16990 9608 6957
is_linear=0
shrinkage=0.1


Tree=50
num_leaves=5
num_cat=0
split_feature=408 461 214 353
split_gain=2258.7 1013.2 349.11 202.112
threshold=1.0000000180025095e-35 1.0000000180025095e-35 1.0000000180025095e-35 173.50000000000003
decision_type=2 2 2 2
left_child=1 2 -1 -4
right_child=-2 -3 3 -5
leaf_value=0.025120033092583247 -0.084202019685378382 -0.07367147233577695 0.18148590906214968 -0.0056089381316166672
leaf_weight=217.3689775057137 1562.5828692950308 286.93777576088905 772.48997804149985 62.243081450462341
leaf_count=1557 24274 4082 3174 513
internal_value=0 0.0927392 0.138152 0.16753
internal_weight=0 1339.04 1052.1 834.733
internal_count=33600 9326 5244 3687
is_linear=0
shrinkage=0.1


Tree=51
num_leaves=5
num_cat=0
split_feature=410 346 205 511
split_gain=2088.68 1340.47 829.041 388.619
threshold=1.0000000180025095e-35 1.0000000180025095e-35 1.0000000180025095e-35 1.5000000000000002
decision_type=2 2 2 2
left_child=1 2 3 -1
right_child=-2 -3 -4 -5
leaf_value=0.16498772235658021 -0.092887606561544309 -0.08176306692322062 -0.081374329612392965 -0.061427525143692353
leaf_weight=1096.3101289197803 1409.8315275199711 440.56263026595116 178.92797459661961 81.030603229999542
leaf_count=5074 19727 5829 2237 733
internal_value=0 0.0696786 0.118896 0.14937
internal_weight=0 1796.83 1356.27 1177.34
internal_count=33600 13873 8044 5807
is_linear=0
shrinkage=0.1


Tree=52
num_leaves=5
num_cat=0
split_feature=346 569 321 343
split_gain=1456.63 1295.53 667.544 591.457
threshold=1.0000000180025095e-35 2.5000000000000004 6.5000000000000009 61.500000000000007
decision_type=2 2 2 2
left_child=1 -1 3 -3
right_child=-2 2 -4 -5
leaf_value=-0.03571012266745071 -0.075012442073616015 0.22193879990218401 -0.0042043784997629957 -0.073209629931127104
leaf_weight=732.85749314725399 1372.302240844816 629.53944995254278 235.40786440297961 75.714609872549772
leaf_count=8887 18118 3491 2244 860
internal_value=0 0.0639467 0.141569 0.190198
internal_weight=0 1673.52 940.662 705.254
internal_count=33600 15482 6595 4351
is_linear=0
shrinkage=0.1


Tree=53
num_leaves=5
num_cat=0
split_feature=350 517 317 513
split_gain=1210.19 1031.16 619.95 391.696
threshold=32.500000000000007 14.500000000000002 86.500000000000014 49.500000000000007
decision_type=2 2 2 2
left_child=-1 2 3 -2
right_child=1 -3 -4 -5
leaf_value=-0.069808301413707016 0.1810042013392397 -0.052744654086841161 -0.019275514396390862 0.01191104439038624
leaf_weight=1364.6221050433815 735.12667322158813 589.68139966949821 286.29006008803844 168.61424089595675
leaf_count=18600 3696 7447 2506 1351
internal_value=0 0.0553363 0.1089 0.1495
internal_weight=0 1779.71 1190.03 903.741
internal_count=33600 15000 7553 5047
is_linear=0
shrinkage=0.1


Tree=54
num_leaves=5
num_cat=0
split_feature=210 464 294 153
split_gain=1144.4 870.311 516.724 457.425
threshold=3.5000000000000004 84.500000000000014 60.500000000000007 50.500000000000007
decision_type=2 2 2 2
left_child=1 -1 3 -3
right_child=-2 2 -4 -5
leaf_value=-0.037842800246695424 -0.051685696558392828 0.21636807815775083 -0.025348818398988185 -0.011040802703826265
leaf_weight=442.18851253762841 1748.6668070554733 521.96953746676445 155.8244534060359 106.29321152344346
leaf_count=4907 23469 2489 1614 1121
internal_value=0 0.0742867 0.137514 0.177907
internal_weight=0 1226.28 784.087 628.263
internal_count=33600 10131 5224 3610
is_linear=0
shrinkage=0.1


Tree=55
num_leaves=5
num_cat=0
split_feature=347 327 485 296
split_gain=792.42 739.552 512.588 782.363
threshold=2.5000000000000004 29.500000000000004 32.500000000000007 20.500000000000004
decision_type=2 2 2 2
left_child=-1 2 3 -2
right_child=1 -3 -4 -5
leaf_value=-0.063895123596755615 0.2289733384094427 -0.045582171262084165 -0.012059554066021615 0.028832575486806285
leaf_weight=1103.153600551188 422.68685148656368 590.60855126753449 328.68993406742811 363.24504248425364
leaf_count=16295 2943 7718 3225 3419
internal_value=0 0.0448427 0.0927641 0.136589
internal_weight=0 1705.23 1114.62 785.932
internal_count=33600 17305 9587 6362
is_linear=0
shrinkage=0.1


Tree=56
num_leaves=5
num_cat=0
split_feature=242 543 655 105
split_gain=1531.77 1446.38 504.499 301.85
threshold=8.5000000000000018 12.500000000000002 1.0000000180025095e-35 7.5000000000000009
decision_type=2 2 2 2
left_child=1 -1 -3 -2
right_child=3 2 -4 -5
leaf_value=-0.061421102977004184 -0.083672291438151455 0.16590864931359739 -0.058512940747735845 0.24077528060832828
leaf_weight=555.6213158890605 1370.7174845524132 873.47712776437402 112.7210788205266 28.63531032204628
leaf_count=7172 20387 4313 1516 212
internal_value=0 0.0675566 0.140225 -0.0769127
internal_weight=0 1541.82 986.198 1399.35
internal_count=33600 13001 5829 20599
is_linear=0
shrinkage=0.1


Tree=57
num_leaves=5
num_cat=0
split_feature=155 432 377 485
split_gain=1453.58 1437 541.417 546.209
threshold=1.0000000180025095e-35 1.0000000180025095e-35 7.5000000000000009 4.5000000000000009
decision_type=2 2 2 2
left_child=1 2 3 -1
right_child=-2 -3 -4 -5
leaf_value=0.1793112970563332 -0.091632274379965239 -0.053908174328539296 -0.037882692909605414 -0.028369732933544813
leaf_weight=859.93309942260385 1123.0252664647996 788.76024708151817 183.31223479658365 148.19357468560338
leaf_count=3617 16774 9814 1855 1540
internal_value=0 0.0507535 0.120042 0.148774
internal_weight=0 1980.2 1191.44 1008.13
internal_count=33600 16826 7012 5157
is_linear=0
shrinkage=0.1


Tree=58
num_leaves=5
num_cat=0
split_feature=376 487 657 429
split_gain=886.112 811.081 629.886 278.898
threshold=1.0000000180025095e-35 1.0000000180025095e-35 1.0000000180025095e-35 204.50000000000003
decision_type=2 2 2 2
left_child=-1 -2 -3 -4
right_child=1 2 3 -5
leaf_value=-0.065623229749617942 -0.035228767266708379 -0.022047363342724301 0.17664725910526616 0.0077911295378394309
leaf_weight=1194.2169552408159 727.8119277767837 293.14624164998531 635.86108812317252 115.80163129791617
leaf_count=16416 9431 3844 3086 823
internal_value=0 0.0457894 0.102222 0.150677
internal_weight=0 1772.62 1044.81 751.663
internal_count=33600 17184 7753 3909
is_linear=0
shrinkage=0.1


Tree=59
num_leaves=5
num_cat=0
split_feature=155 210 596 431
split_gain=1108.07 941.182 568.566 418.106
threshold=1.0000000180025095e-35 9.5000000000000018 7.5000000000000009 1.0000000180025095e-35
decision_type=2 2 2 2
left_child=1 -1 3 -3
right_child=-2 2 -4 -5
leaf_value=-0.063494876271337916 -0.075944670289081376 0.040477756001478279 -0.074985272094858488 0.16229903601117221
leaf_weight=547.07111541554332 1170.727454226464 454.0868649110198 178.11704727634788 745.15713736787438
leaf_count=7208 16774 3587 2085 3946
internal_value=0 0.047405 0.0914699 0.116229
internal_weight=0 1924.43 1377.36 1199.24
internal_count=33600 16826 9618 7533
is_linear=0
shrinkage=0.1


Tree=60
num_leaves=5
num_cat=0
split_feature=435 483 351 627
split_gain=1990.3 718.416 231.853 217.055
threshold=1.0000000180025095e-35 6.5000000000000009 4.5000000000000009 3.5000000000000004
decision_type=2 2 2 2
left_child=1 2 3 -1
right_child=-2 -3 -4 -5
leaf_value=-0.068919189722793581 -0.087142486867076971 0.13823047982317613 -0.084161847199777859 0.11777434927055826
leaf_weight=96.115930177271366 1390.8565319590271 861.43268178775907 235.89737290889025 174.1183778308332
leaf_count=1062 24330 4013 3155 1040
internal_value=0 0.0827082 -0.0118289 0.0513284
internal_weight=0 1367.56 506.132 270.234
internal_count=33600 9270 5257 2102
is_linear=0
shrinkage=0.1


Tree=61
num_leaves=5
num_cat=0
split_feature=438 262 402 149
split_gain=1771.05 1186.53 570.495 334.139
threshold=1.0000000180025095e-35 1.0000000180025095e-35 6.5000000000000009 1.0000000180025095e-35
decision_type=2 2 2 2
left_child=1 2 3 -1
right_child=-2 -3 -4 -5
leaf_value=0.14645021547903506 -0.094209579211925618 -0.079391474585466124 -0.058200779823621533 -0.075883867893574278
leaf_weight=1108.5324799828231 1235.3299163617194 451.05773497372866 179.49833173304796 71.517879839986563
leaf_count=5001 19192 6511 2087 809
internal_value=0 0.0610535 0.107673 0.132931
internal_weight=0 1810.61 1359.55 1180.05
internal_count=33600 14408 7897 5810
is_linear=0
shrinkage=0.1


Tree=62
num_leaves=5
num_cat=0
split_feature=346 568 349 343
split_gain=1223.02 970.025 565.333 440.107
threshold=1.0000000180025095e-35 1.5000000000000002 1.0000000180025095e-35 119.50000000000001
decision_type=2 2 2 2
left_child=1 -1 3 -3
right_child=-2 2 -4 -5
leaf_value=-0.022463400403993725 -0.072631599154436677 0.21275905393577235 0.014726175597872 -0.08516443657298714
leaf_weight=798.1449763700366 1269.7891556471586 538.90242990851402 288.42177794873714 54.192735992372036
leaf_count=9855 18118 2520 2379 728
internal_value=0 0.0573875 0.129659 0.185454
internal_weight=0 1679.66 881.517 593.095
internal_count=33600 15482 5627 3248
is_linear=0
shrinkage=0.1


Tree=63
num_leaves=5
num_cat=0
split_feature=177 288 592 515
split_gain=1038.76 797.378 465.863 361.285
threshold=1.0000000180025095e-35 63.500000000000007 6.5000000000000009 71.500000000000014
decision_type=2 2 2 2
left_child=2 3 -1 -2
right_child=1 -3 -4 -5
leaf_value=-0.052133144749955368 0.17827842606455782 -0.050863548306418455 0.13392838462947007 -0.014964658861296757
leaf_weight=1919.5439111404121 566.50053866952658 296.67753357067704 144.04214465245605 116.41074493527412
leaf_count=24345 3107 3402 1206 1540
internal_value=0 0.0859141 -0.0391012 0.145341
internal_weight=0 979.589 2063.59 682.911
internal_count=33600 8049 25551 4647
is_linear=0
shrinkage=0.1


Tree=64
num_leaves=5
num_cat=0
split_feature=597 429 543 211
split_gain=984.777 840.504 486.227 360.658
threshold=2.5000000000000004 1.0000000180025095e-35 173.50000000000003 91.500000000000014
decision_type=2 2 2 2
left_child=1 -1 3 -3
right_child=-2 2 -4 -5
leaf_value=-0.04565312628389348 -0.075541389783727111 0.16305550592046089 -0.059479195982900912 0.030761066481878763
leaf_weight=648.45504336431623 1073.6633915416896 689.72458297759295 169.7894733697176 294.55733908340335
leaf_count=9195 15879 3259 1843 3424
internal_value=0 0.0454032 0.0965719 0.123523
internal_weight=0 1802.53 1154.07 984.282
internal_count=33600 17721 8526 6683
is_linear=0
shrinkage=0.1


Tree=65
num_leaves=5
num_cat=0
split_feature=375 486 325 408
split_gain=647.224 650.901 506.429 552.91
threshold=63.500000000000007 41.500000000000007 37.500000000000007 32.500000000000007
decision_type=2 2 2 2
left_child=-1 2 -2 -4
right_child=1 -3 3 -5
leaf_value=-0.049165305426514587 0.15664806454830968 -0.04624328376269448 0.21219899189028688 -0.056686238591508648
leaf_weight=1289.4666658602655 564.02683509886265 486.94590020552278 101.18103788420558 306.18574755266309
leaf_count=19339 3942 5590 1020 3709
internal_value=0 0.0480594 0.0953417 0.0103153
internal_weight=0 1458.34 971.394 407.367
internal_count=33600 14261 8671 4729
is_linear=0
shrinkage=0.1


Tree=66
num_leaves=5
num_cat=0
split_feature=242 486 245 512
split_gain=1269.08 940.895 485.507 437.694
threshold=8.5000000000000018 10.500000000000002 2.5000000000000004 151.50000000000003
decision_type=2 2 2 2
left_child=1 3 -3 -1
right_child=-2 2 -4 -5
leaf_value=-0.078483302320757467 -0.074739747797948605 0.14798950864168867 -0.071234158814895684 0.1512432420111256
leaf_weight=487.67626766487956 1281.9527835771441 834.63467375189066 114.44833125732839 99.234556633979082
leaf_count=6763 20599 4204 1387 647
internal_value=0 0.0599932 0.121511 -0.0394948
internal_weight=0 1535.99 949.083 586.911
internal_count=33600 13001 5591 7410
is_linear=0
shrinkage=0.1


Tree=67
num_leaves=5
num_cat=0
split_feature=156 405 486 568
split_gain=1246.67 1043.75 499.487 362.051
threshold=1.0000000180025095e-35 6.5000000000000009 2.5000000000000004 26.500000000000004
decision_type=2 2 2 2
left_child=1 2 3 -1
right_child=-2 -3 -4 -5
leaf_value=0.1513971071078532 -0.090475393591528772 -0.05201820677382666 -0.022467240252701162 -0.065884684656895606
leaf_weight=906.86754231154919 1017.7939719092101 696.40627902559936 260.45643159374595 83.323814105242491
leaf_count=3758 16610 9584 2858 790
internal_value=0 0.0460572 0.100676 0.13307
internal_weight=0 1947.05 1250.65 990.191
internal_count=33600 16990 7406 4548
is_linear=0
shrinkage=0.1


Tree=68
num_leaves=5
num_cat=0
split_feature=405 657 542 485
split_gain=781.539 691.297 871.297 239.642
threshold=3.5000000000000004 4.5000000000000009 1.0000000180025095e-35 128.50000000000003
decision_type=2 2 2 2
left_child=-1 -2 3 -3
right_child=1 2 -4 -5
leaf_value=-0.078501447743084041 -0.048100356656837019 -0.033479328143447139 0.15178748979133211 0.14803038072817581
leaf_weight=862.51837597042322 665.49136870354414 546.77509050071239 716.74026261642575 83.202034223824739
leaf_count=13146 9274 6795 3714 671
internal_value=0 0.035238 0.0764313 -0.00935806
internal_weight=0 2012.21 1346.72 629.977
internal_count=33600 20454 11180 7466
is_linear=0
shrinkage=0.1


Tree=69
num_leaves=5
num_cat=0
split_feature=569 409 210 153
split_gain=931.879 618.867 457.192 387.221
threshold=1.0000000180025095e-35 68.500000000000014 2.5000000000000004 1.0000000180025095e-35
decision_type=2 2 2 2
left_child=1 -1 -3 -4
right_child=-2 2 3 -5
leaf_value=-0.050682551494459764 -0.080640584301968368 -0.043033003614353006 0.12293114585900362 -0.034462412421145026
leaf_weight=561.89835196360946 960.4963936060667 278.30681275948882 1026.4027420431376 183.95189972221851
leaf_count=7027 15057 3826 5692 1998
internal_value=0 0.0386834 0.0724293 0.098996
internal_weight=0 2050.56 1488.66 1210.35
internal_count=33600 18543 11516 7690
is_linear=0
shrinkage=0.1


Tree=70
num_leaves=5
num_cat=0
split_feature=407 597 400 398
split_gain=1691.81 589.538 341.084 195.721
threshold=1.0000000180025095e-35 8.5000000000000018 1.0000000180025095e-35 20.500000000000004
decision_type=2 2 2 2
left_child=1 -1 3 -3
right_child=-2 2 -4 -5
leaf_value=-0.036080075224174286 -0.086920845356914356 -0.029941697268828463 0.14901475201487147 0.16688494012001798
leaf_weight=358.41990051977336 1259.2318438179791 207.15416259132326 728.01278216950595 66.062961149960756
leaf_count=3952 24236 1941 3210 261
internal_value=0 0.0739044 0.113284 0.017908
internal_weight=0 1359.65 1001.23 273.217
internal_count=33600 9364 5412 2202
is_linear=0
shrinkage=0.1


Tree=71
num_leaves=5
num_cat=0
split_feature=437 378 355 205
split_gain=1484.14 921.294 511.791 228.959
threshold=4.5000000000000009 139.50000000000003 1.5000000000000002 7.5000000000000009
decision_type=2 2 2 2
left_child=1 -1 3 -3
right_child=-2 2 -4 -5
leaf_value=-0.073658095833348633 -0.081112625627741602 0.14053757703246741 -0.071680103327243436 -0.069240140672730141
leaf_weight=375.31726620532572 1306.8378652799875 1003.5331904403865 142.7759554348886 54.416322754696012
leaf_count=5703 21247 4373 1602 675
internal_value=0 0.0629831 0.10572 0.129701
internal_weight=0 1576.04 1200.73 1057.95
internal_count=33600 12353 6650 5048
is_linear=0
shrinkage=0.1


Tree=72
num_leaves=5
num_cat=0
split_feature=346 541 154 516
split_gain=1032.85 796.094 295.122 289.052
threshold=1.0000000180025095e-35 1.0000000180025095e-35 2.5000000000000004 7.5000000000000009
decision_type=2 2 2 2
left_child=1 -1 -3 -4
right_child=-2 2 3 -5
leaf_value=-0.025384857881779129 -0.070168268227667349 0.025992349342848355 0.035328091370544421 0.18811374383967056
leaf_weight=738.55797137692571 1175.4751766696572 272.98820609599352 165.96677362546325 493.252197381109
leaf_count=9496 18118 2314 1323 2349
internal_value=0 0.0521465 0.113557 0.149739
internal_weight=0 1670.77 932.207 659.219
internal_count=33600 15482 5986 3672
is_linear=0
shrinkage=0.1


Tree=73
num_leaves=5
num_cat=0
split_feature=490 317 486 342
split_gain=947.112 789.721 403.876 256.188
threshold=11.500000000000002 22.500000000000004 57.500000000000007 32.500000000000007
decision_type=2 2 2 2
left_child=1 2 3 -1
right_child=-2 -3 -4 -5
leaf_value=0.15920672404385458 -0.057911884934760009 -0.033727831783433963 -0.02493023515676368 -0.073978651341531726
leaf_weight=716.44782341644168 1408.0899737626314 603.82551753148437 173.36625212430954 49.985338497906923
leaf_count=4035 19617 7406 1986 556
internal_value=0 0.055472 0.112777 0.143934
internal_weight=0 1543.62 939.799 766.433
internal_count=33600 13983 6577 4591
is_linear=0
shrinkage=0.1


Tree=74
num_leaves=5
num_cat=0
split_feature=428 568 464 402
split_gain=837.401 601.865 304.924 265.338
threshold=70.500000000000014 27.500000000000004 88.500000000000014 147.50000000000003
decision_type=2 2 2 2
left_child=3 2 -2 -1
right_child=1 -3 -4 -5
leaf_value=-0.076825169693343812 -0.0065403220387238101 -0.067751002250095574 0.1314955168904052 0.010586638388221561
leaf_weight=1047.2753797098994 204.84840781241655 271.91389971971512 727.57271460443735 518.86311917193234
leaf_count=16734 1858 4531 4506 5971
internal_value=0 0.0630109 0.101176 -0.0478671
internal_weight=0 1204.34 932.421 1566.14
internal_count=33600 10895 6364 22705
is_linear=0
shrinkage=0.1


Tree=75
num_leaves=5
num_cat=0
split_feature=327 189 247 358
split_gain=616.069 624.793 609.43 454.662
threshold=33.500000000000007 2.5000000000000004 3.5000000000000004 1.0000000180025095e-35
decision_type=2 2 2 2
left_child=1 2 -1 -3
right_child=-2 3 -4 -5
leaf_value=-0.026235904464942041 -0.061287466692470538 0.16709844208361263 0.20511834294314268 -0.096376905732286966
leaf_weight=1067.805971108377 965.75113640725613 451.57282473146915 126.76265845447779 76.080522820353508
leaf_count=14253 15075 2571 659 1042
internal_value=0 0.0384642 -0.00157496 0.129015
internal_weight=0 1722.22 1194.57 527.653
internal_count=33600 18525 14912 3613
is_linear=0
shrinkage=0.1


Tree=76
num_leaves=5
num_cat=0
split_feature=270 542 624 575
split_gain=1137.27 979.484 342.872 218.307
threshold=5.5000000000000009 6.5000000000000009 5.5000000000000009 13.500000000000002
decision_type=2 2 2 2
left_child=1 -1 3 -3
right_child=-2 2 -4 -5
leaf_value=-0.053039325918498796 -0.07498256250305875 0.010483984733334036 -0.032612761719837992 0.15943163251258685
leaf_weight=532.73842407204211 1184.6849266923964 114.10201569646597 134.34203520230949 725.79134030081332
leaf_count=7774 20061 1062 1396 3307
internal_value=0 0.055928 0.11552 0.139233
internal_weight=0 1506.97 974.235 839.893
internal_count=33600 13539 5765 4369
is_linear=0
shrinkage=0.1


Tree=77
num_leaves=5
num_cat=0
split_feature=404 154 484 159
split_gain=1105.26 952.674 443.687 241.252
threshold=2.5000000000000004 1.0000000180025095e-35 1.0000000180025095e-35 1.0000000180025095e-35
decision_type=2 2 2 2
left_child=1 2 3 -1
right_child=-2 -3 -4 -5
leaf_value=0.1316721485371129 -0.075014005856309726 -0.086693021188574637 -0.032574449478715878 -0.092754119686961123
leaf_weight=996.93839579448104 1169.7053586449474 381.13857454061508 229.13096577115357 49.801259353756905
leaf_count=4865 18829 6672 2638 596
internal_value=0 0.0519153 0.0933535 0.120932
internal_weight=0 1657.01 1275.87 1046.74
internal_count=33600 14771 8099 5461
is_linear=0
shrinkage=0.1


Tree=78
num_leaves=5
num_cat=0
split_feature=433 656 515 295
split_gain=668.982 581.694 427.68 357.914
threshold=130.50000000000003 2.5000000000000004 1.0000000180025095e-35 249.50000000000003
decision_type=2 2 2 2
left_child=-1 -2 -3 -4
right_child=1 2 3 -5
leaf_value=-0.05852144114181166 -0.045154904186101713 -0.010093038083172445 0.15598585241227159 -0.016085867666307294
leaf_weight=1122.1613343227655 527.79762148112059 348.5893386118114 630.95255280286074 149.21570264175534
leaf_count=17236 7927 4184 3060 1193
internal_value=0 0.0414519 0.0819603 0.123077
internal_weight=0 1656.56 1128.76 780.168
internal_count=33600 16364 8437 4253
is_linear=0
shrinkage=0.1


Tree=79
num_leaves=5
num_cat=0
split_feature=156 211 203 595
split_gain=816.343 622.323 406.58 378.729
threshold=1.0000000180025095e-35 6.5000000000000009 10.500000000000002 2.5000000000000004
decision_type=2 2 2 2
left_child=1 -1 3 -3
right_child=-2 2 -4 -5
leaf_value=-0.062674904386155847 -0.07322566628086781 0.10749172623765534 -0.06296627566817202 -0.087140211118183722
leaf_weight=462.231006545946 986.29000489786267 1168.8154241256416 197.8901441693306 108.76509165391326
leaf_count=6918 16610 6869 1791 1412
internal_value=0 0.0385003 0.0702171 0.0908768
internal_weight=0 1937.7 1475.47 1277.58
internal_count=33600 16990 10072 8281
is_linear=0
shrinkage=0.1


Tree=80
num_leaves=5
num_cat=0
split_feature=407 490 350 627
split_gain=1419.24 446.324 276.259 214.469
threshold=1.0000000180025095e-35 32.500000000000007 127.50000000000001 1.0000000180025095e-35
decision_type=2 2 2 2
left_child=1 2 3 -1
right_child=-2 -3 -4 -5
leaf_value=-0.0015174292946348758 -0.085664592367791115 -0.043386387976088597 -0.024661767631158862 0.13883520410067859
leaf_weight=127.01601658202708 1142.7038848679513 289.90596999414265 158.36907988786697 755.05724482052028
leaf_count=1250 24236 3373 1516 3225
internal_value=0 0.0662413 0.0968056 0.118628
internal_weight=0 1330.35 1040.44 882.073
internal_count=33600 9364 5991 4475
is_linear=0
shrinkage=0.1


Tree=81
num_leaves=5
num_cat=0
split_feature=438 350 374 328
split_gain=1334.94 890.448 445.407 215.391
threshold=1.0000000180025095e-35 44.500000000000007 1.0000000180025095e-35 2.5000000000000004
decision_type=2 2 2 2
left_child=1 -1 3 -3
right_child=-2 2 -4 -5
leaf_value=-0.074417292519242229 -0.09275201663354278 0.12719312844441402 -0.061496190459660344 -0.052274434458462464
leaf_weight=419.83721711672843 1021.5850589927286 1046.6980748176575 161.82945610769093 70.996646763756871
leaf_count=6648 19192 4936 2216 608
internal_value=0 0.0518547 0.0933124 0.11576
internal_weight=0 1699.36 1279.52 1117.69
internal_count=33600 14408 7760 5544
is_linear=0
shrinkage=0.1


Tree=82
num_leaves=5
num_cat=0
split_feature=126 321 345 555
split_gain=847.869 489.832 383.799 316.619
threshold=1.0000000180025095e-35 1.0000000180025095e-35 61.500000000000007 2.5000000000000004
decision_type=2 2 2 2
left_child=3 2 -2 -1
right_child=1 -3 -4 -5
leaf_value=-0.05189293756890874 0.16381292715422557 -0.02334524834868399 -0.039242165887155712 0.09897286503142004
leaf_weight=1633.8170285224915 526.56095233187079 320.73524971865118 112.66949862986803 151.38610882312059
leaf_count=23813 2698 4135 1863 1091
internal_value=0 0.0774448 0.128003 -0.0390612
internal_weight=0 959.966 639.23 1785.2
internal_count=33600 8696 4561 24904
is_linear=0
shrinkage=0.1


Tree=83
num_leaves=5
num_cat=0
split_feature=178 316 516 563
split_gain=793.666 616.907 406.774 310.772
threshold=5.5000000000000009 65.500000000000014 92.500000000000014 1.0000000180025095e-35
decision_type=2 2 2 2
left_child=3 2 -2 -1
right_child=1 -3 -4 -5
leaf_value=-0.052106407504008259 0.13469858957390485 -0.057913659280841981 -0.043637604903192045 0.19579534288722478
leaf_weight=1583.8870050646365 750.35022819414735 315.57704035565257 153.717838967219 51.567034512758255
leaf_count=22526 4351 4089 2288 346
internal_value=0 0.0623518 0.104355 -0.044206
internal_weight=0 1219.65 904.068 1635.45
internal_count=33600 10728 6639 22872
is_linear=0
shrinkage=0.1


Tree=84
num_leaves=5
num_cat=0
split_feature=211 322 126 267
split_gain=755.469 544.122 602.413 339.89
threshold=16.500000000000004 12.500000000000002 1.5000000000000002 130.50000000000003
decision_type=2 2 2 2
left_child=1 2 3 -1
right_child=-2 -3 -4 -5
leaf_value=0.15670074529759617 -0.04895642045673352 -0.051925439456993051 -0.074616775735277974 -0.085437556776158108
leaf_weight=678.24562628008425 1443.3238375075161 332.18337412551045 165.56168828904629 62.906195249408484
leaf_count=3358 23018 4070 2362 792
internal_value=0 0.057469 0.0975666 0.136076
internal_weight=0 1238.9 906.714 741.152
internal_count=33600 10582 6512 4150
is_linear=0
shrinkage=0.1


Tree=85
num_leaves=5
num_cat=0
split_feature=326 357 295 245
split_gain=627.371 507.493 658.965 571.044
threshold=6.5000000000000009 1.0000000180025095e-35 103.50000000000001 1.0000000180025095e-35
decision_type=2 2 2 2
left_child=1 2 -1 -4
right_child=-2 -3 3 -5
leaf_value=0.13963696918247434 -0.048310391457884266 -0.089675669307120245 -0.079872673451085702 0.17352895275843289
leaf_weight=675.99981002695858 1244.2116386368871 217.92716905847192 346.31970375217497 118.89598255231977
leaf_count=5141 19231 3322 5349 557
internal_value=0 0.0499399 0.0766471 -0.0149309
internal_weight=0 1359.14 1141.22 465.216
internal_count=33600 14369 11047 5906
is_linear=0
shrinkage=0.1


Tree=86
num_leaves=5
num_cat=0
split_feature=514 270 273 323
split_gain=1013.19 752.29 315.155 212.006
threshold=21.500000000000004 5.5000000000000009 6.5000000000000009 185.50000000000003
decision_type=2 2 2 2
left_child=-1 2 3 -2
right_child=1 -3 -4 -5
leaf_value=-0.068975295700255776 0.14870789963631259 -0.048681985246652654 -0.061271006123413352 -0.0034714260252013554
leaf_weight=1196.73708723858 713.88280854932964 450.63754251413047 96.667011873796582 104.81447510421276
leaf_count=20910 3178 7549 1181 782
internal_value=0 0.0570207 0.109067 0.129226
internal_weight=0 1366 915.364 818.697
internal_count=33600 12690 5141 3960
is_linear=0
shrinkage=0.1


Tree=87
num_leaves=5
num_cat=0
split_feature=156 403 153 266
split_gain=954.179 747.951 403.865 292.921
threshold=1.0000000180025095e-35 4.5000000000000009 1.0000000180025095e-35 22.500000000000004
decision_type=2 2 2 2
left_child=1 2 3 -1
right_child=-2 -3 -4 -5
leaf_value=0.015806691747768376 -0.088468826840492787 -0.052208168663992652 -0.086961019291129593 0.13266630035343696
leaf_weight=289.09499647282064 846.58764164149761 598.00745734199882 124.22198481485248 835.10765499994159
leaf_count=2591 16610 8402 1867 4130
internal_value=0 0.0397016 0.0837398 0.102652
internal_weight=0 1846.43 1248.42 1124.2
internal_count=33600 16990 8588 6721
is_linear=0
shrinkage=0.1


Tree=88
num_leaves=5
num_cat=0
split_feature=405 514 655 268
split_gain=580.542 545.106 507.185 216.543
threshold=3.5000000000000004 1.0000000180025095e-35 4.5000000000000009 223.50000000000003
decision_type=2 2 2 2
left_child=-1 -2 -3 -4
right_child=1 2 3 -5
leaf_value=-0.074547340395345774 -0.027586137619803455 -0.027164663005383761 0.15422019743442827 0.026474797239687171
leaf_weight=734.1745633892715 895.5030546747148 317.07122688181698 561.66458021104336 174.35621239617467
leaf_count=13146 11990 4521 2676 1267
internal_value=0 0.0297519 0.0785056 0.124024
internal_weight=0 1948.6 1053.09 736.021
internal_count=33600 20454 8464 3943
is_linear=0
shrinkage=0.1


Tree=89
num_leaves=5
num_cat=0
split_feature=569 354 212 429
split_gain=702.377 465.152 307.182 296.599
threshold=1.0000000180025095e-35 20.500000000000004 2.5000000000000004 1.0000000180025095e-35
decision_type=2 2 2 2
left_child=1 -1 -3 -4
right_child=-2 2 3 -5
leaf_value=-0.037155905052909284 -0.077185450618582382 -0.028694390396013115 0.022232308154175345 0.12970274998101203
leaf_weight=647.63911717943847 817.34762933664024 275.40541664138436 411.88460728339851 683.87769550457597
leaf_count=8138 15057 3863 3090 3452
internal_value=0 0.0326519 0.0656333 0.0893537
internal_weight=0 2018.81 1371.17 1095.76
internal_count=33600 18543 10405 6542
is_linear=0
shrinkage=0.1


Tree=90
num_leaves=5
num_cat=0
split_feature=435 351 598 302
split_gain=1203.06 431.566 313.357 140.805
threshold=3.5000000000000004 84.500000000000014 7.5000000000000009 4.5000000000000009
decision_type=2 2 2 2
left_child=1 2 -1 -3
right_child=-2 3 -4 -5
leaf_value=-0.020018354058912616 -0.084048626223353129 -0.084661331669537099 0.11813785358823803 0.10948430259564959
leaf_weight=205.47696512378752 1045.3537937905639 223.58505651168525 810.1764418836683 44.176728274673223
leaf_count=1985 24195 3295 3781 344
internal_value=0 0.0604162 0.0901828 -0.0523975
internal_weight=0 1283.42 1015.65 267.762
internal_count=33600 9405 5766 3639
is_linear=0
shrinkage=0.1


Tree=91
num_leaves=5
num_cat=0
split_feature=410 290 521 300
split_gain=1158.15 653.113 358.252 218.086
threshold=1.0000000180025095e-35 1.0000000180025095e-35 1.5000000000000002 25.500000000000004
decision_type=2 2 2 2
left_child=1 2 3 -1
right_child=-2 -3 -4 -5
leaf_value=0.12135697958877278 -0.089085423234906411 -0.073712107777834879 -0.032449980440811044 -0.045719002097187406
leaf_weight=947.25492295622826 967.74111201055348 337.6587823368609 221.40239402092993 84.708852354437113
leaf_count=4587 19727 6051 2503 732
internal_value=0 0.0496062 0.0828582 0.107612
internal_weight=0 1591.02 1253.37 1031.96
internal_count=33600 13873 7822 5319
is_linear=0
shrinkage=0.1


Tree=92
num_leaves=5
num_cat=0
split_feature=543 320 154 345
split_gain=772.602 536.714 404.172 299.362
threshold=24.500000000000004 25.500000000000004 1.0000000180025095e-35 38.500000000000007
decision_type=2 2 2 2
left_child=-1 2 -2 -4
right_child=1 -3 3 -5
leaf_value=-0.054380552034449428 0.0057557595647613089 -0.041268011349970109 0.16991602295507036 -0.027833584759227745
leaf_weight=1265.9609474707395 333.63695703074336 414.33290306292474 539.8554204814136 88.881605690345168
leaf_count=19440 3699 6423 2677 1361
internal_value=0 0.0538266 0.0947785 0.141945
internal_weight=0 1376.71 962.374 628.737
internal_count=33600 14160 7737 4038
is_linear=0
shrinkage=0.1


Tree=93
num_leaves=5
num_cat=0
split_feature=350 517 316 264
split_gain=749 546.584 323.721 303.724
threshold=1.0000000180025095e-35 39.500000000000007 109.50000000000001 113.50000000000001
decision_type=2 2 2 2
left_child=-1 2 3 -2
right_child=1 -3 -4 -5
leaf_value=-0.069451680529148102 0.12730420557375191 -0.050553726966768797 -0.042496855634423805 0.0096355845354933033
leaf_weight=968.82597741484642 796.24491070210934 487.73021316342056 202.64604693837464 303.09921285323799
leaf_count=16812 4378 7847 2049 2514
internal_value=0 0.0396767 0.0734938 0.0948969
internal_weight=0 1789.72 1301.99 1099.34
internal_count=33600 16788 8941 6892
is_linear=0
shrinkage=0.1


Tree=94
num_leaves=5
num_cat=0
split_feature=597 437 239 183
split_gain=672.037 467.911 358.827 337.569
threshold=3.5000000000000004 10.500000000000002 81.500000000000014 151.50000000000003
decision_type=2 2 2 2
left_child=1 -1 3 -3
right_child=-2 2 -4 -5
leaf_value=-0.063595498653386734 -0.070722610221413088 0.1291904582236639 -0.0055763247598333574 -0.046590815115816336
leaf_weight=361.84476236067712 876.33019574731588 731.31761083565652 470.96910463273525 127.96622182428837
leaf_count=5612 15826 4020 6508 1634
internal_value=0 0.0371332 0.0645586 0.102985
internal_weight=0 1692.1 1330.25 859.284
internal_count=33600 17774 12162 5654
is_linear=0
shrinkage=0.1


Tree=95
num_leaves=5
num_cat=0
split_feature=488 297 300 186
split_gain=561.398 393.109 724.216 443.078
threshold=6.5000000000000009 18.500000000000004 1.0000000180025095e-35 1.5000000000000002
decision_type=2 2 2 2
left_child=1 2 3 -1
right_child=-2 -3 -4 -5
leaf_value=0.032891883417380439 -0.051506561090585871 -0.014811512856381701 -0.082204306494562715 0.20750850895972969
leaf_weight=232.93853594921529 1078.5234251916409 638.64496527612209 186.84206477366388 387.59040582552552
leaf_count=2570 16396 9101 3271 2262
internal_value=0 0.0437954 0.0901406 0.142083
internal_weight=0 1446.02 807.371 620.529
internal_count=33600 17204 8103 4832
is_linear=0
shrinkage=0.1


Tree=96
num_leaves=5
num_cat=0
split_feature=270 658 575 244
split_gain=827.904 619.51 369.859 209.181
threshold=5.5000000000000009 1.0000000180025095e-35 29.500000000000004 43.500000000000007
decision_type=2 2 2 2
left_child=1 2 -1 -4
right_child=-2 -3 3 -5
leaf_value=-0.032249197404516046 -0.070643840581363818 -0.066292115273313176 0.127330018221639 -0.087109995524474182
leaf_weight=211.88779552094638 1013.467842835933 356.80910473316908 804.27250580117106 47.700557138770819
leaf_count=2434 20061 6338 4060 707
internal_value=0 0.0476283 0.0858635 0.115252
internal_weight=0 1420.67 1063.86 851.973
internal_count=33600 13539 7201 4767
is_linear=0
shrinkage=0.1


Tree=97
num_leaves=5
num_cat=0
split_feature=156 404 268 539
split_gain=815.615 617.061 370.815 191.858
threshold=1.0000000180025095e-35 7.5000000000000009 9.5000000000000018 11.500000000000002
decision_type=2 2 2 2
left_child=1 2 -1 -4
right_child=-2 -3 3 -5
leaf_value=-0.027372896852630488 -0.087315886700018247 -0.054973506480862348 0.11443541507676165 -0.057202893803861933
leaf_weight=282.7537507340312 763.94232083857059 527.42381503246725 922.33275523036718 69.590324405580759
leaf_count=2898 16610 8612 4725 755
internal_value=0 0.0359365 0.0735694 0.102353
internal_weight=0 1802.1 1274.68 991.923
internal_count=33600 16990 8378 5480
is_linear=0
shrinkage=0.1


Tree=98
num_leaves=5
num_cat=0
split_feature=376 488 485 429
split_gain=484.916 408.457 344.247 317.507
threshold=1.0000000180025095e-35 1.0000000180025095e-35 78.500000000000014 72.500000000000014
decision_type=2 2 2 2
left_child=-1 2 -2 -3
right_child=1 3 -4 -5
leaf_value=-0.056709390416347386 -0.073123388818668353 0.10591451336735867 0.09632968885254628 -0.019031694755106899
leaf_weight=923.01561952754855 468.59987822175026 755.38005983643234 160.3474199436605 277.79436832107604
leaf_count=16416 7368 5171 1781 2864
internal_value=0 0.0336564 -0.029849 0.0723194
internal_weight=0 1662.12 628.947 1033.17
internal_count=33600 17184 9149 8035
is_linear=0
shrinkage=0.1


Tree=99
num_leaves=5
num_cat=0
split_feature=155 211 567 203
split_gain=627.738 432.099 284.09 307.015
threshold=1.0000000180025095e-35 6.5000000000000009 1.0000000180025095e-35 10.500000000000002
decision_type=2 2 2 2
left_child=1 -1 3 -3
right_child=-2 2 -4 -5
leaf_value=-0.057330208832601127 -0.068429931890848686 0.090724482161782333 -0.083096968025311108 -0.056808653499485329
leaf_weight=405.8447835650295 884.90827529132366 1168.9351148959249 127.27208245173097 159.8458799533546
leaf_count=6879 16774 6658 1886 1403
internal_value=0 0.0338376 0.0592705 0.0729495
internal_weight=0 1861.9 1456.05 1328.78
internal_count=33600 16826 9947 8061
is_linear=0
shrinkage=0.1


Tree=100
num_leaves=5
num_cat=0
split_feature=435 330 328 401
split_gain=1015.76 371.676 268.749 139.61
threshold=3.5000000000000004 2.5000000000000004 21.500000000000004 13.500000000000002
decision_type=2 2 2 2
left_child=1 2 -1 -4
right_child=-2 -3 3 -5
leaf_value=-0.061533458778297245 -0.082679056578191454 0.1123472422971596 -0.034210550359038 0.10867343331639666
leaf_weight=325.62104257009923 950.72568336129189 587.13283236138523 96.459048835560679 231.27204298786819
leaf_count=4479 24195 2823 878 1225
internal_value=0 0.0546537 0.00272956 0.0666047
internal_weight=0 1240.48 653.352 327.731
internal_count=33600 9405 6582 2103
is_linear=0
shrinkage=0.1


Tree=101
num_leaves=5
num_cat=0
split_feature=438 350 402 205
split_gain=1009.69 637.95 335.897 172.62
threshold=1.0000000180025095e-35 31.500000000000004 2.5000000000000004 1.0000000180025095e-35
decision_type=2 2 2 2
left_child=1 -1 3 -3
right_child=-2 2 -4 -5
leaf_value=-0.075196105894324655 -0.091369743797449304 0.10981349417699426 -0.052749949512754579 -0.056203320527758872
leaf_weight=346.2497133128345 838.30751740373671 988.94673674926162 167.85805569402874 66.378958038985729
leaf_count=6431 19192 4739 2313 925
internal_value=0 0.0445175 0.0784362 0.0993323
internal_weight=0 1569.43 1223.18 1055.33
internal_count=33600 14408 7977 5664
is_linear=0
shrinkage=0.1


Tree=102
num_leaves=5
num_cat=0
split_feature=347 570 371 378
split_gain=669.356 533.439 322.474 275.189
threshold=1.0000000180025095e-35 1.0000000180025095e-35 60.500000000000007 107.50000000000001
decision_type=2 2 2 2
left_child=1 -1 3 -3
right_child=-2 2 -4 -5
leaf_value=-0.034168583697157064 -0.061271113038642369 0.15894757801355075 -0.074373510850730115 0.045463078953985187
leaf_weight=559.59007574431598 1007.2134254593402 481.36081552691758 107.86569930799305 385.68789967149496
leaf_count=8916 17407 2623 1539 3115
internal_value=0 0.0436155 0.0882658 0.108553
internal_weight=0 1534.5 974.914 867.049
internal_count=33600 16193 7277 5738
is_linear=0
shrinkage=0.1


Tree=103
num_leaves=5
num_cat=0
split_feature=517 290 181 314
split_gain=630.356 530.393 309.741 201.362
threshold=4.5000000000000009 66.500000000000014 13.500000000000002 4.5000000000000009
decision_type=2 2 2 2
left_child=1 2 -1 -4
right_child=-2 -3 3 -5
leaf_value=-0.016978807409929145 -0.061140225627639155 -0.03723250103099348 0.12640159458607947 -0.046878465684230208
leaf_weight=246.22527670115232 1005.388456126675 584.20672775804996 745.21419745869935 73.255789352580905
leaf_count=2775 17542 8470 4111 702
internal_value=0 0.039293 0.0812896 0.110854
internal_weight=0 1648.9 1064.7 818.47
internal_count=33600 16058 7588 4813
is_linear=0
shrinkage=0.1


Tree=104
num_leaves=5
num_cat=0
split_feature=464 373 211 235
split_gain=573.551 492.158 221.26 283.552
threshold=86.500000000000014 28.500000000000004 189.50000000000003 2.5000000000000004
decision_type=2 2 2 2
left_child=-1 -2 -3 -4
right_child=1 2 3 -5
leaf_value=-0.063908066906939939 -0.037190859297231871 0.10738906525363412 0.18525218992440098 -0.056462183242002167
leaf_weight=891.94228415004909 574.8335337061435 730.11684836447239 62.975639453157783 203.6285004299134
leaf_count=15976 8857 4921 789 3057
internal_value=0 0.0364587 0.0789408 0.000920686
internal_weight=0 1571.55 996.721 266.604
internal_count=33600 17624 8767 3846
is_linear=0
shrinkage=0.1


Tree=105
num_leaves=5
num_cat=0
split_feature=488 298 275 330
split_gain=465.431 409.859 390.901 345.873
threshold=7.5000000000000009 32.500000000000007 13.500000000000002 1.0000000180025095e-35
decision_type=2 2 2 2
left_child=1 3 -3 -1
right_child=-2 2 -4 -5
leaf_value=0.10583233760741716 -0.04856188463808838 -0.063212378965649796 0.16724453515510379 -0.083269154998151462
leaf_weight=772.55746781639755 1015.0167398396879 470.95514926500618 86.534270286560059 109.98118753917515
leaf_count=6348 16324 8229 747 1952
internal_value=0 0.0398286 -0.0272632 0.0822096
internal_weight=0 1440.03 557.489 882.539
internal_count=33600 17276 8976 8300
is_linear=0
shrinkage=0.1


Tree=106
num_leaves=5
num_cat=0
split_feature=514 271 429 93
split_gain=773.738 521.747 237.62 199.462
threshold=21.500000000000004 1.0000000180025095e-35 9.5000000000000018 1.0000000180025095e-35
decision_type=2 2 2 2
left_child=-1 2 -2 -3
right_child=1 3 -4 -5
leaf_value=-0.065197755442539043 0.012936787634355466 -0.062954372823679133 0.12676322732296921 0.26823735036831564
leaf_weight=1044.0880125313997 260.29276411794126 363.74034606572241 623.15754737891257 18.468595489859581
leaf_count=20910 2267 6925 3314 184
internal_value=0 0.05106 0.0932733 -0.0464791
internal_weight=0 1265.66 883.45 382.209
internal_count=33600 12690 5581 7109
is_linear=0
shrinkage=0.1


Tree=107
num_leaves=5
num_cat=0
split_feature=155 431 378 511
split_gain=721.161 540.227 253.709 281.696
threshold=1.0000000180025095e-35 1.0000000180025095e-35 145.50000000000003 1.0000000180025095e-35
decision_type=2 2 2 2
left_child=1 2 3 -1
right_child=-2 -3 -4 -5
leaf_value=0.11122714177357942 -0.086500756168454013 -0.04511672529507374 -0.039454970541540291 -0.056093835375289447
leaf_weight=883.79624658077955 696.98266737163067 579.64665845967829 170.98113306052983 113.03561927936971
leaf_count=4136 16774 9142 2335 1213
internal_value=0 0.033758 0.0729197 0.0922185
internal_weight=0 1747.46 1167.81 996.832
internal_count=33600 16826 7684 5349
is_linear=0
shrinkage=0.1


Tree=108
num_leaves=5
num_cat=0
split_feature=657 515 512 431
split_gain=452.784 507.398 234.175 256.752
threshold=4.5000000000000009 1.0000000180025095e-35 26.500000000000004 70.500000000000014
decision_type=2 2 2 2
left_child=-1 2 -2 -4
right_child=1 -3 3 -5
leaf_value=-0.056454285054424194 -0.062585240736842795 0.0828292461356296 -0.065223158140795101 0.17237418535465052
leaf_weight=879.61708763241768 542.33898212574422 898.02803418599069 80.642149290069938 102.68451266922057
leaf_count=15728 9832 5398 1837 805
internal_value=0 0.0326016 -0.0295616 0.067949
internal_weight=0 1623.69 725.666 183.327
internal_count=33600 17872 12474 2642
is_linear=0
shrinkage=0.1


Tree=109
num_leaves=5
num_cat=0
split_feature=597 372 398 374
split_gain=550.509 340.979 209.553 284.241
threshold=1.0000000180025095e-35 13.500000000000002 78.500000000000014 5.5000000000000009
decision_type=2 2 2 2
left_child=1 2 3 -1
right_child=-2 -3 -4 -5
leaf_value=-0.081213456730983388 -0.068817642263503412 0.070776426732601067 0.19298736600315661 0.036099054243809499
leaf_weight=441.64728721231222 794.23209932632744 988.9557266049087 45.25095702521503 386.76218033023179
leaf_count=6335 15951 7464 370 3480
internal_value=0 0.0305801 -0.014929 -0.0264465
internal_weight=0 1862.62 873.66 828.409
internal_count=33600 17649 10185 9815
is_linear=0
shrinkage=0.1


Tree=110
num_leaves=5
num_cat=0
split_feature=434 455 486 627
split_gain=881.362 356.643 189.262 155.507
threshold=3.5000000000000004 1.5000000000000002 35.500000000000007 1.0000000180025095e-35
decision_type=2 2 2 2
left_child=1 2 -1 -3
right_child=-2 3 -4 -5
leaf_value=-0.068134668766383785 -0.084944984215360772 -0.0034169960059797842 0.062276629503048554 0.11284427057216809
leaf_weight=297.75595893431455 830.06084792502224 141.32634100317955 176.76057772617787 613.24361658468843
leaf_count=4948 22905 1093 1547 3107
internal_value=0 0.0483822 -0.0195149 0.0910723
internal_weight=0 1229.09 474.517 754.57
internal_count=33600 10695 6495 4200
is_linear=0
shrinkage=0.1


Tree=111
num_leaves=5
num_cat=0
split_feature=410 402 233 301
split_gain=872.465 469.79 311.474 164.52
threshold=1.0000000180025095e-35 1.0000000180025095e-35 1.0000000180025095e-35 3.5000000000000004
decision_type=2 2 2 2
left_child=1 2 3 -1
right_child=-2 -3 -4 -5
leaf_value=0.098730178499582863 -0.087146708967653377 -0.069738619078050401 -0.074906486867906436 -0.082293954902314281
leaf_weight=985.25486139953136 798.27458902914077 295.33104070834816 128.96648437529802 52.344569563865662
leaf_count=5325 19727 5322 2609 617
internal_value=0 0.0427968 0.0713191 0.0895406
internal_weight=0 1461.9 1166.57 1037.6
internal_count=33600 13873 8551 5942
is_linear=0
shrinkage=0.1


Tree=112
num_leaves=5
num_cat=0
split_feature=542 320 344 153
split_gain=597.324 399.319 328.911 213.534
threshold=1.0000000180025095e-35 22.500000000000004 15.500000000000002 2.5000000000000004
decision_type=2 2 2 2
left_child=-1 2 3 -2
right_child=1 -3 -4 -5
leaf_value=-0.052883068026357428 0.035363694078494261 -0.036151430435451375 -0.044546668167964605 0.14649631613881767
leaf_weight=1091.8837676392868 260.32357987202704 408.23301776126027 168.2114081569016 518.89776563085616
leaf_count=19004 2319 7040 2592 2645
internal_value=0 0.0464702 0.0820815 0.109445
internal_weight=0 1355.67 947.433 779.221
internal_count=33600 14596 7556 4964
is_linear=0
shrinkage=0.1


Tree=113
num_leaves=5
num_cat=0
split_feature=350 179 290 316
split_gain=560.743 396.39 296.776 229.949
threshold=1.0000000180025095e-35 2.5000000000000004 166.50000000000003 123.50000000000001
decision_type=2 2 2 2
left_child=-1 -2 3 -3
right_child=1 2 -4 -5
leaf_value=-0.065163698238923859 -0.025482199772338232 0.11726186774654274 -0.035594336254195037 -0.054626541128018902
leaf_weight=846.34251024387777 671.31495231203735 747.9608550593257 201.72474790364504 86.379009302705526
leaf_count=16812 9431 4309 2334 714
internal_value=0 0.0343506 0.0731201 0.0994244
internal_weight=0 1707.38 1036.06 834.34
internal_count=33600 16788 7357 5023
is_linear=0
shrinkage=0.1


Tree=114
num_leaves=5
num_cat=0
split_feature=597 401 524 712
split_gain=526.2 361.42 199.635 164.456
threshold=3.5000000000000004 4.5000000000000009 15.500000000000002 1.0000000180025095e-35
decision_type=2 2 2 2
left_child=1 -1 3 -3
right_child=-2 2 -4 -5
leaf_value=-0.037588820842157658 -0.067331202597582462 0.10885620936581582 -0.010739352176342556 -0.0069151380772215281
leaf_weight=500.04756604507565 773.64249055553228 696.53755719400942 266.20965498872101 148.61609012261033
leaf_count=8929 15826 4743 2541 1561
internal_value=0 0.032967 0.0647255 0.0884972
internal_weight=0 1611.41 1111.36 845.154
internal_count=33600 17774 8845 6304
is_linear=0
shrinkage=0.1


Tree=115
num_leaves=5
num_cat=0
split_feature=326 322 517 329
split_gain=391.709 347.936 300.898 267.813
threshold=36.500000000000007 140.50000000000003 38.500000000000007 3.5000000000000004
decision_type=2 2 2 2
left_child=2 -2 3 -1
right_child=1 -3 -4 -5
leaf_value=0.088290124759074107 -0.079821196633099639 0.060233395418455751 -0.028162876465528681 -0.077037563686594604
leaf_weight=840.59924208000302 731.37078713066876 233.47300133109093 477.72029081173241 110.30588174983859
leaf_count=6292 14272 3324 7358 2354
internal_value=0 -0.0459019 0.0365447 0.0690602
internal_weight=0 964.844 1428.63 950.905
internal_count=33600 17596 16004 8646
is_linear=0
shrinkage=0.1


Tree=116
num_leaves=5
num_cat=0
split_feature=656 573 243 429
split_gain=669.35 635.433 265.995 183.262
threshold=1.0000000180025095e-35 72.500000000000014 38.500000000000007 2.5000000000000004
decision_type=2 2 2 2
left_child=1 -1 3 -3
right_child=-2 2 -4 -5
leaf_value=-0.059464713785886039 -0.077533595296987015 0.032489770261720112 -0.04070007122121972 0.13499505476390103
leaf_weight=453.75561105087399 758.14409517217427 247.62811514921486 146.75093285366893 595.82372272759676
leaf_count=7606 17974 2204 2785 3031
internal_value=0 0.0384588 0.0833519 0.104963
internal_weight=0 1443.96 990.203 843.452
internal_count=33600 15626 8020 5235
is_linear=0
shrinkage=0.1


Tree=117
num_leaves=5
num_cat=0
split_feature=376 268 157 580
split_gain=626.235 415.865 274.405 147.873
threshold=1.0000000180025095e-35 41.500000000000007 1.0000000180025095e-35 9.5000000000000018
decision_type=2 2 2 2
left_child=1 -1 3 -3
right_child=-2 2 -4 -5
leaf_value=-0.037935164555228024 -0.068833471067198088 0.10704569373560371 -0.071164303606288143 -0.040313939068014774
leaf_weight=474.91103084385395 851.6818074779585 804.78899569623172 112.06973243132234 73.938200027681887
leaf_count=7817 17184 5110 2698 791
internal_value=0 0.0389518 0.0758164 0.0946136
internal_weight=0 1465.71 990.797 878.727
internal_count=33600 16416 8599 5901
is_linear=0
shrinkage=0.1


Tree=118
num_leaves=5
num_cat=0
split_feature=406 657 515 485
split_gain=389.678 332.749 275.809 347.372
threshold=12.500000000000002 4.5000000000000009 1.0000000180025095e-35 128.50000000000003
decision_type=2 2 2 2
left_child=-1 -2 3 -3
right_child=1 2 -4 -5
leaf_value=-0.07000216256993709 -0.039774075612628967 -0.050854389793745763 0.089072294734613006 0.15449915866536057
leaf_weight=581.94850546587259 567.24312135204673 382.88339343480766 782.10835208185017 104.22317015938461
leaf_count=12071 10018 6738 4103 670
internal_value=0 0.0238562 0.0523081 -0.00674222
internal_weight=0 1836.46 1269.21 487.107
internal_count=33600 21529 11511 7408
is_linear=0
shrinkage=0.1


Tree=119
num_leaves=5
num_cat=0
split_feature=157 152 211 231
split_gain=506.336 319.181 220.619 191.348
threshold=1.5000000000000002 1.0000000180025095e-35 6.5000000000000009 48.500000000000007
decision_type=2 2 2 2
left_child=1 2 -1 -4
right_child=-2 -3 3 -5
leaf_value=-0.038604871162418453 -0.070658412763558331 -0.068488765171359808 0.078065016131921447 -0.030229758537711
leaf_weight=257.61621715687215 714.82455812394619 287.56290494278073 1130.4370832685381 190.14409194327891
leaf_count=4670 15326 4752 7208 1644
internal_value=0 0.0282834 0.0459444 0.0624571
internal_weight=0 1865.76 1578.2 1320.58
internal_count=33600 18274 13522 8852
is_linear=0
shrinkage=0.1


Tree=120
num_leaves=5
num_cat=0
split_feature=434 329 597 303
split_gain=744.487 323.203 143.985 121.562
threshold=3.5000000000000004 1.0000000180025095e-35 8.5000000000000018 82.500000000000014
decision_type=2 2 2 2
left_child=1 3 -3 -1
right_child=-2 2 -4 -5
leaf_value=-0.03474109296937513 -0.083722393414086993 -0.011838938335070227 0.10777358746609036 0.14352379327375972
leaf_weight=442.72403473220766 754.10018122009933 121.57517356704921 576.15541047416627 41.18360586091876
leaf_count=6244 22905 1215 3034 202
internal_value=0 0.0434009 0.0869261 -0.0193697
internal_weight=0 1181.64 697.731 483.908
internal_count=33600 10695 4249 6446
is_linear=0
shrinkage=0.1


Tree=121
num_leaves=5
num_cat=0
split_feature=438 350 489 301
split_gain=776.248 470.217 276.409 136.34
threshold=1.0000000180025095e-35 31.500000000000004 43.500000000000007 13.500000000000002
decision_type=2 2 2 2
left_child=1 -1 -3 -4
right_child=-2 2 3 -5
leaf_value=-0.071918600797622315 -0.090026060795952392 -0.031571199143615204 0.10203078458669759 -0.066341778481537717
leaf_weight=301.6995465029031 690.36555267125368 222.04996947571635 863.73229755088687 50.405738964676857
leaf_count=6431 19192 2528 4883 566
internal_value=0 0.038927 0.0683947 0.0926935
internal_weight=0 1437.89 1136.19 914.138
internal_count=33600 14408 7977 5449
is_linear=0
shrinkage=0.1


Tree=122
num_leaves=5
num_cat=0
split_feature=346 514 483 343
split_gain=559.363 329.589 221.952 206.356
threshold=4.5000000000000009 1.0000000180025095e-35 51.500000000000007 120.50000000000001
decision_type=2 2 2 2
left_child=1 2 -1 -3
right_child=-2 3 -4 -5
leaf_value=-0.049108093775005558 -0.061492423891423398 0.092866720191631738 0.097273226028490256 -0.085818615337937526
leaf_weight=473.7135062161833 865.41707867383957 810.43861287087202 131.83056196011603 69.64621395803988
leaf_count=8047 17921 5543 1157 932
internal_value=0 0.0396106 -0.0171504 0.0786598
internal_weight=0 1485.63 605.544 880.085
internal_count=33600 15679 9204 6475
is_linear=0
shrinkage=0.1


Tree=123
